svm_type c_svc
kernel_type rbf
gamma 0.09090909090909091
nr_class 6
total_sv 323
rho 0.5576043687178722 0.554623440238722 0.6914642001090401 0.4786637365678532 -0.8180140135645318 -0.2978581838530018 0.1687218582888177 -0.30077184064827667 -0.90825778896132 0.4273472864569676 0.14597036524854554 -0.8602734118765658 -0.4851029790435309 -0.9253649910530918 -0.8702109028438259
label 5 1 2 3 4 31
nr_sv 53 56 62 90 61 1
SV
0.0 0.0 0.0 0.03443912394933873 0.0 1:0.037321 2:-0.077181 3:-0.020815 4:0.088119 5:-0.010991 6:-0.208029 7:0.071419 8:0.001502 9:0.211374 10:1.141676 11:0.202996 
0.0 0.0 0.0 2.9847109732062446E-4 0.01507882712331317 1:0.098362 2:0.327154 3:0.671588 4:0.010719 5:0.072973 6:-0.047676 7:-0.411151 8:1.333138 9:0.1068 10:4.37297 11:0.017769 
0.050877421883388015 1.0 0.9046262650288899 1.0 0.0 1:-0.099349 2:-0.013159 3:0.211191 4:0.231638 5:0.273434 6:0.051127 7:-0.294047 8:-0.710622 9:0.08905 10:0.234673 11:0.250425 
0.0 0.0 0.0 1.0 0.0 1:-0.073477 2:-0.039869 3:0.034662 4:-0.066213 5:0.118154 6:0.274476 7:-0.395865 8:0.376005 9:-0.08574 10:0.074612 11:0.323949 
1.0 0.6257775612668669 1.0 0.47743871500176077 0.09812965252997817 1:0.09644 2:0.109139 3:0.574866 4:0.730057 5:-0.163404 6:-1.020968 7:1.94291 8:-1.31347 9:0.949871 10:1.08768 11:0.265436 
0.0 1.0 0.0 1.0 0.0 1:-0.080669 2:-0.017527 3:0.182524 4:0.193902 5:0.200267 6:0.029346 7:-0.142434 8:-0.501186 9:0.109002 10:0.176446 11:0.276361 
0.0 0.0 1.0 0.0 0.0 1:0.130209 2:-0.139139 3:0.501616 4:0.364806 5:0.154277 6:-0.328213 7:-0.665953 8:0.938532 9:0.216888 10:-1.775543 11:0.275326 
0.0 1.0 0.0 0.860667264338081 0.0 1:0.059431 2:-0.050293 3:-0.032479 4:-0.089118 5:-0.348486 6:-0.134007 7:0.994663 8:1.069585 9:0.258648 10:-0.260255 11:0.470883 
0.0 0.0 1.0 0.0 0.0 1:0.180476 2:-0.022705 3:0.696671 4:0.469007 5:0.098693 6:-0.551737 7:-0.298586 8:0.867832 9:0.394045 10:-0.468653 11:0.198155 
0.0 0.0 0.0 1.0 0.0 1:0.018641 2:-0.072813 3:0.007852 4:0.125855 5:0.062176 6:-0.186248 7:-0.080194 8:-0.207934 9:0.191421 10:1.199903 11:0.17706 
0.0 0.0 1.0 0.0 0.0 1:0.181498 2:-8.61E-4 3:0.713634 4:0.515508 5:0.067784 6:-0.634579 7:-0.043368 8:0.653332 9:0.474183 10:-0.233307 11:0.196637 
1.0 1.0 1.0 0.47738008445845614 0.0 1:0.037139 2:0.010014 3:0.366599 4:0.61081 5:-0.117322 6:-0.784056 7:1.645209 8:-1.304497 9:0.774635 10:0.021009 11:0.33966 
0.0 1.0 0.0 0.0 0.0 1:-0.071329 2:-0.019712 3:0.16819 4:0.175034 5:0.163683 6:0.018456 7:-0.066628 8:-0.396468 9:0.118979 10:0.147333 11:0.289329 
0.0 0.0 1.0 0.4417734627434682 0.0073105241875397655 1:0.243992 2:-0.323482 3:0.701519 4:0.256855 5:0.17165 6:0.160617 7:-1.475979 8:0.956388 9:0.016527 10:-2.796855 11:0.295424 
0.943958648199949 1.0 1.0 1.0 0.11799163529960754 1:-0.439848 2:0.175161 3:0.851352 4:0.129278 5:-0.013666 6:1.045087 7:1.702533 8:0.880051 9:-0.133003 10:-6.138457 11:1.232382 
1.0 1.0 0.0 0.8373834095162911 0.03958315520468963 1:-0.236926 2:-0.01622 3:-0.355763 4:-0.047505 5:-0.055049 6:0.234617 7:1.176826 8:-1.490778 9:0.138418 10:0.574019 11:0.462597 
0.0 0.0 0.0 0.28999648876578976 0.0 1:-0.10119 2:-0.153702 3:-0.090944 4:0.105352 5:0.064929 6:0.076887 7:0.207891 8:-0.451684 9:0.099118 10:-1.445529 11:0.435718 
1.0 1.0 0.0 0.0 0.0 1:-0.16663 2:0.00233 3:-0.170083 4:-0.021941 5:-0.009603 6:0.184727 7:0.731982 8:-0.87091 9:0.110428 10:0.691996 11:0.396588 
0.0 0.0 0.0 1.0 0.0 1:-0.068449 2:-0.037602 3:0.04975 4:-0.035439 5:0.10745 6:0.226361 7:-0.303089 8:0.299619 9:-0.046632 10:0.072175 11:0.324663 
0.0 0.0 0.0 1.0 0.0 1:-0.087141 2:-0.074984 3:-0.018469 4:-0.052364 5:0.115179 6:0.273011 7:-0.329393 8:0.226821 9:-0.077618 10:-0.35693 11:0.355067 
0.32265780988975223 0.0 0.0 1.0 0.0 1:-0.128519 2:-0.223933 3:-0.197206 4:0.133049 5:0.05898 6:0.073956 7:0.340834 8:-0.750052 9:0.115361 10:-2.308612 11:0.497954 
0.0 1.0 0.0 0.0 0.0 1:-0.130915 2:0.013459 3:0.272994 4:0.215862 5:0.246538 6:0.147813 7:-0.103972 8:-0.572419 9:0.069528 10:-0.466741 11:0.34891 
0.0 1.0 0.0 0.0 0.0 1:-0.048337 2:-0.028532 3:0.110102 4:0.087656 5:0.064636 6:0.033901 7:0.068015 8:-0.005927 9:0.1098 10:0.062429 11:0.32752 
0.0 0.5274818826460168 0.9148073896046702 0.0 0.0 1:0.075437 2:0.18719 3:0.538621 4:0.082357 5:0.083055 6:-0.078849 7:-0.351067 8:1.009041 9:0.127322 10:2.597907 11:0.117016 
0.7171121072755712 1.0 0.2101998042413172 0.613838044840897 0.022759077047236443 1:-0.415363 2:0.097936 3:0.92419 4:0.454929 5:0.593247 6:0.843823 7:-0.202033 8:-0.680286 9:-0.202357 10:-5.517983 11:0.817831 
0.0 1.0 0.0 0.0 0.0 1:-0.232023 2:-0.104588 3:0.414 4:0.324492 5:0.210982 6:0.341815 7:0.265307 8:-0.075581 9:-0.020142 10:-0.090822 11:0.461466 
0.0 0.3368642205112705 0.0 0.0 0.0 1:-0.024629 2:-0.030633 3:0.096523 4:0.080694 5:-0.019234 6:-0.035995 7:0.312404 8:0.127122 9:0.168861 10:0.001766 11:0.35417 
1.0 1.0 0.0 0.0 0.0 1:-0.276167 2:-0.477735 3:-0.251958 4:0.018688 5:0.081477 6:0.652011 7:-0.04672 8:0.580899 9:-0.32606 10:-1.047027 11:0.564057 
0.0 1.0 0.0 0.0 0.0 1:-0.048337 2:-0.028532 3:0.110102 4:0.087656 5:0.064636 6:0.033901 7:0.068015 8:-0.005927 9:0.1098 10:0.062429 11:0.32752 
0.0 1.0 0.0 0.0 0.0 1:-0.061989 2:-0.021896 3:0.153857 4:0.156166 5:0.1271 6:0.007566 7:0.009179 8:-0.29175 9:0.128955 10:0.118219 11:0.302298 
0.0 1.0 0.0 0.0 0.0 1:0.006971 2:-0.003591 3:0.27607 4:0.426167 5:-0.053102 6:-0.495365 7:1.088552 8:-0.846179 9:0.539988 10:0.035628 11:0.335375 
0.0 1.0 0.0 0.0 0.0 1:0.001943 2:-0.005858 3:0.260982 4:0.395394 5:-0.042398 6:-0.44725 7:0.995776 8:-0.769792 9:0.50088 10:0.038064 11:0.334661 
0.8673510587400026 0.8990179401661051 1.0 1.0 0.07189055879930903 1:0.227437 2:-2.02E-4 3:0.818388 4:0.303004 5:0.209847 6:-0.312204 7:-1.333322 8:2.020611 9:0.127347 10:-0.120287 11:0.112303 
0.0 0.0 0.0 0.426463657697468 0.0 1:-0.072057 2:-0.068182 3:0.026795 4:0.039957 5:0.083069 6:0.128665 7:-0.051065 8:-0.002338 9:0.039706 10:-0.364239 11:0.357209 
1.0 1.0 1.0 1.0 0.0913232260347969 1:-0.174069 2:0.004316 3:0.325859 4:0.382582 5:0.566102 6:0.138249 7:-0.900499 8:-1.548367 9:0.009239 10:0.46758 11:0.14668 
0.0 1.0 0.0 0.0 0.0 1:-0.157869 2:0.064647 3:0.345532 4:0.084712 5:8.63E-4 6:0.318963 7:0.71857 8:0.273645 9:0.073858 10:-2.248942 11:0.64355 
0.0 0.0 0.8827165526060844 0.0 0.0 1:0.069495 2:0.082511 3:0.487948 4:0.613887 5:-0.122077 6:-0.82924 7:1.605042 8:-1.082516 9:0.7975 10:0.881655 11:0.278139 
0.0 1.0 0.0 0.0 0.0 1:-0.048337 2:-0.028532 3:0.110102 4:0.087656 5:0.064636 6:0.033901 7:0.068015 8:-0.005927 9:0.1098 10:0.062429 11:0.32752 
0.07708268816075091 0.08853045151015466 0.22688045798152479 0.9203020536406519 0.0 1:0.206907 2:0.520868 3:1.057947 4:0.187666 5:0.002218 6:-0.42527 7:-0.001301 8:1.467965 9:0.379055 10:6.511185 11:-0.132107 
1.0 1.0 1.0 1.0 0.12779500073478894 1:-0.263358 2:-0.559794 3:-0.717039 4:0.233836 5:0.041427 6:0.108151 7:0.87954 8:-2.090912 9:0.153408 10:-6.405818 11:0.792859 
0.0 1.0 0.0 0.0 0.0 1:-0.048337 2:-0.028532 3:0.110102 4:0.087656 5:0.064636 6:0.033901 7:0.068015 8:-0.005927 9:0.1098 10:0.062429 11:0.32752 
0.0 0.38040240908107625 0.0 0.0 0.0 1:-0.082498 2:-0.11632 3:-0.022725 4:0.122277 5:0.0572 6:0.030237 7:0.234195 8:-0.378887 9:0.130104 10:-1.016424 11:0.405314 
0.0 1.0 0.0 0.0 0.0 1:-0.031449 2:-0.00644 3:0.166843 4:0.142279 5:0.044717 6:-0.061597 7:0.220332 8:-0.084108 9:0.183955 10:0.273327 11:0.313389 
0.0 1.0 0.0 0.0 0.0 1:-0.011337 2:0.00263 3:0.227196 4:0.265374 5:0.001903 6:-0.254057 7:0.591436 8:-0.389654 9:0.340387 10:0.263581 11:0.316246 
1.0 0.6198756132580108 0.8618722933999509 0.9659059882670358 0.10617153065103833 1:-0.264659 2:-0.328756 3:-0.623928 4:-0.553974 5:0.300698 6:1.178405 7:-1.693308 8:0.783061 9:-0.77194 10:-2.899885 11:0.528205 
0.6926527422095686 1.0 1.0 1.0 0.0 1:0.143491 2:-0.069952 3:-0.16148 4:-0.25893 5:-0.677737 6:-0.232019 7:1.676921 8:2.012049 9:0.348435 10:-0.522275 11:0.587596 
0.0 0.0 1.0 1.0 0.0 1:0.187692 2:0.038456 3:0.742581 4:0.318215 5:0.147456 6:-0.356346 7:-0.802634 8:1.471745 9:0.22137 10:0.404176 11:0.133063 
0.6417501119572019 0.7626266619843033 0.640029135359402 0.6272791724945865 0.08701053970637847 1:0.276821 2:0.261936 3:0.98598 4:0.049155 5:-0.233143 6:0.375294 7:0.620874 8:-0.57874 9:0.272468 10:5.14604 11:-0.400029 
0.9918566136297037 1.0 1.0 1.0 0.09069118997030504 1:0.143491 2:-0.069952 3:-0.16148 4:-0.25893 5:-0.677737 6:-0.232019 7:1.676921 8:2.012049 9:0.348435 10:-0.522275 11:0.587596 
0.0 0.0 0.0 1.0 0.0 1:-0.063421 2:-0.035334 3:0.064838 4:-0.004665 5:0.096747 6:0.178246 7:-0.210313 8:0.223232 9:-0.007524 10:0.069739 11:0.325377 
1.0 1.0 1.0 1.0 0.12426508271101863 1:0.201879 2:0.518601 3:1.042859 4:0.156893 5:0.012921 6:-0.377155 7:-0.094077 8:1.544352 9:0.339948 10:6.513621 11:-0.132821 
1.0 0.8020487544978635 0.03312015316391767 1.0 0.0 1:-0.083533 2:-0.044404 3:0.004486 4:-0.12776 5:0.13956 6:0.370706 7:-0.581417 8:0.528778 9:-0.163956 10:0.079485 11:0.322521 
1.0 1.0 0.0 1.0 0.0 1:0.107295 2:-0.247197 3:-0.157351 4:-0.077247 5:-0.365693 6:-0.483679 7:0.634247 8:1.015913 9:0.32225 10:2.428988 11:0.174383 
-1.0 1.0 0.9565230987740458 1.0 0.05423041895447088 1:-0.941891 2:-0.933276 3:-0.337403 4:1.705292 5:1.235148 6:-0.493753 7:-0.63965 8:-2.138168 9:-0.245852 10:-0.670483 11:-0.243037 
-0.0 0.8781337481655974 0.0 0.0 0.0 1:-0.699344 2:-1.477872 3:-0.783203 4:-0.06842 5:-0.085664 6:0.896758 7:-0.132356 8:1.227678 9:-0.836026 10:-0.007807 11:0.098993 
-0.8862694492998676 1.0 0.0 0.0 0.0 1:-1.306317 2:1.185175 3:0.476667 4:0.207047 5:0.966771 6:-0.728871 7:1.141206 8:-1.083986 9:0.008332 10:0.243472 11:-0.080244 
-0.0 0.0 0.0461160563687246 0.0 0.0 1:-0.947121 2:-0.912829 3:-0.714604 4:1.728812 5:0.824622 6:-1.48542 7:0.612286 8:1.365497 9:-0.017995 10:-0.481575 11:-0.118808 
-0.0 0.0 0.002833615006218728 0.0 0.0016988779887131943 1:-1.946859 2:-0.305161 3:-0.545202 4:-0.157711 5:1.111045 6:1.308229 7:0.073091 8:1.133094 9:5.186591 10:0.300956 11:-2.483434 
-0.2835492394216922 1.0 0.6763593658110773 0.40091209904983494 0.03897855436987874 1:-1.457349 2:-0.312609 3:-0.333414 4:0.721914 5:0.169159 6:1.05049 7:4.492593 8:-0.483491 9:-0.368768 10:0.229277 11:1.39755 
-0.10665294836950147 0.0 0.0 0.0 0.0 1:-1.404402 2:1.155216 3:0.119975 4:-0.384781 5:1.230408 6:0.446743 7:-0.842745 8:0.664557 9:-0.889385 10:0.303841 11:-0.052974 
-0.0 0.0 0.0 0.04238749594551663 0.0 1:-0.824585 2:-1.705626 3:-0.410703 4:-0.936883 5:-0.477117 6:-0.748812 7:-0.353948 8:0.029263 9:-0.19238 10:-0.101175 11:-0.413213 
-0.0 0.47403903040933904 0.3628397899343579 0.0 0.010436460207063538 1:-1.307141 2:0.94539 3:0.535925 4:-0.951645 5:0.158908 6:-2.110706 7:1.602708 8:-0.332354 9:0.540095 10:-0.235153 11:-0.349996 
-0.0 0.10580485907999565 0.0 0.0 0.0 1:-0.779333 2:-1.685219 3:-0.274911 4:-0.659919 5:-0.573448 6:-1.181848 7:0.481037 8:-0.658215 9:0.159592 10:-0.123104 11:-0.406786 
-0.6608647009284733 0.0 0.0 0.7574220127651258 0.0 1:-1.347932 2:1.216364 3:0.133528 4:-0.017927 5:1.247294 6:0.498875 7:-0.236058 8:0.452725 9:-0.787201 10:0.308572 11:0.058051 
-0.0 0.0 0.0 0.3701403209587102 0.0 1:-1.503265 2:0.946494 3:0.540449 4:-1.087553 5:0.810222 6:-1.332747 7:-0.664672 8:-0.805384 9:-0.107978 10:0.204109 11:-0.540833 
-0.0 0.13693174568109703 0.0 0.24012644006932957 0.0 1:-1.053354 2:-0.955988 3:-0.397896 4:1.941591 5:1.342988 6:-0.935273 7:-0.592217 8:-1.004305 9:-0.231727 10:0.178146 11:-0.300093 
-0.0 0.0 0.0 0.408795661323377 0.0 1:-0.962005 2:0.335066 3:-1.929549 4:-0.365716 5:0.532841 6:-0.304975 7:0.592367 8:0.686024 9:-0.441089 10:0.026799 11:0.504344 
-0.0 1.0 0.0 1.0 0.0 1:-1.278855 2:1.268925 3:0.247276 4:0.417602 5:1.182502 6:0.193349 7:0.777387 8:-0.209079 9:-0.452134 10:0.294355 11:0.129664 
-1.0 0.30156195611258857 0.6557513750595599 0.638032174710116 0.03481670929199943 1:-0.504253 2:-0.783634 3:-1.160341 4:-0.655114 5:0.224193 6:1.329109 7:-1.683586 8:0.242997 9:-1.030139 10:-5.527788 11:0.203618 
-0.0 1.0 0.0 0.0 0.0 1:-1.330296 2:1.210044 3:0.248811 4:0.081521 5:1.154912 6:0.093102 7:0.263476 8:-0.073634 9:-0.515211 10:0.287187 11:0.019354 
-0.3307954003673572 0.5267394739443755 0.8764509324744937 0.5246770540709687 0.0689689360125171 1:-2.197808 2:-0.268523 3:-0.399207 4:-0.188837 5:-1.038183 6:0.369675 7:-3.192384 8:0.308281 9:7.228555 10:-0.119743 11:-5.092445 
-0.2745167329882131 0.4350920578106356 0.7322262979295483 0.4378827236348596 0.057821650932766866 1:-1.693104 2:-0.469134 3:-0.444536 4:-0.027944 5:0.935898 6:3.389534 7:0.645306 8:-0.437739 9:6.681322 10:0.909639 11:-3.051792 
-0.0 1.0 0.0 0.0 0.0 1:-1.488181 2:0.953296 3:0.585713 4:-0.995231 5:0.778112 6:-1.477092 7:-0.386343 8:-1.034543 9:0.009346 10:0.1968 11:-0.538691 
-0.43498950351313087 0.6457237732345013 0.0 0.0 0.0 1:-0.703144 2:-1.564002 3:-0.009902 4:-0.486048 5:-0.639449 6:-1.514257 7:0.931054 8:-0.745369 9:0.408983 10:1.154465 11:-0.495141 
-0.0 0.14359436929931554 0.0 0.0 0.0 1:-0.739109 2:-1.66708 3:-0.154206 4:-0.413729 5:-0.659075 6:-1.566768 7:1.223246 8:-1.269307 9:0.472456 10:-0.142596 11:-0.401073 
-0.0 0.0 0.0 0.10568094432141348 0.0 1:-0.972061 2:0.330532 3:-1.959725 4:-0.427263 5:0.554248 6:-0.208745 7:0.406815 8:0.838797 9:-0.519305 10:0.031672 11:0.502916 
-0.5314608788801635 1.0 0.0 0.0 0.0 1:-0.690373 2:-1.538054 3:-0.475661 4:-0.051736 5:-0.351534 6:-0.255611 7:0.816681 8:-0.071527 9:-0.159582 10:-0.069926 11:-0.085139 
-1.0 1.0 0.0 0.8917862416757403 0.0 1:-0.682946 2:-1.491886 3:-0.640454 4:0.019205 5:-0.20283 6:0.384329 7:0.431393 8:0.590912 9:-0.506257 10:-0.035011 11:0.03952 
-0.14199324564031263 0.2196742448895461 0.36926917500598655 0.2219173977004812 0.028804660901020608 1:-2.085941 2:-0.454218 3:-0.354448 4:-0.869799 5:0.850491 6:0.239067 7:-0.603077 8:0.787436 9:7.332525 10:0.144404 11:-4.367554 
-0.336462409508032 0.5698326733260276 0.6655867993163549 0.37352163015296697 0.04444688622440682 1:-1.596459 2:-0.556831 3:-0.326047 4:-0.088592 5:0.748852 6:3.597328 7:1.065339 8:-1.507671 9:1.290769 10:1.155126 11:-0.224919 
-0.6884484565135006 0.11400917285918662 0.0 0.0 0.0 1:-0.692942 2:-0.046211 3:-1.531266 4:-0.795279 5:2.21E-4 6:1.31491 7:1.277697 8:-2.392839 9:-0.537076 10:0.81599 11:0.695823 
-0.0 1.0 0.0 0.0 0.0 1:-0.739109 2:-1.66708 3:-0.154206 4:-0.413729 5:-0.659075 6:-1.566768 7:1.223246 8:-1.269307 9:0.472456 10:-0.142596 11:-0.401073 
-0.4099144139357892 0.0 0.0 0.0 0.0 1:-0.763394 2:-1.528165 3:-0.881863 4:-0.473175 5:-0.031575 6:1.15417 7:-1.053025 8:1.813096 9:-1.131984 10:0.003973 11:0.028094 
-0.35004015858126547 0.3891204083345366 0.6857283618175303 0.4592357294505205 0.04445869805859363 1:-1.876039 2:-0.145681 3:-0.722179 4:0.436522 5:1.305053 6:1.817405 7:0.500208 8:1.663238 9:2.550113 10:0.301168 11:-0.978515 
-0.6242809666761719 0.5395086361937365 0.30297766456920405 0.270165721449368 0.0 1:-0.836305 2:0.391752 3:-1.552348 4:0.403628 5:0.265255 6:-1.507852 7:2.91177 8:-1.223638 9:0.53661 10:-0.034113 11:0.522198 
-0.1252391709705942 0.6565103181807858 0.5058459666783676 0.17567444807831842 0.0 1:-0.739109 2:-1.66708 3:-0.154206 4:-0.413729 5:-0.659075 6:-1.566768 7:1.223246 8:-1.269307 9:0.472456 10:-0.142596 11:-0.401073 
-0.43484888976361785 0.6551767456031079 0.8350780632428637 0.44772020261176443 0.1948594735627297 1:-0.556052 2:-0.036474 3:-1.16281 4:-0.172245 5:-0.287032 6:0.438885 7:3.360875 8:-4.368139 9:0.301232 10:0.844783 11:0.731121 
-0.8115521245661571 1.0 0.4852198848932147 0.33202118792972185 0.0 1:-1.243659 2:1.284796 3:0.352892 4:0.633018 5:1.107578 6:-0.143457 7:1.426819 8:-0.743784 9:-0.178379 10:0.2773 11:0.134664 
-0.0 0.031128412312731123 0.0 0.0 0.0 1:-1.686773 2:-0.424209 3:-0.460107 4:0.062087 5:0.924292 6:2.99369 7:0.86018 8:-0.484845 9:0.522395 10:0.88663 11:0.121944 
-0.282206577800089 0.0 1.0 0.62523022779555 0.033501231445586956 1:-0.707001 2:-1.438506 3:-0.99326 4:-0.0898 5:0.095151 6:1.681043 7:-0.795973 8:2.119277 9:-1.300024 10:0.034418 11:0.22151 
-0.0 1.0 0.0 0.0 0.0 1:-1.288834 2:1.235878 3:0.34205 4:0.339535 5:1.094069 6:-0.185162 7:0.94147 8:-0.574319 9:-0.260126 10:0.273515 11:0.045844 
-0.5157551293657832 0.8630834398665809 0.640995677899069 0.3548392458823231 0.061594188911194094 1:-0.422834 2:-0.660664 3:-1.207723 4:-0.644754 5:0.348853 6:1.502023 7:-1.744495 8:-0.024888 9:-0.972601 10:-6.766701 11:0.803266 
-0.09884580268601935 0.15579034887409643 0.2553012137721656 0.15315745126395927 0.019487273754352906 1:-2.081736 2:-0.258764 3:-0.502075 4:-0.0931 5:0.012569 6:0.888766 7:-1.71299 8:0.875832 9:7.391168 10:0.135999 11:-2.536814 
-0.0 0.42874058107330615 0.0 0.0 0.0 1:-1.498237 2:0.948762 3:0.555537 4:-1.056779 5:0.799519 6:-1.380862 7:-0.571896 8:-0.88177 9:-0.06887 10:0.201673 11:-0.540119 
-0.0 0.6840806376044252 0.0 0.0 0.0 1:-1.815057 2:-0.118016 3:-0.558423 4:0.751223 5:1.161373 6:1.133733 7:1.558463 8:0.730364 9:-0.805309 10:0.294175 11:0.955333 
-0.30593467866937624 0.176820715174463 0.8037538304024422 0.34084335349750206 0.029306994139749538 1:-1.412058 2:1.194582 3:-0.090082 4:-0.406162 5:1.411223 6:1.231028 7:-1.506362 8:1.556156 9:-1.353383 10:0.346066 11:0.069543 
-0.0 0.4651601399516998 0.21422349618989497 0.0 0.014471539536273819 1:-1.5741 2:-0.494624 3:-0.231746 4:0.217058 5:0.686208 6:2.870777 7:1.867975 8:-1.956759 9:-1.31798 10:1.066887 11:1.275049 
-1.0 1.0 0.6664010608026388 1.0 0.028102735311093453 1:-0.712816 2:-1.524934 3:-0.020733 4:-0.691464 5:-0.570766 6:-1.223369 7:0.27469 8:-0.063274 9:0.162153 10:1.816396 11:-0.546102 
-0.14319937811582914 0.22092080477559825 0.4273028991386871 0.2315152772251889 0.017438039244865356 1:-0.894977 2:-1.737369 3:-0.621935 4:-1.367715 5:-0.327268 6:-0.075201 7:-1.652813 8:1.098674 9:-0.739891 10:-0.067064 11:-0.423212 
-0.0 0.026055897789724818 0.6082757493655518 0.13634703254747504 0.04890926437697363 1:-1.437901 2:0.97597 3:0.736594 4:-0.687494 5:0.671078 6:-1.958242 7:0.541418 8:-1.798408 9:0.400425 10:0.172435 11:-0.531549 
-0.0 0.6613216239663634 0.0 0.0 0.0 1:-0.764249 2:-1.678417 3:-0.229647 4:-0.567598 5:-0.605558 6:-1.326193 7:0.759365 8:-0.887375 9:0.276916 10:-0.130413 11:-0.404644 
-0.1880811064394202 0.3959215012328556 0.5708128444921678 0.6661026494192483 0.034794075137242156 1:-0.71192 2:-0.106764 3:-1.630539 4:-1.126231 5:0.044775 6:1.930452 7:0.484816 8:-2.000158 9:-0.911115 10:0.920315 11:0.708982 
-0.39653738165450464 0.5963789563501939 0.6738516717313715 0.3848762215326804 0.03832396926719915 1:-1.593769 2:0.905681 3:0.268865 4:-1.64148 5:1.002884 6:-0.466675 7:-2.334641 8:0.569573 9:-0.811921 10:0.247966 11:-0.553688 
-0.41083399412195465 0.0 0.0 0.0 0.0 1:-0.992173 2:0.321462 3:-2.020077 4:-0.550358 5:0.597062 6:-0.016285 7:0.03571 8:1.144342 9:-0.675736 10:0.041418 11:0.500059 
-0.0 0.0 0.10665598322142898 0.3946251395940038 0.0 1:-1.105901 2:-0.875696 3:-0.470934 4:2.049567 5:1.446542 6:-1.300286 7:-0.676424 8:-0.414711 9:-0.187593 10:0.013353 11:-0.339266 
-0.6647828409650631 1.0 0.24856345710146752 0.7610861615917636 0.0 1:-1.313601 2:0.929684 3:0.431817 4:-1.14325 5:0.139259 6:-1.891911 7:1.290441 8:0.259014 9:0.364508 10:-0.281197 11:-0.32763 
-1.0 1.0 0.0 1.0 0.0 1:-0.603889 2:-1.406279 3:-0.62148 4:0.532801 5:-0.179189 6:0.457313 7:1.280755 8:0.294348 9:-0.363199 10:-0.028387 11:0.194954 
-0.14122655191259312 0.24260352080393036 0.3974139354666614 0.23347336255622803 0.031073450069560693 1:-1.888269 2:-0.151385 3:-0.736893 4:0.428562 5:1.346934 6:2.048858 7:0.351073 8:1.856391 9:6.831828 10:0.281315 11:-3.180465 
-0.7260170702914155 0.8450216121614156 1.0 0.9331598758178803 0.06347591230174769 1:-0.835041 2:-0.939041 3:-0.886606 4:1.502396 5:0.38562 6:-1.616103 7:1.521964 8:2.622115 9:0.101721 10:-0.830936 11:0.036809 
-1.0 -1.0 0.8148892022458085 0.5420941995716734 0.13628143455452296 1:-0.67089 2:0.296678 3:1.166503 4:0.516471 5:0.919311 6:1.369856 7:-0.284637 8:-1.898683 9:-0.397135 10:-6.498773 11:0.958747 
-0.0 -0.09495366836570385 0.0 0.0 0.0 1:-0.521179 2:-1.345841 3:-0.554853 4:1.11736 5:-0.681047 6:0.292264 7:1.60212 8:-0.343134 9:-0.102182 10:-0.104493 11:0.113275 
-0.5201147273608233 -1.0 1.0 0.6980456879480886 0.04822622682800822 1:-0.915411 2:0.596527 3:0.044189 4:-2.228192 5:-0.576337 6:1.947068 7:0.791426 8:1.241922 9:-0.987922 10:0.236171 11:0.333108 
-1.0 -0.5608263158841971 0.6256025863279071 1.0 0.0 1:-0.65903 2:0.316503 3:1.208156 4:0.540321 5:0.910095 6:1.322473 7:-0.225097 8:-1.900477 9:-0.362088 10:-6.285439 11:0.943902 
-1.0 -0.5153430778659907 1.0 1.0 0.0 1:-0.007958 2:-0.001047 3:0.071607 4:0.129633 5:0.044806 6:-0.021509 7:0.193957 8:-0.070138 9:-0.186697 10:0.032111 11:-0.029041 
-1.0 -0.0 0.0 1.0 0.0 1:-0.008137 2:-0.00105 3:0.071419 4:0.129449 5:0.043824 6:-0.022291 7:0.17918 8:-0.071263 9:-0.111943 10:0.055637 11:0.468451 
-0.0 -0.6807994227045239 0.0 0.0 0.0 1:-1.125818 2:-0.797135 3:1.780807 4:-0.215863 5:0.275171 6:-0.199642 7:-0.017396 8:-0.935442 9:-0.054565 10:0.257939 11:0.260388 
-0.3093768477097484 -0.0924882143807133 0.07901848850465462 0.0 0.0 1:-0.959666 2:0.690352 3:0.011598 4:-1.878063 5:-1.415206 6:2.064594 7:-0.349377 8:1.059549 9:-1.053547 10:0.120262 11:0.027228 
-1.0 -1.0 1.0 1.0 0.0 1:-0.007958 2:-0.001047 3:0.071607 4:0.129633 5:0.044806 6:-0.021509 7:0.193957 8:-0.070138 9:-0.186697 10:0.032111 11:-0.029041 
-0.05083787053837958 -0.7531520880039675 1.0 0.9143081671740301 0.09964781834831385 1:-0.484807 2:-0.886041 3:-0.111326 4:1.519921 5:-2.116477 6:0.406568 7:-1.000751 8:0.628561 9:-0.255769 10:3.574878 11:-0.727992 
-1.0 -0.0 0.0 0.0 0.0 1:-1.059825 2:-0.717189 3:1.721565 4:0.133036 5:0.398805 6:0.256034 7:0.108193 8:-0.526962 9:-0.209916 10:0.260552 11:0.419701 
-0.0 -0.056060057412352565 0.0 0.0 0.0 1:-1.035611 2:0.510969 3:0.204479 4:-2.626853 5:-1.321791 6:1.165405 7:-0.360167 8:0.626531 9:-0.756711 10:0.112125 11:-0.178215 
-1.0 -0.34917925335454875 0.1280323202324092 0.1195460786677422 0.0 1:-0.466379 2:-0.94553 3:-0.127785 4:1.373079 5:-1.69149 6:0.376343 7:-0.382833 8:0.662166 9:-0.228231 10:3.418754 11:-0.548748 
-0.4450944895554516 -1.0 1.0 1.0 0.13966793492484633 1:-1.206487 2:1.460204 3:0.176832 4:0.99512 5:-0.775596 6:-0.183453 7:-0.131096 8:-0.03391 9:2.118813 10:0.461365 11:14.648494 
-0.0 -0.5927378498370783 0.020279591315977365 0.2654545048945231 0.0 1:-0.208645 2:-0.319838 3:0.467499 4:-1.23366 5:-0.406757 6:-1.895618 7:-0.734783 8:-1.159906 9:0.485533 10:-0.052611 11:-0.219252 
-0.0 -1.0 0.0 0.0 0.0 1:-1.191567 2:1.391139 3:0.258573 4:0.790555 5:0.192229 6:-0.171217 7:1.094838 8:-0.218103 9:-0.120117 10:-0.017178 11:-0.024168 
-1.0 -0.12857694353877958 0.40570985666972104 0.811731224312391 0.03759669433894061 1:-0.71871 2:-0.311012 3:1.177188 4:0.70089 5:0.258861 6:1.377763 7:1.570859 8:1.165173 9:-0.42813 10:-1.778599 11:1.103262 
-0.0 -0.11763478063781246 0.0 0.0 0.0 1:-1.112602 2:1.393256 3:0.109462 4:0.689741 5:-0.417306 6:-0.263267 7:1.518799 8:0.767252 9:-0.033768 10:-0.342395 11:0.011979 
-0.0 -1.0 1.0 1.0 0.0 1:-0.208645 2:-0.319838 3:0.467499 4:-1.23366 5:-0.406757 6:-1.895618 7:-0.734783 8:-1.159906 9:0.485533 10:-0.052611 11:-0.219252 
-0.23999584582261965 -1.0 0.0 0.0 0.0 1:-1.133531 2:-0.65872 3:1.59332 4:-0.325067 5:0.068858 6:-0.525765 7:0.688504 8:0.116597 9:0.055673 10:1.093465 11:0.291176 
-0.6273966807125516 -0.005444583350793899 0.46059587622833065 0.0 0.0 1:-0.87431 2:-0.358292 3:1.399992 4:1.02044 5:0.752892 6:1.557324 7:0.605394 8:-0.092238 9:-0.594631 10:-0.729999 11:0.918813 
-0.7157618315765125 -0.3332313005845032 0.49976550538321385 0.4657327364774233 0.025884974075689286 1:-0.930814 2:1.349726 3:-0.339119 4:0.90202 5:-1.677974 6:-0.734622 7:0.192594 8:1.072966 9:0.106906 10:2.240485 11:-0.646279 
-0.1849219248775376 -1.0 0.0 0.0 0.0 1:-0.517571 2:-1.351832 3:-0.553409 4:1.095394 5:-0.620122 6:0.288051 7:1.685646 8:-0.327678 9:-0.098828 10:-0.095972 11:0.136658 
-0.0 -1.0 0.0 0.0 0.028826393274771663 1:-1.268397 2:-0.778378 3:0.717258 4:-0.649437 5:-0.568018 6:-0.493821 7:3.280794 8:-0.803495 9:0.289421 10:-0.021582 11:0.714132 
-0.8797250583438272 -1.0 0.0 0.0 0.0 1:-0.513962 2:-1.357822 3:-0.551965 4:1.073427 5:-0.559197 6:0.283838 7:1.769172 8:-0.312221 9:-0.095474 10:-0.087452 11:0.160042 
-0.3445822422854635 -0.0 0.0 0.0 0.0 1:-0.997166 2:-0.617568 3:1.597791 4:0.559008 5:0.539612 6:0.841448 7:0.393806 8:-0.186761 9:-0.396627 10:0.29438 11:0.634609 
-1.0 -0.0 0.0 1.0 0.0 1:-0.008137 2:-0.00105 3:0.071419 4:0.129449 5:0.043824 6:-0.022291 7:0.17918 8:-0.071263 9:-0.111943 10:0.055637 11:0.468451 
-1.0 -0.0 0.0 0.0 0.0 1:-0.051998 2:-0.070784 3:0.158062 4:-0.168731 5:-0.054741 6:-0.432081 7:-0.02075 8:-0.309404 9:0.018755 10:0.031958 11:0.318016 
-1.0 -0.0 0.0 0.0 0.0 1:-0.06453 2:-0.090709 3:0.182817 4:-0.253926 5:-0.082902 6:-0.549164 7:-0.077872 8:-0.377444 9:0.056097 10:0.025192 11:0.275035 
-0.0 -1.0 1.0 0.9344827059987318 0.0 1:-0.208645 2:-0.319838 3:0.467499 4:-1.23366 5:-0.406757 6:-1.895618 7:-0.734783 8:-1.159906 9:0.485533 10:-0.052611 11:-0.219252 
-0.7235132964370725 -0.5044622142599613 0.0 0.0 0.0 1:-1.063779 2:1.39213 3:0.020574 4:0.620466 5:-0.758657 6:-0.320182 7:1.806586 8:1.364648 9:0.019382 10:-0.534118 11:0.04302 
-0.24546706535992519 -0.0 0.0 0.0 0.0 1:-0.829752 2:-0.862416 3:1.39058 4:-0.77378 5:-0.811345 6:-0.539005 7:2.153896 8:2.342421 9:0.238744 10:-0.639912 11:0.636819 
-1.0 -0.26824462477314925 0.0 0.0 0.0 1:-0.13972 2:-0.210254 3:0.331346 4:-0.765092 5:-0.25187 6:-1.251662 7:-0.420608 8:-0.785685 9:0.28015 10:-0.015401 11:0.017146 
-0.3292372809658954 -1.0 0.0 0.0 0.0 1:-1.278599 2:1.44237 3:0.350244 4:1.05443 5:0.082764 6:-0.069706 7:0.063037 8:-1.043869 9:-0.210074 10:0.135491 11:-0.255247 
-0.2591073848313001 -0.0 0.0 0.0 0.0 1:-1.066091 2:-0.727151 3:1.733943 4:0.090439 5:0.384725 6:0.197492 7:0.079631 8:-0.560982 9:-0.191245 10:0.25717 11:0.39821 
-0.9935613170668685 -0.9226918521170114 0.9461760284299466 0.9083170093620931 0.055350714381230695 1:-0.829752 2:-0.862416 3:1.39058 4:-0.77378 5:-0.811345 6:-0.539005 7:2.153896 8:2.342421 9:0.238744 10:-0.639912 11:0.636819 
-1.0 -0.0 0.0 0.0 0.0 1:-0.120923 2:-0.180368 3:0.294214 4:-0.6373 5:-0.209628 6:-1.076037 7:-0.334924 8:-0.683625 9:0.224137 10:-0.005252 11:0.081618 
-0.7104361479584954 -1.0 0.2525649509339006 0.5215743526317996 0.0 1:-0.499528 2:-1.381782 3:-0.54619 4:0.985561 5:-0.315497 6:0.266985 7:2.103276 8:-0.250395 9:-0.082059 10:-0.053368 11:0.253576 
-0.0 -0.13176675883854783 0.0 0.0 0.0 1:-1.20027 2:1.418905 3:0.23702 4:0.88152 5:-0.148979 6:-0.161041 7:0.753015 8:-0.190668 9:-0.126909 10:-0.088896 11:-0.128118 
-0.0 -0.0 0.5712708368433264 0.0 0.03230212875293119 1:-0.960552 2:0.704785 3:0.626799 4:-1.242344 5:-2.922319 6:-0.18957 7:0.66907 8:-1.989653 9:0.346097 10:-0.139908 11:-0.647846 
-0.13190809337060777 -0.8306752156720141 0.7920405093724036 0.8435508875208302 0.08399258982249116 1:-1.111392 2:0.636763 3:0.174158 4:-2.165556 5:-2.601216 6:1.253882 7:-2.114213 8:0.301942 9:-0.827142 10:-0.066813 11:-0.66927 
-1.0 -0.0 0.0 0.0 0.0 1:-0.045732 2:-0.060822 3:0.145684 4:-0.126134 5:-0.04066 6:-0.373539 7:0.007812 8:-0.275384 9:8.4E-5 10:0.03534 11:0.339507 
-0.0 -0.019365028346814746 0.0 0.0 0.0 1:-0.884771 2:0.578992 3:0.65712 4:-1.703641 5:-1.642895 6:-0.278047 7:2.423116 8:-1.665064 9:0.416528 10:0.03903 11:-0.15679 
-1.0 -1.0 0.0 0.0 0.0 1:-1.251216 2:1.410235 3:0.34313 4:0.925729 5:0.350805 6:-0.101662 7:0.556473 8:-0.861868 9:-0.183329 10:0.148982 11:-0.125361 
-0.0 -0.0 0.0 0.0 0.06930948564154768 1:-0.199887 2:-0.33322 3:0.479672 4:-1.251656 5:-0.424016 6:-1.834782 7:-0.720749 8:-1.258172 9:0.478177 10:-0.025145 11:-0.212724 
-1.0 -0.0 0.0 1.0 0.0 1:-0.008137 2:-0.00105 3:0.071419 4:0.129449 5:0.043824 6:-0.022291 7:0.17918 8:-0.071263 9:-0.111943 10:0.055637 11:0.468451 
-0.3861325920321239 -0.0 0.8275472801212489 0.5035596593846273 0.03838410976357298 1:-1.04892 2:1.460702 3:-0.099975 4:0.795922 5:-1.867691 6:-0.337429 7:1.167867 8:1.881282 9:0.042263 10:-0.857204 11:-0.193573 
-0.0 -0.2444358540466437 0.0 0.0 0.0 1:-1.293033 2:1.466331 3:0.344469 4:1.142296 5:-0.160936 6:-0.052853 7:-0.271067 8:-1.105696 9:-0.22349 10:0.101407 11:-0.348781 
-1.0 -0.0 0.0 1.0 0.0 1:-0.008137 2:-0.00105 3:0.071419 4:0.129449 5:0.043824 6:-0.022291 7:0.17918 8:-0.071263 9:-0.111943 10:0.055637 11:0.468451 
-0.0 -0.0 0.3715423246452003 0.0 0.0 1:-1.002633 2:0.705183 3:0.272411 4:-2.489914 5:-2.136946 6:1.36875 7:-1.631377 8:0.076383 9:-0.798784 10:-0.123621 11:-0.505432 
-1.0 -0.0 0.0 0.3832902084411215 0.0 1:-0.020669 2:-0.020974 3:0.096174 4:0.044255 5:0.015663 6:-0.139373 7:0.122057 8:-0.139303 9:-0.074601 10:0.048871 11:0.42547 
-1.0 -1.0 0.30877164223320486 0.2361220426899903 0.031245625358297908 1:-1.22447 2:1.352518 3:0.371902 4:0.724932 5:0.996638 6:-0.132904 7:1.315927 8:-0.81202 9:-0.159766 10:0.263304 11:0.095507 
-1.0 -0.0 0.0 1.0 0.0 1:-0.008137 2:-0.00105 3:0.071419 4:0.129449 5:0.043824 6:-0.022291 7:0.17918 8:-0.071263 9:-0.111943 10:0.055637 11:0.468451 
-1.0 -0.0 0.019183968084522683 1.0 0.0 1:-0.008137 2:-0.00105 3:0.071419 4:0.129449 5:0.043824 6:-0.022291 7:0.17918 8:-0.071263 9:-0.111943 10:0.055637 11:0.468451 
-0.7759266025660874 -1.0 0.0 0.0 0.0 1:-0.177316 2:-0.270027 3:0.405611 4:-1.020675 5:-0.336354 6:-1.60291 7:-0.591977 8:-0.989806 9:0.392177 10:-0.035697 11:-0.111799 
-1.0 -1.0 0.0 0.0 0.005693678330363049 1:-0.546522 2:-1.33785 3:-0.522308 4:1.020988 5:-0.243539 6:0.273547 7:2.070653 8:-0.377225 9:-0.099242 10:-0.016192 11:0.250993 
-0.0 -0.9425713297670356 0.061073361070845794 0.22664650311360318 0.036664945704956584 1:-0.91571 2:-0.48806 3:1.436883 4:1.112771 5:0.72266 6:1.602488 7:0.765104 8:0.255501 9:-0.639351 10:0.338355 11:0.913988 
-1.0 -0.0 1.0 1.0 0.0 1:-0.008137 2:-0.00105 3:0.071419 4:0.129449 5:0.043824 6:-0.022291 7:0.17918 8:-0.071263 9:-0.111943 10:0.055637 11:0.468451 
-0.3832986053165079 -0.4398409713196137 1.0 0.3254441499570973 0.04503052907855995 1:-0.589994 2:-1.232769 3:-0.564119 4:1.641607 5:-2.151003 6:0.440828 7:-0.458136 8:-0.750632 9:-0.191951 10:-0.521748 11:-0.438456 
-0.7086443945758164 -1.0 0.7959432430918367 0.2351742647387184 0.05261123317115212 1:-0.871756 2:0.546773 3:0.649251 4:-1.844247 5:-1.327566 6:-0.250997 7:2.74797 8:-1.511394 9:0.394189 10:0.084071 11:-0.040587 
-0.07758519565805273 -0.0 0.7985966295231854 0.388040397413027 0.033283483649803824 1:-1.32912 2:1.526232 3:0.330031 4:1.361961 5:-0.770186 6:-0.010722 7:-1.106328 8:-1.260262 9:-0.257028 10:0.016199 11:-0.582617 
-0.0 -0.0 0.0 0.052590372783388156 0.0 1:-0.79429 2:-0.516457 3:1.250548 4:0.867488 5:0.247075 6:1.460915 7:1.750588 8:1.616836 9:-0.509658 10:-0.040119 11:1.082574 
-0.0 -0.0 -0.5575638106990659 0.0 0.0 1:0.678069 2:1.696776 3:0.512114 4:1.218842 5:0.513123 6:0.788785 7:0.558777 8:-0.111868 9:0.263768 10:0.159289 11:0.060159 
-0.0 -0.5027387259038276 -0.2948804678027157 0.0 0.027330925545246153 1:1.147327 2:-0.970392 3:-0.297504 4:1.428747 5:0.021589 6:1.908511 7:-1.567393 8:-0.597748 9:-0.338899 10:0.419291 11:-0.116416 
-0.0 -0.0 -0.0 0.9632320188266639 0.0 1:0.575187 2:1.579015 3:0.515185 4:0.546681 5:0.457944 6:0.588291 7:-0.469045 8:0.159023 9:0.137615 10:0.144954 11:-0.160462 
-0.5262578413245513 -0.0 -0.0025029534498216197 0.4868805749652091 0.0 1:1.697756 2:0.317469 3:0.6106 4:0.209093 5:-0.613448 6:-2.048428 7:0.227229 8:-0.323093 9:-2.166026 10:-0.448086 11:1.20425 
-0.0 -0.0 -0.219720356289835 0.0 0.0 1:1.723198 2:0.098912 3:0.727667 4:-0.42725 5:-1.058802 6:-1.525128 7:-0.963992 8:-1.274336 9:-0.919312 10:-0.395255 11:0.786788 
-0.3735169255348801 -0.7484524299185754 -0.5184958737530158 0.5767224475093496 0.06718243899086655 1:1.095492 2:0.0513 3:0.466476 4:0.526461 5:-0.975981 6:-3.109413 7:1.33213 8:2.122519 9:-2.616929 10:8.851123 11:1.519132 
-0.1005175176718545 -0.560677482899395 -0.279780458451157 0.14258297752025584 0.04932678564107082 1:1.956399 2:0.245429 3:0.253466 4:-0.131621 5:1.326498 6:0.804557 7:1.616933 8:1.202705 9:-1.513447 10:-0.025997 11:-3.364437 
-0.0 -0.0 -0.1172684467512049 0.0 0.0 1:0.971217 2:0.841317 3:0.582562 4:-1.847069 5:-1.478458 6:1.331663 7:0.942533 8:0.304538 9:0.280274 10:0.03973 11:-0.015782 
-0.0 -0.0 -0.0 1.0 0.0 1:0.5789 2:1.6021 3:0.432788 4:0.582151 5:0.532296 6:0.90826 7:-0.661689 8:0.490242 9:-0.035722 10:0.162412 11:-0.098132 
-0.0 -0.0 -0.0 1.0 0.0 1:1.142094 2:-1.157321 3:-0.172861 4:0.519902 5:-0.700678 6:0.497358 7:-0.835417 8:-0.459504 9:0.283945 10:0.265245 11:-0.38218 
-0.0 -0.0 -0.0 0.19148330985070972 0.0 1:1.662045 2:0.090515 3:0.580128 4:-0.576115 5:-0.882718 6:-0.787269 7:-1.805216 8:-0.37337 9:-0.856618 10:-0.354244 11:0.58777 
-0.32497820570085034 -0.4250030478905508 -0.311992684962349 0.03311812864477374 0.005356872841092851 1:0.742195 2:1.718558 3:0.735724 4:1.607078 5:0.349194 6:0.056632 7:1.829081 8:-1.215299 9:0.82995 10:0.121796 11:0.048666 
-0.16398464229958581 -0.2574724490440435 -0.2538553294770027 0.22904212262599366 0.019914635524762213 1:1.600692 2:0.333988 3:0.656586 4:0.05344 5:-0.923745 6:-3.021853 7:-0.280502 8:-0.347958 9:-5.932649 10:-0.604421 11:3.467966 
-0.0 -0.0 -0.0 0.29120847703200387 0.0 1:1.104713 2:-1.105689 3:-0.261676 4:0.599591 5:-0.465269 6:1.143655 7:-1.413327 8:-0.099171 9:-0.080495 10:0.150313 11:-0.285088 
-0.0245266049551993 -0.0 -0.0 0.0 0.0 1:1.212557 2:-1.155961 3:-0.279306 4:0.406297 5:-0.988231 6:0.501006 7:-0.137045 8:0.458329 9:0.338578 10:-0.198085 11:-0.224116 
-0.3802709842978889 -0.3095947826221668 -0.7219027132838747 1.0 0.0 1:1.10123 2:-1.210691 3:-0.213125 4:0.176777 5:-0.740067 6:0.492877 7:-1.337736 8:-0.108934 9:0.173066 10:0.234783 11:-0.458746 
-0.0 -0.0 -0.0 0.07177544338825882 0.0075424622019481646 1:1.469754 2:0.439208 3:0.343338 4:-0.118972 5:-0.575693 6:-2.738906 7:-1.68154 8:1.510627 9:0.983318 10:-0.840614 11:-0.345589 
-1.0 -0.05922274999954405 -0.648240467828024 1.0 0.0 1:0.777962 2:1.124525 3:0.341262 4:-1.450284 5:-1.079437 6:0.065007 7:0.572001 8:2.263398 9:0.424764 10:-0.507932 11:-0.165856 
-0.5362454066808525 -0.612185162504647 -0.4683053780192965 0.623618777972823 0.04907573613097148 1:1.309537 2:0.060627 3:0.406936 4:0.084449 5:-0.604085 6:-2.580724 7:-1.565595 8:3.151771 9:-0.375996 10:2.753668 11:0.157986 
-0.050691428062991116 -0.6522563163044935 -0.07610311047303543 0.0 0.03465003373569054 1:0.530585 2:-0.152032 3:1.471492 4:0.276717 5:0.216386 6:0.044014 7:-2.684067 8:3.031823 9:-0.020466 10:-0.671367 11:0.012992 
-0.0 -0.0 -0.0 0.0 0.001275465564532117 1:0.709472 2:-0.435323 3:1.712038 4:-0.131974 5:-0.135348 6:1.369675 7:-2.482118 8:1.044631 9:-0.21404 10:-0.092155 11:0.149383 
-0.0 -0.07438147408790402 -0.13441455015316356 0.4549656679087685 0.010475017517954969 1:0.472898 2:-6.8E-4 3:1.439249 4:0.608277 5:0.297994 6:-0.778808 7:-2.184055 8:3.396167 9:0.282304 10:-0.692957 11:-0.044429 
-0.0 -0.0 -0.0 0.20474225659492973 0.0 1:0.545814 2:1.487472 3:0.83845 4:0.262957 5:0.180052 6:-0.605052 7:-0.038593 8:-0.896125 9:0.72825 10:0.294821 11:-0.448973 
-0.0 -0.0 -0.0 1.0 0.0 1:1.528706 2:0.266568 3:0.446708 4:-0.425821 5:-0.742975 6:-1.864926 7:-1.784322 8:0.826723 9:0.195309 10:-0.5464 11:0.030479 
-0.06707934216482629 -0.0 -0.0 0.0 0.0 1:1.878784 2:0.403076 3:0.327636 4:0.829379 5:-0.622791 6:0.455004 7:-0.108496 8:-9.8E-4 9:-1.322255 10:-0.066673 11:1.342868 
-1.0 -0.0 -0.0 1.0 0.0 1:0.494968 2:1.457203 3:0.648626 4:0.004741 5:0.29968 6:-0.066092 7:-0.904557 8:-0.172832 9:0.32256 10:0.106798 11:-0.419065 
-0.02241893549557568 -0.0 -0.0 1.0 0.0 1:1.089705 2:-1.141003 3:-0.18199 4:0.49075 5:-0.542999 6:0.813259 7:-1.342021 8:-0.388025 9:0.072406 10:0.131909 11:-0.369622 
-0.3971528968113362 -0.0 -0.0 0.7120205503850671 0.0 1:1.180589 2:-1.241002 3:-0.136978 4:0.096376 5:-1.183651 6:-0.181102 7:-0.039962 8:0.027707 9:0.633918 10:-0.264952 11:-0.402422 
-0.5433364460776602 -0.04028459788131005 -0.0 0.0 0.0 1:1.42573 2:-0.979933 3:-0.170676 4:1.635297 5:-1.043493 6:0.267052 7:2.22356 8:-0.610855 9:0.914933 10:0.002799 11:0.071891 
-0.0 -0.0584945498918494 -0.7286343929071861 0.0 0.0 1:1.203969 2:-1.238336 3:0.037903 4:0.307013 5:-1.27156 6:-0.720331 7:0.662093 8:-0.83253 9:1.013255 10:-0.264533 11:-0.451945 
-0.0 -0.0 -0.0 0.8929195215208819 0.0 1:0.688355 2:-0.245725 3:1.536546 4:0.069911 5:0.060869 6:0.541305 7:-2.722812 8:1.527668 9:-0.015915 10:-0.311281 11:-0.010067 
-0.0 -0.7931322289234108 -0.0 0.0 0.05660400087251713 1:0.61822 2:1.535207 3:1.054681 4:0.632726 5:0.022169 6:-1.346237 7:1.199769 8:-2.069104 9:1.303377 10:0.043656 11:-0.459501 
-0.0 -0.45708394739879515 -1.0 1.0 0.0 1:0.444841 2:1.377505 3:0.747646 4:-0.336036 5:0.187034 6:-0.534424 7:-1.133048 8:-0.444993 9:0.471929 10:0.079736 11:-0.590991 
-0.0 -0.20765303954525033 -0.9981490906419319 0.0 0.0028776181165606207 1:0.971217 2:0.841317 3:0.582562 4:-1.847069 5:-1.478458 6:1.331663 7:0.942533 8:0.304538 9:0.280274 10:0.03973 11:-0.015782 
-0.022573295574401093 -0.0 -0.0 0.0 0.0 1:0.710866 2:1.668747 3:0.797612 4:1.394092 5:0.278791 6:-0.236075 7:1.686275 8:-1.3854 9:0.923306 10:0.104882 11:-0.058788 
-0.2143701239280212 -0.5785067560447457 -0.39864540731220494 0.35699249971599434 0.05252172253303641 1:2.060813 2:0.232959 3:0.542523 4:0.477243 5:1.102444 6:-0.35319 7:3.803257 8:-0.344336 9:-8.080652 10:-0.803679 11:-11.388818 
-0.0 -0.07469122252677703 -0.0 0.0 0.0 1:0.793757 2:0.88282 3:0.854899 4:-1.488578 5:-0.783372 6:1.538577 7:-0.49779 8:-1.685106 9:0.090723 10:0.592885 11:-0.262177 
-1.0 -0.0 -0.0 0.0 0.0 1:0.607138 2:-0.169504 3:1.658891 4:0.530466 5:0.057575 6:-0.25463 7:-1.714203 8:1.973161 9:0.348547 10:-0.613336 11:0.03972 
-0.6656892140898902 -0.0 -0.0 0.0 0.0 1:0.562051 2:-0.120511 3:1.580023 4:0.540903 5:0.148018 6:-0.401742 7:-1.955893 8:2.518997 9:0.299754 10:-0.718325 11:0.012176 
-0.24327559312546287 -0.023692262873393977 -0.0 1.0 0.0 1:1.083194 2:-1.020664 3:-0.247983 4:1.029847 5:-0.11062 6:1.629677 7:-1.744043 8:-0.594057 9:-0.281027 10:0.377786 11:-0.225429 
-0.8043499124237904 -0.0 -0.0 0.0 0.0 1:0.589675 2:1.557207 3:0.751807 4:0.561137 5:0.278616 6:-0.195261 7:0.161336 8:-0.657985 9:0.597553 10:0.3185 11:-0.298538 
-0.0 -0.0 -0.7070247621623121 1.0 0.0 1:1.138201 2:-1.234532 3:-0.094732 4:0.141074 5:-1.026613 6:-0.089426 7:-0.435964 8:-0.314779 9:0.554904 10:-0.146062 11:-0.455009 
-0.07242299991249733 -0.12123372370490751 -0.26329894268992066 0.0 0.0 1:0.700438 2:-0.418014 3:1.698825 4:-0.14702 5:-0.144851 6:1.383063 7:-2.412452 8:0.982904 9:-0.212119 10:0.148065 11:0.146437 
-0.3244089733696437 -0.0 -0.0 0.0 0.0 1:0.662446 2:-0.144563 3:1.82486 4:0.868977 5:-0.060163 6:-0.783896 7:-0.693665 8:1.13291 9:0.778735 10:-0.640137 11:0.047576 
-0.3603935270071759 -0.6802794385456739 -0.44377188957787156 0.6431372844516687 0.05155433391897552 1:1.652552 2:0.025146 3:0.190147 4:0.170822 5:2.041384 6:1.255605 7:0.529022 8:-1.075757 9:-1.941796 10:-2.968378 11:-2.141997 
-0.6513406697019092 -0.0 -0.0 0.0 0.0 1:0.853082 2:-0.334701 3:2.162943 4:0.738494 5:-0.453764 6:-0.011541 7:0.244819 8:-1.157712 9:0.917951 10:0.293177 11:0.151589 
-0.0 -0.0 -0.0974642238279978 0.0 0.0 1:0.741156 2:-0.191674 3:1.990301 4:0.961371 5:-0.248143 6:-0.7423 7:0.10964 8:-0.053116 9:1.010279 10:-0.25218 11:0.088801 
-0.019313936253234396 -0.34414485017417046 -0.39073529527701667 0.12283115959002357 0.023092689085483852 1:1.848983 2:0.289284 3:0.620076 4:0.504998 5:-0.855736 6:-0.839046 7:0.453928 8:-1.158472 9:-3.514139 10:-0.132737 11:1.971311 
-0.0 -0.0 -0.0 0.3758728187994865 0.0 1:0.873821 2:1.016658 3:0.455614 4:-1.648711 5:-1.24598 6:0.66433 7:0.680405 8:1.211194 9:0.360153 10:-0.446948 11:-0.099603 
-0.22277784962419697 -0.0 -0.29468473351852514 0.0 0.0 1:1.597073 2:0.160286 3:0.694877 4:0.050133 5:-0.953031 6:-2.470827 7:-0.355695 8:-0.255384 9:-0.371588 10:0.567872 11:0.567334 
-0.0 -0.0 -0.05885378640683028 1.0 0.0 1:0.47996 2:1.421889 3:0.728312 4:-0.1041 5:0.22195 6:-0.396488 7:-0.83325 8:-0.461686 9:0.475461 10:0.088394 11:-0.5036 
-0.08249368118140447 -0.0 -0.0 0.0 0.0 1:0.688692 2:1.708906 3:0.581233 4:1.230868 5:0.479123 6:0.634746 7:0.682532 8:-0.224069 9:0.356594 10:0.366804 11:0.024537 
-0.0 -0.15691232400808391 -0.984354042695005 0.05612201535917403 0.0 1:0.535373 2:1.455028 3:0.993154 4:0.100179 5:0.034016 6:-1.26445 7:0.193416 8:-1.585746 9:1.063432 10:0.045288 11:-0.594872 
-0.0 -0.14606182455933656 -0.34845831317584663 0.0 0.0 1:0.583514 2:0.049203 3:1.771186 4:1.2853 5:0.062518 6:-1.837339 7:-0.142981 8:1.715665 9:1.142679 10:-0.74656 11:-0.028718 
-0.011803969808620834 -0.2463777891493638 -0.0 0.06855925046101957 0.028053684263287318 1:1.760326 2:0.125217 3:0.802441 4:-0.113489 5:-1.122912 6:-1.965525 7:-0.19249 8:-1.677883 9:-4.737703 10:-0.198291 11:2.890889 
-0.0 -0.0 -0.0 0.2882549452302905 0.0168062800302669 1:0.710971 2:0.836893 3:0.808132 4:-1.348545 5:-0.589144 6:1.529262 7:-0.757913 8:-2.408799 9:0.064439 10:-0.152096 11:-0.271311 
-1.0 -0.3302030453794216 -0.6894683790747248 0.8470069423023193 0.0011695145727167872 1:0.556838 2:1.555854 3:0.104835 4:0.744642 5:0.65523 6:1.437808 7:-0.660716 8:0.408218 9:-0.266811 10:-1.531611 11:0.137833 
-0.5290859312133905 -0.0 -0.0 0.0 0.0 1:0.604346 2:1.499391 3:1.008029 4:0.66994 5:0.03942 6:-1.23128 7:1.200732 8:-1.963741 9:1.240715 10:0.047376 11:-0.42413 
-0.0 -0.0979406776242749 -0.0 1.0 0.018027320860782122 1:1.534844 2:0.077842 3:0.609255 4:-0.774006 5:-0.601069 6:-0.512254 7:-2.955141 8:-0.751505 9:0.23487 10:0.088035 11:-0.262819 
-0.48385828120140806 -0.0 -0.0 0.0 0.0 1:0.654473 2:1.579088 3:0.909009 4:1.010717 5:0.152065 6:-0.762948 7:1.429222 8:-1.691581 9:1.091346 10:0.074437 11:-0.252204 
-0.0 -0.048364611324123966 -0.22662011964248446 0.0 0.0 1:1.698965 2:0.216573 3:0.758018 4:-0.107998 5:-1.068932 6:-2.324307 7:-0.236352 8:-1.018685 9:-1.661027 10:-0.862524 11:1.342369 
-1.0 -0.0 -0.0 0.0 0.0 1:0.648384 2:-0.129521 3:1.796559 4:0.823157 5:-0.058962 6:-0.722393 7:-0.716776 8:1.147569 9:0.741548 10:-0.397481 11:0.043915 
-0.0 -0.0 -0.2736362153714037 0.0 0.0 1:0.847872 2:0.900653 3:0.783291 4:-1.590714 5:-0.984127 6:1.413133 7:-0.090221 8:-0.88394 9:0.153876 10:0.60651 11:-0.206456 
-0.0 -0.2253268021092534 -0.4724716482551629 0.8875871165555252 0.022851032460944526 1:1.422113 2:-0.925867 3:-0.242894 4:1.769571 5:-0.913361 6:0.747223 7:2.07559 8:-0.270246 9:0.68777 10:-0.17767 11:0.197062 
-0.1769192614450702 -0.5998620134796834 -0.5890824496729026 0.4620553936621445 0.05954420594902652 1:0.697307 2:0.801778 3:0.755001 4:-1.334696 5:-0.592118 6:1.527797 7:-0.691441 8:-2.557983 9:0.072561 10:-0.583638 11:-0.240193 
-0.0 -0.4196149611485416 -0.09467944153268773 0.007663629605357318 0.002749889075572203 1:0.614509 2:1.68259 3:0.327447 4:0.781086 5:0.664458 6:1.463129 7:-0.773324 8:1.032134 9:-0.287804 10:0.409171 11:0.034602 
-0.19259533059913148 -0.531501199873622 -0.36342524368550894 0.3237096436599841 0.04747615443513502 1:1.395277 2:0.06721 3:0.663301 4:0.502071 5:-0.877757 6:-3.466911 7:0.114152 8:1.950915 9:-5.461067 10:2.723832 11:3.109404 
-0.0 -0.0 -0.4657248720863674 0.0 0.0 1:1.335399 2:-0.972108 3:-0.471925 4:1.234593 5:-0.756186 6:1.458523 7:0.562612 8:0.917918 9:0.080714 10:-0.142068 11:0.164145 
-0.24357667385984488 -0.0 -0.0 1.0 0.0 1:0.501234 2:1.467165 3:0.636249 4:0.047338 5:0.31376 6:-0.007551 7:-0.875996 8:-0.138812 9:0.303889 10:0.11018 11:-0.397574 
-0.0 -0.0 -0.0 1.0 0.0 1:0.528255 2:1.46528 3:0.848117 4:0.146989 5:0.162594 6:-0.674019 7:-0.188492 8:-0.887779 9:0.726485 10:0.290492 11:-0.492669 
-0.23540629364091273 -0.6567711559288554 -0.45285191823895027 0.39587383486962363 0.058688409591361304 1:1.198107 2:0.160525 3:0.476395 4:0.48017 5:-0.997746 6:-3.479767 7:1.239877 8:1.737665 9:-6.534053 10:6.835504 11:3.611771 
-0.0 -0.018225504324731502 -0.08840856124747616 0.6191887045297423 0.0 1:1.863317 2:0.202188 3:0.369355 4:0.178915 5:1.686375 6:0.873104 7:1.007361 8:0.056783 9:-2.248831 10:-0.141233 11:-2.030963 
-0.07960930008259966 -0.34311903117280185 -0.16137602549181895 0.0 0.022064429160958514 1:1.518432 2:0.474545 3:0.491362 4:0.244281 5:-0.662266 6:-3.485309 7:-0.767626 8:0.896373 9:-1.021278 10:-1.148962 11:0.890038 
-0.5928696783754024 -0.45280050277161993 -0.0 0.0 0.009728833645328196 1:1.334467 2:-1.093849 3:0.055341 4:1.15669 5:-1.22033 6:-0.547099 7:2.025367 8:-1.26454 9:1.21939 10:-0.250741 11:-0.1862 
-0.024637182657314925 -0.3262059055112246 -0.17756607360762997 0.11702094094401952 0.031972872679127205 1:1.497079 2:0.49113 3:0.522039 4:0.330721 5:-0.687491 6:-3.801889 7:-0.486446 8:0.975196 9:-4.461804 10:-1.210333 11:2.698642 
-0.24289680051394916 -0.243678315666687 -0.0 0.7471241822304123 0.008377633894664017 1:1.314265 2:-1.003022 3:-0.54924 4:1.064997 5:-0.682463 6:1.733825 7:-0.063711 8:1.437964 9:-0.155855 10:-0.367669 11:0.162807 
-0.0 -0.0 -0.0 0.023994647394740998 0.0 1:1.729025 2:0.393797 3:0.283931 4:0.54888 5:-0.133812 6:1.02634 7:-2.16026 8:-0.278963 9:-1.035699 10:0.263345 11:0.716906 
-0.0 -0.0 -0.0 1.0 0.0 1:1.172176 2:-1.261472 3:-0.290865 4:-0.077357 5:-1.078156 6:0.349508 7:-0.774372 8:0.562505 9:0.282864 10:0.022576 11:-0.391454 
-0.32217510010900385 -0.0 -0.0 0.0 0.0 1:0.671093 2:-0.084618 3:1.892917 4:1.105339 5:-0.110072 6:-1.228984 7:-0.002636 8:0.733009 9:1.069123 10:-0.471904 11:0.036571 
-0.0 -0.0 -0.0 1.0 0.0 1:0.539529 2:1.563746 3:0.469499 4:0.246554 5:0.475266 6:0.644209 7:-1.050551 8:0.369347 9:0.007033 10:-0.066682 11:-0.22754 
-0.0 -0.2781963560451848 -0.04122532290590335 0.0 0.0 1:1.304459 2:-1.006815 3:-0.585764 4:0.981839 5:-0.686377 6:1.704558 7:-0.178741 8:1.372535 9:-0.167864 10:0.105409 11:0.104827 
-0.597161038825947 -0.9037054096982736 -0.42281937001663483 0.7426041768028804 0.039843189218728245 1:1.022814 2:-0.852079 3:-0.124802 4:1.131417 5:-0.923306 6:-2.892156 7:1.303698 8:0.980391 9:1.642043 10:-1.032903 11:-0.620368 
-0.0282110574793961 -0.07428023106330997 -0.050683500926204335 0.04917468437389845 0.0062172822777132285 1:2.055479 2:0.261124 3:0.514096 4:0.488018 5:0.922727 6:-0.38879 7:3.750531 8:-0.372974 9:-8.579267 10:-0.51179 11:-9.022728 
-0.011937265940659574 -0.0 -0.0 0.0 0.0 1:1.262198 2:-1.168518 3:-0.047985 4:0.617099 5:-1.220282 6:-0.369546 7:1.030605 8:-0.566058 9:0.931642 10:-0.272403 11:-0.287827 
-0.0 -0.0 -0.1772237674305063 0.0 0.0 1:0.84625 2:-0.352259 3:2.136378 4:0.745419 5:-0.455251 6:-0.012274 7:0.278055 8:-1.232304 9:0.922012 10:0.077406 11:0.167147 
-0.24451089614946328 -0.0 -0.0 0.0 0.0 1:0.627303 2:-0.017707 3:1.832051 4:1.19532 5:-0.023777 6:-1.533162 7:-0.072809 8:1.224337 9:1.105901 10:-0.609232 11:0.003926 
-1.0 -0.0 -0.0 0.0 0.0 1:1.229095 2:-1.155614 3:-0.305936 4:0.475764 5:-0.939864 6:0.652816 7:-0.242364 8:0.664483 9:0.260206 10:-0.429102 11:-0.178903 
-0.2742284954945891 -0.7393480953301381 -0.5092190719681319 0.4583842284008433 0.06634021443615613 1:2.019764 2:0.232865 3:0.447529 4:0.213717 5:1.192993 6:0.289243 7:3.040377 8:0.296996 9:-4.007432 10:-0.299496 11:-13.110252 
-0.25699589154154795 -0.6913611105627867 -0.47730376695421495 0.42459713329922355 0.06227599953259422 1:2.082812 2:0.270597 3:0.505702 4:0.447806 5:1.050386 6:-0.247382 7:3.826387 8:-0.445262 9:-7.413049 10:-0.563665 11:-6.872379 
-0.9313866491778251 -0.661320161048344 -0.7257169715627202 0.6562914986551351 0.039032315694928134 1:0.703442 2:0.890942 3:0.407666 4:-1.284089 5:-1.133853 6:0.146302 7:0.859479 8:2.889327 9:0.344269 10:1.415105 11:-0.174541 
-1.0 -0.3788507885022047 -1.0 -0.0 0.0 1:-0.008137 2:-0.00105 3:0.071419 4:0.129449 5:0.043824 6:-0.022291 7:0.17918 8:-0.071263 9:-0.111943 10:0.055637 11:0.468451 
-1.0 -0.18721040266041167 -0.5095138756506198 -0.48157447866490777 0.0 1:0.823898 2:-1.224471 3:0.412751 4:-0.285162 5:1.123992 6:0.648626 7:-1.152033 8:-1.723247 9:0.012954 10:-1.309059 11:-0.114546 
-0.986576205618774 -0.0 -0.0 -0.0 0.0 1:1.182238 2:-1.35569 3:-0.191216 4:-0.741073 5:0.021908 6:0.051177 7:0.309077 8:0.868056 9:0.354128 10:-0.066146 11:-0.080693 
-1.0 -0.7089493719581107 -0.8275263620596776 -0.6790212869010559 0.04021262094521208 1:0.613812 2:-0.239265 3:-0.994668 4:-0.395792 5:-0.771998 6:-1.396066 7:0.38697 8:1.388111 9:0.704624 10:5.33707 11:-0.28261 
-0.0 -0.0 -0.0 -0.8862606658544444 0.0 1:0.503057 2:1.275562 3:0.682816 4:-0.921564 5:1.012061 6:-0.314903 7:-0.833565 8:0.283784 9:0.272535 10:0.198217 11:-0.338473 
-0.6234165354313069 -0.9912900377827691 -0.3732480932608547 -1.0 0.07127501098734734 1:0.765932 2:-0.488002 3:-0.522272 4:2.016193 5:1.023877 6:0.380687 7:-2.949256 8:1.432322 9:-0.341645 10:-0.060083 11:-0.418402 
-0.0 -0.6390046720831217 -0.38067941894181234 -0.0 0.11015602551497593 1:0.967048 2:-1.383599 3:0.255398 4:-0.497463 5:1.857596 6:0.373058 7:-0.789438 8:-2.066099 9:0.101057 10:0.916379 11:-0.146254 
-0.0 -0.26188580936648354 -0.08538298844662355 -0.0 0.0 1:0.46769 2:0.889989 3:0.345711 4:-1.223523 5:2.142769 6:-0.396178 7:1.250674 8:-0.397279 9:0.384165 10:-2.447005 11:0.322675 
-0.8265462934291713 -0.0 -0.0 -1.0 0.025957837537145263 1:1.458083 2:0.517402 3:-0.64621 4:0.317905 5:-0.247122 6:0.916045 7:-1.255466 8:1.577716 9:0.131072 10:-0.354351 11:0.289074 
-1.0 -0.7640106310048329 -0.8591478254554539 -0.8257655864649828 0.06738675860383889 1:0.83191 2:-1.212422 3:0.526241 4:-0.75445 5:1.366296 6:0.858785 7:1.145955 8:-0.104017 9:0.068053 10:-4.049202 11:0.620499 
-0.0 -0.0 -0.0 -0.042967074428486844 0.0 1:0.8324 2:0.828328 3:-1.274624 4:0.883827 5:0.64667 6:0.472963 7:-1.229242 8:-1.704831 9:0.129156 10:0.316701 11:0.145849 
-0.04265437901956946 -0.032209719276938706 -0.0 -0.10001367987935525 0.0 1:0.354767 2:0.615059 3:-0.080781 4:-1.090769 5:2.058049 6:-0.403687 7:1.698923 8:-1.606206 9:0.445784 10:-5.907857 11:0.548235 
-1.0 -0.0 -0.0 -0.0 0.0 1:0.948143 2:0.624811 3:-1.421676 4:-0.066565 5:-0.347262 6:-0.518629 7:0.099145 8:0.226254 9:0.582416 10:-0.154098 11:0.150804 
-0.19478518223640354 -0.8178766760015662 -0.6182264345543409 -0.5358517473177687 0.10414704628961523 1:0.595591 2:0.490139 3:-0.828166 4:-0.404212 5:0.299793 6:-1.358661 7:-2.338683 8:-3.038081 9:0.687758 10:0.509465 11:-0.581724 
-0.48626853691541055 -0.7028670874435535 -0.2659748330172459 -0.9856125233022932 0.09144952170062276 1:0.572412 2:-0.369033 3:-0.957776 4:-0.303461 5:-0.802229 6:-1.350902 7:0.54668 8:1.73585 9:0.659904 10:6.405424 11:-0.287434 
-0.0 -0.0 -0.0 -1.0 0.0 1:1.109337 2:-1.319322 3:-0.118702 4:-0.493906 5:-0.017667 6:0.116246 7:-0.702557 8:0.011679 9:0.274031 10:0.328848 11:-0.321217 
-0.6003798320316988 -0.0 -0.0 -1.0 0.0 1:0.469902 2:1.262002 3:0.65641 4:-0.786341 5:0.699903 6:-0.285537 7:-1.186017 8:0.201457 9:0.250882 10:0.153513 11:-0.440797 
-1.0 -1.0 -1.0 -1.0 0.0 1:0.110915 2:0.188231 3:-0.163753 4:0.938795 5:0.311356 6:1.089998 7:0.721846 8:0.575119 9:-0.466694 10:0.119909 11:0.876775 
-0.6298945538669922 -0.0 -1.0 -1.0 0.0 1:1.128376 2:-1.318404 3:-0.131816 4:-0.529832 5:-0.275492 6:0.185066 7:-0.564797 8:0.242722 9:0.28339 10:0.018127 11:-0.289722 
-0.0 -0.0 -0.0 -0.0 0.04542066582838686 1:0.57162 2:1.161749 3:0.710249 4:-1.338928 5:2.169636 6:-0.394953 7:0.753429 8:0.57746 9:0.336258 10:0.360114 11:0.105815 
-0.0 -0.0 -0.0 -1.0 0.0 1:0.973786 2:-1.276063 3:0.086791 4:-0.231915 5:0.388029 6:0.294261 7:-1.708209 8:-1.319046 9:0.134477 10:0.464997 11:-0.480358 
-0.03665248367900403 -0.0 -0.0 -0.0 0.0 1:0.45725 2:0.878422 3:0.317701 4:-1.194632 5:2.080357 6:-0.392697 7:1.200384 8:-0.487328 9:0.384872 10:-2.671296 11:0.314851 
-0.0 -0.0 -0.7899190612168189 -0.0 0.0 1:0.791731 2:0.444268 3:-1.129169 4:-0.800439 5:-0.468461 6:-1.587356 7:-0.746747 8:-0.839001 9:0.897262 10:-0.101917 11:-0.309393 
-0.3643847682386072 -0.0 -0.0 -0.0 0.0 1:0.450417 2:0.860864 3:0.291136 4:-1.187708 5:2.07887 6:-0.39343 7:1.23362 8:-0.56192 9:0.388933 10:-2.887067 11:0.33041 
-1.0 -1.0 -1.0 -0.0 0.0 1:-0.007958 2:-0.001047 3:0.071607 4:0.129633 5:0.044806 6:-0.021509 7:0.193957 8:-0.070138 9:-0.186697 10:0.032111 11:-0.029041 
-1.0 -1.0 -1.0 -1.0 0.0 1:-0.007958 2:-0.001047 3:0.071607 4:0.129633 5:0.044806 6:-0.021509 7:0.193957 8:-0.070138 9:-0.186697 10:0.032111 11:-0.029041 
-1.0 -0.0 -0.5605058609141605 -1.0 0.0 1:1.18017 2:-1.351102 3:-0.183375 4:-0.69317 5:-0.178126 6:0.124652 7:0.072533 8:0.723421 9:0.336711 10:-0.064243 11:-0.144315 
-0.0 -0.0 -0.6228061492654723 -0.0 0.0 1:0.48987 2:1.084361 3:0.54524 4:-1.081218 5:1.606342 6:-0.352398 7:0.233053 8:0.060347 9:0.321494 10:-0.797527 11:-0.012248 
-0.610388135259254 -1.0 -0.8611025235354883 -1.0 0.09403576331697798 1:1.036324 2:-0.587455 3:-0.023606 4:2.353781 5:2.533901 6:-1.178734 7:2.461145 8:-0.43794 9:0.952646 10:0.123395 11:0.326736 
-0.0 -0.0 -0.0 -0.058060410087887336 0.0 1:0.837863 2:-0.501269 3:-0.362729 4:2.192131 5:1.282393 6:-0.125743 7:-1.520339 8:0.761197 9:0.069558 10:-0.033323 11:-0.270958 
-1.0 -1.0 -0.9795852321997026 -1.0 0.10132635929808333 1:0.347935 2:0.597501 3:-0.107346 4:-1.083844 5:2.056562 6:-0.40442 7:1.732158 8:-1.680798 9:0.449845 10:-6.123627 11:0.563793 
-0.10907115844215622 -0.3945072522534105 -0.0 -0.0 0.003278733214957733 1:1.242098 2:-1.441737 3:-0.185336 4:-1.067472 5:0.838274 6:-0.018698 7:1.554247 8:1.189167 9:0.411058 10:0.024033 11:0.259645 
-0.0 -0.0 -0.0 -1.0 0.0 1:0.466971 2:1.335464 3:0.668378 4:-0.701899 5:0.402812 6:-0.272771 7:-1.668825 8:0.129218 9:0.238996 10:0.113009 11:-0.572309 
-0.0 -0.0 -0.0 -0.917202996946761 0.0 1:1.101841 2:-1.327637 3:-0.070151 4:-0.520259 5:0.053617 6:0.215987 7:-0.617445 8:-0.129781 9:0.253546 10:0.160143 11:-0.271444 
-0.4371948701676282 -0.0 -0.1928328795477817 -0.7780728756288985 0.0 1:0.861584 2:-0.498189 3:-0.300933 4:2.29326 5:1.300504 6:-0.322417 7:-1.065708 8:0.471108 9:0.229343 10:-0.034548 11:-0.244718 
-0.5112002019564559 -0.0 -0.0 -0.0 0.0 1:0.588972 2:-0.317126 3:-0.972533 4:-0.340393 5:-0.790137 6:-1.368968 7:0.482796 8:1.596755 9:0.677792 10:5.978083 11:-0.285504 
-0.017437512549653398 -0.0 -0.08023005304118626 -1.0 0.0 1:0.999711 2:-1.272857 3:0.027739 4:-0.136415 5:-0.068804 6:0.241252 7:-2.11497 8:-1.081972 9:0.148869 10:0.320117 11:-0.611637 
-0.39336878797753044 -0.0 -0.0 -0.0 0.0 1:0.987492 2:-1.383458 3:0.193958 4:-0.511944 5:1.810653 6:0.258213 7:-0.715218 8:-1.804465 9:0.134873 10:1.064492 11:-0.159675 
-0.0 -0.0 -0.013405379360854688 -0.3217125898675227 0.0 1:1.038939 2:0.752135 3:-1.596916 4:0.46833 5:-0.200797 6:0.23152 7:0.546249 8:0.773233 9:0.349668 10:-0.139236 11:0.443151 
-0.0 -0.0 -0.0 -0.29548235284662483 0.0 1:0.838431 2:0.433346 3:-1.200837 4:-0.894779 5:-0.651378 6:-1.641807 7:-0.367714 8:-0.31541 9:0.947143 10:-0.247484 11:-0.244552 
-0.0 -0.0 -0.3901079346065254 -0.0 0.0 1:1.247248 2:-1.449129 3:-0.174607 4:-1.063502 5:0.76009 6:0.046351 7:1.484756 8:1.075445 9:0.400349 10:0.042977 11:0.24279 
-1.0 -0.4006839756970547 -1.0 -1.0 0.0 1:0.060788 2:0.108534 3:-0.064733 4:0.598018 5:0.198711 6:0.621666 7:0.493355 8:0.302958 9:-0.317325 10:0.092847 11:0.704849 
-1.0 -1.0 -1.0 -1.0 0.10751311521444627 1:0.255571 2:-0.096164 3:-0.333483 4:-0.485345 5:-1.11674 6:-0.362702 7:2.586599 8:3.268666 9:0.468152 10:-0.871636 11:0.743214 
-0.0 -0.0 -0.0 -0.9862465089319816 0.0315871286881747 1:0.838431 2:0.433346 3:-1.200837 4:-0.894779 5:-0.651378 6:-1.641807 7:-0.367714 8:-0.31541 9:0.947143 10:-0.247484 11:-0.244552 
-0.0 -0.0 -0.0 -1.0 0.0 1:0.452921 2:1.329887 3:0.638925 4:-0.651042 5:0.279475 6:-0.265078 7:-1.802641 8:0.023713 9:0.236349 10:-0.119804 11:-0.603517 
-0.0 -0.0 -0.5333290310712041 -1.0 0.0 1:1.066921 2:0.712855 3:-1.527851 4:0.387193 5:-0.214523 6:0.343955 7:0.382377 8:0.331877 9:0.343319 10:-0.484999 11:0.43219 
-0.41475256358400625 -0.8382526709910397 -0.5488498875097692 -0.0 0.0 1:0.559732 2:1.141785 3:0.716184 4:-1.298496 5:2.102665 6:-0.381708 7:0.701845 8:0.631551 9:0.32396 10:0.565264 11:0.081467 
-0.0 -0.0473160802118169 -0.0 -0.3025018624402122 0.016198078156029357 1:0.458697 2:0.886818 3:0.283758 4:-1.206174 5:2.084916 6:-0.402463 7:1.201678 8:-0.631467 9:0.397877 10:-3.100738 11:0.331375 
-0.0 -0.09315304110780949 -0.3597470982970265 -1.0 0.0 1:0.452921 2:1.329887 3:0.638925 4:-0.651042 5:0.279475 6:-0.265078 7:-1.802641 8:0.023713 9:0.236349 10:-0.119804 11:-0.603517 
-0.0 -0.0 -0.0 -0.3195576592767747 0.0 1:0.7494 2:0.819849 3:-1.152577 4:1.053237 5:0.933292 6:0.569118 7:-1.803752 8:-2.473028 9:0.040401 10:0.763279 11:0.041139 
-0.3624650874368992 -0.0 -0.0 -0.0 0.0 1:1.032674 2:0.742172 3:-1.584539 4:0.425733 5:-0.214878 6:0.172979 7:0.517688 8:0.739213 9:0.368339 10:-0.142619 11:0.42166 
-0.0 -0.0 -0.0 -0.3541728436997736 0.0 1:0.799829 2:-0.533656 3:-0.495634 4:1.871235 5:1.500574 6:0.298866 7:-2.188272 8:1.479589 9:-0.275706 10:0.005648 11:-0.230619 
-0.11275633716732385 -0.6821231703928836 -0.010186799984956904 -0.0 0.039342092373743226 1:0.88949 2:-0.675054 3:-0.478122 4:1.414841 5:2.87521 6:0.299444 7:-0.48458 8:1.991768 9:-0.261622 10:-0.041293 11:0.307543 
-0.5866595963283814 -0.765191037118468 -1.0 -0.0 0.0 1:0.805311 2:0.329532 3:-1.171324 4:-0.820915 5:-0.675563 6:-1.605676 7:-0.239946 8:-0.03722 9:0.911368 10:0.6072 11:-0.248412 
-1.0 -1.0 -1.0 -0.678281863099464 0.0 1:-0.007958 2:-0.001047 3:0.071607 4:0.129633 5:0.044806 6:-0.021509 7:0.193957 8:-0.070138 9:-0.186697 10:0.032111 11:-0.029041 
-1.0 -0.0 -1.0 -0.0 0.0 1:0.029458 2:0.058723 3:-0.002845 4:0.385032 5:0.128308 6:0.328958 7:0.350548 8:0.132858 9:-0.223969 10:0.075933 11:0.597396 
-1.0 -0.0 -0.0 -1.0 0.0 1:0.491168 2:1.255599 3:0.688751 4:-0.881132 5:0.94509 6:-0.301657 7:-0.885149 8:0.337875 9:0.260237 10:0.403367 11:-0.362821 
-0.6263129154749189 -0.6079730607694602 -0.3058210899026739 -0.0 0.05071324233044309 1:0.759922 2:0.810976 3:-1.173178 4:1.058496 5:0.942257 6:0.536889 7:-1.86711 8:-2.519096 9:0.046908 10:0.997084 11:0.008311 
-0.0 -0.0 -0.20757634124064958 -0.0 0.0 1:0.837371 2:0.461484 3:-1.193882 4:-0.894377 5:-0.608748 6:-1.639949 7:-0.475463 8:-0.489676 9:0.946111 10:-0.432041 11:-0.256555 
-0.0 -0.0 -0.0 -1.0 0.0 1:0.7494 2:0.819849 3:-1.152577 4:1.053237 5:0.933292 6:0.569118 7:-1.803752 8:-2.473028 9:0.040401 10:0.763279 11:0.041139 
-1.0 -0.0 -1.0 -1.0 0.0 1:0.444642 2:1.303933 3:0.646303 4:-0.632576 5:0.273428 6:-0.256045 7:-1.770699 8:0.093261 9:0.227405 10:0.093867 11:-0.604482 
-1.0 -1.0 -1.0 -1.0 -1.0 1:0.933606 2:-0.077947 3:-0.270735 4:-1.331357 5:1.736806 6:0.190152 7:0.806888 8:-6.843564 9:0.741123 10:1.801033 11:0.261267 
