svm_type c_svc
kernel_type rbf
gamma 0.125
nr_class 6
total_sv 697
rho -0.2673554295422422 -0.005520567987332849 -0.30771350485194177 -0.7608675335553086 -0.7663302856584939 0.23896466958421284 -0.16388360936606178 -0.6855564532148707 -0.6563663160781559 -0.2730501642392272 -0.6339062615378364 -0.7419269341188839 -0.5275769389446526 -0.7599667486141509 -0.5096491542399275
label 3 4 1 2 5 31
nr_sv 131 140 85 159 175 7
SV
1.0 0.0 0.5437053993556156 0.0 0.0 1:-0.525814 2:1.281765 3:-0.001007 4:0.619704 5:-0.219857 6:0.401013 7:-0.452119 8:0.379946 
0.0 0.0 0.0 1.0 0.0 1:0.348862 2:0.200524 3:0.834098 4:0.980064 5:-0.746132 6:-1.426172 7:-1.915609 8:0.098241 
0.0 0.0 0.08036905794610129 0.0 0.0 1:0.056181 2:1.928224 3:0.755331 4:-0.343433 5:-0.304298 6:-2.705158 7:-0.241603 8:-1.719652 
1.0 0.0 0.0 0.0 0.0 1:0.906245 2:0.433767 3:-1.740576 4:-0.025903 5:-0.995677 6:1.529998 7:0.490263 8:0.827257 
1.0 0.0 0.0 0.0 0.0 1:1.824768 2:-0.058552 3:0.832509 4:-0.193085 5:0.645991 6:-0.331875 7:-0.10998 8:-0.055371 
1.0 0.0 0.0 0.0 0.0 1:0.906245 2:0.433767 3:-1.740576 4:-0.025903 5:-0.995677 6:1.529998 7:0.490263 8:0.827257 
0.15855898183073402 0.0 0.0 0.0 0.0 1:-0.452537 2:0.767447 3:-0.892902 4:-1.28756 5:-0.852828 6:-0.036727 7:-1.029194 8:1.000616 
0.2665787593288713 0.0 0.0 0.0 0.0 1:1.823727 2:-0.420138 3:0.159334 4:-1.722332 5:-0.117663 6:-1.035658 7:-1.164869 8:-0.459878 
1.0 0.0 0.0 0.0 0.0 1:-0.533789 2:1.182276 3:-0.031088 4:0.37124 5:-0.475259 6:0.451178 7:-0.33327 8:0.306447 
1.0 0.0 0.0 0.0 0.0 1:-0.526676 2:1.149966 3:-0.17644 4:0.119884 5:-0.521466 6:0.280626 7:-0.648044 8:0.239295 
1.0 0.0 0.0 0.0 0.0 1:1.761104 2:-0.208854 3:0.505895 4:-0.182492 5:0.831065 6:0.198995 7:-0.919389 8:-0.077637 
0.12030328229244416 0.0 0.0 0.0 0.0 1:0.009418 2:2.169606 3:0.602264 4:-0.253741 5:-0.054868 6:-2.350525 7:0.291999 8:-0.322522 
1.0 0.0 0.0 0.0 0.0 1:0.009418 2:2.169606 3:0.602264 4:-0.253741 5:-0.054868 6:-2.350525 7:0.291999 8:-0.322522 
0.2776455727530449 0.0 0.0 0.0 0.0 1:0.532918 2:0.526397 3:0.570068 4:0.805363 5:0.1164 6:-0.786038 7:-2.855228 8:0.045327 
0.0 0.0 0.0 0.8763399332490204 0.0 1:-0.244905 2:-0.037491 3:1.231659 4:0.758389 5:-2.249938 6:-0.144902 7:0.225081 8:-2.729529 
1.0 0.0 0.0 0.0 0.0 1:1.761104 2:-0.208854 3:0.505895 4:-0.182492 5:0.831065 6:0.198995 7:-0.919389 8:-0.077637 
1.0 0.0 0.0 0.0 0.0 1:1.761104 2:-0.208854 3:0.505895 4:-0.182492 5:0.831065 6:0.198995 7:-0.919389 8:-0.077637 
1.0 0.0 0.0 0.0 0.0 1:1.780673 2:-0.027835 3:0.685152 4:0.104612 5:1.02343 6:-0.160674 7:-0.667955 8:0.088509 
0.0 0.0 0.0 0.6201579767698407 0.0 1:-0.613324 2:0.780155 3:0.508302 4:0.198995 5:-1.686635 6:1.564793 7:1.869783 8:0.220381 
1.0 0.0 0.0 0.0 0.0 1:1.824768 2:-0.058552 3:0.832509 4:-0.193085 5:0.645991 6:-0.331875 7:-0.10998 8:-0.055371 
0.48283130582155953 0.5024194300821329 0.37180115349370046 0.22614530792268894 0.05990700433428195 1:1.732984 2:-0.856169 3:0.807107 4:-1.829931 5:-1.448234 6:0.258543 7:1.387892 8:-0.533123 
1.0 0.0 0.0 0.0 0.0 1:-0.517753 2:1.095693 3:-0.50608 4:-0.43534 5:-0.623866 6:-0.036121 7:-1.242794 8:0.242645 
1.0 0.0 0.0 0.0 0.0 1:1.780673 2:-0.027835 3:0.685152 4:0.104612 5:1.02343 6:-0.160674 7:-0.667955 8:0.088509 
1.0 0.0 1.0 0.6557253195101735 0.0 1:-0.525814 2:1.281765 3:-0.001007 4:0.619704 5:-0.219857 6:0.401013 7:-0.452119 8:0.379946 
1.0 0.0 0.0 0.3999505177163398 0.0 1:-0.526676 2:1.149966 3:-0.17644 4:0.119884 5:-0.521466 6:0.280626 7:-0.648044 8:0.239295 
0.0 0.0 0.16478376662444327 0.0 0.0 1:1.732022 2:-0.672206 3:0.094751 4:-1.597187 5:-0.223888 6:0.187008 7:-1.096255 8:-0.474331 
1.0 0.0 0.0 0.0 0.0 1:-0.452537 2:0.767447 3:-0.892902 4:-1.28756 5:-0.852828 6:-0.036727 7:-1.029194 8:1.000616 
1.0 0.0 0.0 0.0 0.0 1:1.866895 2:-0.021022 3:0.73582 4:-0.248271 5:0.765861 6:-0.571313 7:-0.483761 8:-0.183369 
0.03841910105407173 0.0 0.0 0.0 0.0 1:1.017864 2:0.959684 3:-1.10834 4:-0.107219 5:-1.52546 6:-0.631209 7:0.527567 8:-1.848911 
0.0 0.0 0.0 1.0 0.0 1:0.348862 2:0.200524 3:0.834098 4:0.980064 5:-0.746132 6:-1.426172 7:-1.915609 8:0.098241 
0.0 0.0 0.0 0.1931969910806104 0.0 1:0.302661 2:0.166542 3:0.737754 4:1.120946 5:-0.762823 6:-1.963964 7:-2.168422 8:0.216141 
1.0 0.0 0.0 0.0 0.0 1:1.824768 2:-0.058552 3:0.832509 4:-0.193085 5:0.645991 6:-0.331875 7:-0.10998 8:-0.055371 
0.0 0.0 0.0 1.0 0.0 1:0.302661 2:0.166542 3:0.737754 4:1.120946 5:-0.762823 6:-1.963964 7:-2.168422 8:0.216141 
1.0 0.0 0.0 0.0 0.0 1:1.823727 2:-0.420138 3:0.159334 4:-1.722332 5:-0.117663 6:-1.035658 7:-1.164869 8:-0.459878 
1.0 0.0 0.0 0.0 0.0 1:1.267524 2:1.38456 3:0.587874 4:1.099438 5:0.962462 6:0.756175 7:-1.673981 8:1.007461 
1.0 0.0 0.0 0.0 0.0 1:1.267524 2:1.38456 3:0.587874 4:1.099438 5:0.962462 6:0.756175 7:-1.673981 8:1.007461 
1.0 0.0 0.0 0.0 0.0 1:1.017864 2:0.959684 3:-1.10834 4:-0.107219 5:-1.52546 6:-0.631209 7:0.527567 8:-1.848911 
0.08183919412016226 0.0 0.0 0.0 0.0 1:1.32796 2:1.20053 3:0.234756 4:-0.0582 5:0.292963 6:-0.192311 7:-2.255271 8:0.649703 
1.0 0.0 0.0 0.0 0.0 1:1.780673 2:-0.027835 3:0.685152 4:0.104612 5:1.02343 6:-0.160674 7:-0.667955 8:0.088509 
0.0 0.0 0.0 0.4675360357881231 0.0 1:1.716063 2:-0.643596 3:1.345919 4:-0.701721 5:-1.031108 6:0.805308 7:2.370753 8:-0.224591 
1.0 0.0 0.0 0.0 0.0 1:-0.517753 2:1.095693 3:-0.50608 4:-0.43534 5:-0.623866 6:-0.036121 7:-1.242794 8:0.242645 
0.0 0.0 0.0 0.18233696613684336 0.0 1:0.501865 2:0.199006 3:1.554217 4:0.321785 5:-1.200974 6:1.617834 7:0.31511 8:-0.597786 
0.0 0.0 0.1176852167759429 0.0 0.0 1:-0.580154 2:1.073775 3:0.33469 4:0.576593 5:-0.909727 6:1.142696 7:0.991956 8:0.496974 
0.8311625412457186 0.0 0.0 0.33684032543049713 0.0 1:1.514729 2:-0.578507 3:0.890546 4:0.687562 5:-0.432042 6:-2.116546 7:0.620877 8:0.477775 
0.0 0.0 0.0 0.7880174901353505 0.0 1:0.293958 2:0.046088 3:1.120666 4:0.955753 5:-1.276084 6:-0.80223 7:-0.82255 8:-0.067236 
1.0 0.0 0.0 0.0 0.0 1:-0.452537 2:0.767447 3:-0.892902 4:-1.28756 5:-0.852828 6:-0.036727 7:-1.029194 8:1.000616 
1.0 0.0 0.0 0.0 0.0 1:0.906245 2:0.433767 3:-1.740576 4:-0.025903 5:-0.995677 6:1.529998 7:0.490263 8:0.827257 
1.0 0.6727573918195061 0.8408479488321164 0.18163351239520617 0.0 1:-0.525814 2:1.281765 3:-0.001007 4:0.619704 5:-0.219857 6:0.401013 7:-0.452119 8:0.379946 
0.0 0.0 0.16757522711031447 0.0 0.0 1:0.559325 2:0.393893 3:1.17015 4:0.297948 5:-0.504112 6:0.941982 7:-0.990696 8:-0.43919 
0.0 0.0 1.0 0.0 0.0 1:-0.580154 2:1.073775 3:0.33469 4:0.576593 5:-0.909727 6:1.142696 7:0.991956 8:0.496974 
0.27921094089283677 0.46142547520071286 0.28388736484533195 0.06884789919371942 0.06080622605787902 1:0.610288 2:0.562642 3:1.561367 4:2.430109 5:-2.278546 6:-0.918845 7:-1.380871 8:4.201852 
0.0 0.06832499826057702 0.0 0.0 0.0 1:0.063785 2:1.970058 3:0.232086 4:-0.605932 5:1.144866 6:2.643882 7:0.0071 8:0.254266 
1.0 0.0 0.0 1.0 0.0 1:-0.526676 2:1.149966 3:-0.17644 4:0.119884 5:-0.521466 6:0.280626 7:-0.648044 8:0.239295 
0.0 0.0 0.0 1.0 0.0 1:0.348862 2:0.200524 3:0.834098 4:0.980064 5:-0.746132 6:-1.426172 7:-1.915609 8:0.098241 
1.0 0.0 0.0 0.0 0.0 1:1.017864 2:0.959684 3:-1.10834 4:-0.107219 5:-1.52546 6:-0.631209 7:0.527567 8:-1.848911 
1.0 0.0 0.0 0.0 0.01958338376841076 1:1.267524 2:1.38456 3:0.587874 4:1.099438 5:0.962462 6:0.756175 7:-1.673981 8:1.007461 
1.0 0.0 0.0 0.0 0.0 1:1.866895 2:-0.021022 3:0.73582 4:-0.248271 5:0.765861 6:-0.571313 7:-0.483761 8:-0.183369 
1.0 0.0 0.0 0.1756419213248369 0.0 1:1.691322 2:-0.363389 3:0.347228 4:-0.445436 5:0.653684 6:0.578008 7:-1.050981 8:-0.009874 
0.0 0.06517211652126104 0.00374264767269897 0.0 0.04631288030484143 1:1.02675 2:0.804943 3:1.359978 4:0.303368 5:-1.841026 6:1.9734 7:-1.345296 8:2.40774 
1.0 0.0 0.0 1.0 0.0 1:1.514729 2:-0.578507 3:0.890546 4:0.687562 5:-0.432042 6:-2.116546 7:0.620877 8:0.477775 
0.0 0.1177000631667598 0.0 0.0 0.0 1:0.683848 2:0.24563 3:1.919932 4:2.182017 5:-2.759681 6:-1.211981 7:-2.772876 8:1.654057 
0.0 0.09429405812319597 0.0 0.0 0.0 1:-0.596013 2:1.080108 3:0.423688 4:0.654952 5:-0.993603 6:1.226626 7:1.129787 8:0.373414 
0.0 0.007726165019581696 0.08573281140569217 0.0 0.0 1:0.668095 2:0.522807 3:-0.493161 4:0.464138 5:-1.179083 6:-0.057198 7:3.122954 8:-4.239934 
0.30655970638229635 0.9684672664160492 0.4946250513223679 0.0 0.390835103521575 1:1.354573 2:-0.902007 3:1.347783 4:1.008725 5:-1.397393 6:-1.89929 7:2.42163 8:0.760791 
0.29331380858071876 0.04336484772425004 0.24414405470293776 0.0 0.0 1:0.18553 2:0.078503 3:0.601088 4:1.372614 5:-0.907768 6:-2.857039 7:-2.448238 8:0.299158 
0.0 0.0 0.6614828228810238 0.0 0.0 1:0.23691 2:-0.122058 3:1.331855 4:1.032703 5:-1.755118 6:-0.574514 7:0.026696 8:-0.022566 
1.0 0.0 0.0 1.0 0.0 1:-0.526676 2:1.149966 3:-0.17644 4:0.119884 5:-0.521466 6:0.280626 7:-0.648044 8:0.239295 
1.0 0.05291014634031395 0.38909164857706063 0.994392560513159 0.3966739889677373 1:0.009418 2:2.169606 3:0.602264 4:-0.253741 5:-0.054868 6:-2.350525 7:0.291999 8:-0.322522 
1.0 0.0 0.23489450652170069 0.0 0.0 1:-0.452537 2:0.767447 3:-0.892902 4:-1.28756 5:-0.852828 6:-0.036727 7:-1.029194 8:1.000616 
0.9412746335699975 0.0 0.0 0.0 0.0 1:1.32796 2:1.20053 3:0.234756 4:-0.0582 5:0.292963 6:-0.192311 7:-2.255271 8:0.649703 
1.0 0.0 0.183973700438904 1.0 0.0 1:1.691322 2:-0.363389 3:0.347228 4:-0.445436 5:0.653684 6:0.578008 7:-1.050981 8:-0.009874 
0.0 0.8229344531491402 0.0 0.0 0.13280853185129596 1:-0.630607 2:0.830103 3:0.551476 4:0.286596 5:-1.690497 6:1.632948 7:1.958497 8:0.253645 
0.6968997368691557 0.0 0.0 0.0 0.0 1:-0.526783 2:1.133491 3:-0.198369 4:0.057406 5:-0.559167 6:0.265578 7:-0.672535 8:0.221713 
0.7798817120699907 0.5636970251834664 0.7168768446144403 0.9921483938177774 0.4996284293967319 1:1.514729 2:-0.578507 3:0.890546 4:0.687562 5:-0.432042 6:-2.116546 7:0.620877 8:0.477775 
0.7279748323850787 0.6236520346992419 0.34749471615258465 0.44699590877514445 0.06760206269763154 1:0.576699 2:0.100545 3:1.802237 4:1.46584 5:-2.706601 6:-1.318366 7:-2.26557 8:-3.543772 
0.0 0.19755447552000166 0.41543762474440354 0.006261467784595558 0.0 1:0.083144 2:-0.277359 3:1.245438 4:1.359668 5:-2.08038 6:-1.697654 7:0.007972 8:0.3654 
0.5290284030857284 0.9908882765140474 0.5078325568113515 0.04622669676409471 0.20478557456495422 1:0.063785 2:1.970058 3:0.232086 4:-0.605932 5:1.144866 6:2.643882 7:0.0071 8:0.254266 
0.9582444638772041 0.5829029168673753 1.0 0.7501820778530923 0.6961375149471726 1:0.056181 2:1.928224 3:0.755331 4:-0.343433 5:-0.304298 6:-2.705158 7:-0.241603 8:-1.719652 
0.0 0.0 0.0 0.0 0.003125073040687671 1:1.758847 2:-0.261151 3:1.29207 4:0.040054 5:-0.00341 6:0.378918 7:1.472175 8:0.003841 
0.0 0.23340400913390252 0.0 0.0 0.0 1:1.006995 2:1.047102 3:0.678441 4:1.835781 5:-0.242299 6:-2.663687 7:-1.145417 8:1.699265 
0.0 0.7628246510358919 0.4685102228704914 0.0 0.10189666713562515 1:1.63383 2:-0.82507 3:-0.232626 4:-1.35448 5:0.174999 6:1.196806 7:-1.949736 8:-0.165667 
0.0 0.0 4.0886669347182675E-5 1.0 0.0 1:-0.613324 2:0.780155 3:0.508302 4:0.198995 5:-1.686635 6:1.564793 7:1.869783 8:0.220381 
0.0 0.0 0.0 0.0 0.04613628446597742 1:1.221277 2:0.689802 3:-0.284356 4:-0.777207 5:0.048609 6:1.352669 7:-2.554054 8:1.19275 
0.5886280435023421 0.9910918649066087 0.5968187782491214 0.14742934076464265 0.26361654564133247 1:0.669763 2:0.569369 3:-0.619443 4:0.489137 5:-0.891299 6:-0.25712 7:2.673671 8:-4.11651 
0.0 0.0 0.0 0.11090597937253042 0.0 1:-0.614185 2:0.648356 3:0.33287 4:-0.300825 5:-1.988243 6:1.444407 7:1.673858 8:0.079729 
0.0 0.0 1.0 0.0 0.0 1:-0.580154 2:1.073775 3:0.33469 4:0.576593 5:-0.909727 6:1.142696 7:0.991956 8:0.496974 
0.9959421712169586 0.44578456650643294 1.0 0.849831166623364 0.0 1:-0.452537 2:0.767447 3:-0.892902 4:-1.28756 5:-0.852828 6:-0.036727 7:-1.029194 8:1.000616 
0.3190881708995587 0.6659314811274264 0.05071721684660123 0.0 0.01734967808309151 1:0.346273 2:0.317796 3:0.516887 4:1.079579 5:-0.314111 6:-2.298538 7:-3.026669 8:0.200154 
0.0 0.0 0.0 0.0 0.004549503780965271 1:0.597901 2:0.458926 3:-0.428669 4:0.583667 5:-1.318774 6:0.066576 7:2.891991 8:-3.773709 
0.0 0.0 0.0 0.7474212265360052 0.0 1:0.302661 2:0.166542 3:0.737754 4:1.120946 5:-0.762823 6:-1.963964 7:-2.168422 8:0.216141 
1.0 0.0 0.0 0.0 0.0 1:0.532918 2:0.526397 3:0.570068 4:0.805363 5:0.1164 6:-0.786038 7:-2.855228 8:0.045327 
0.0 0.0 0.848715616740127 0.0 0.0 1:1.761799 2:-0.177897 3:0.893886 4:-0.033951 5:0.508273 6:0.137254 7:0.197517 8:0.026626 
1.0 0.0 0.0 0.32711453911514143 0.0 1:0.532918 2:0.526397 3:0.570068 4:0.805363 5:0.1164 6:-0.786038 7:-2.855228 8:0.045327 
1.0 0.0 0.0 0.0 0.0 1:-0.533789 2:1.182276 3:-0.031088 4:0.37124 5:-0.475259 6:0.451178 7:-0.33327 8:0.306447 
0.846061121363601 0.0 0.0 0.0 0.0 1:1.617059 2:-0.631763 3:-0.105968 4:-0.998377 5:0.493131 6:1.095974 7:-1.86763 8:-0.101909 
0.01039340748759814 0.6800033706317025 0.4069879914962911 0.0 0.02387847491634825 1:-0.615693 2:0.417707 3:0.025864 4:-1.175509 5:-2.516058 6:1.23373 7:1.330989 8:-0.166411 
0.0 0.0 0.0 0.7965006214414658 0.0 1:1.716063 2:-0.643596 3:1.345919 4:-0.701721 5:-1.031108 6:0.805308 7:2.370753 8:-0.224591 
0.0 0.0 0.0 1.0 0.0 1:-0.614185 2:0.648356 3:0.33287 4:-0.300825 5:-1.988243 6:1.444407 7:1.673858 8:0.079729 
1.0 0.8483902065615592 0.07482573931790198 0.10375407838137664 0.0 1:1.780673 2:-0.027835 3:0.685152 4:0.104612 5:1.02343 6:-0.160674 7:-0.667955 8:0.088509 
0.0 0.0 0.37421115345516115 0.0 0.0 1:1.835477 2:-0.483832 3:0.184686 4:-1.754508 5:-0.23792 6:-0.885793 7:-1.043826 8:-0.581784 
0.0 0.12699741664057573 0.06319449064521727 0.0 0.005597980059202593 1:1.096035 2:1.091673 3:1.681678 4:1.268398 5:-1.030368 6:1.763999 7:-0.493946 8:2.620214 
1.0 0.0 0.0 0.0 0.0 1:-0.517753 2:1.095693 3:-0.50608 4:-0.43534 5:-0.623866 6:-0.036121 7:-1.242794 8:0.242645 
1.0 0.0 0.0 0.0 0.0 1:1.866895 2:-0.021022 3:0.73582 4:-0.248271 5:0.765861 6:-0.571313 7:-0.483761 8:-0.183369 
0.9962410012938255 0.0 0.0 0.818512622254913 0.0 1:1.017864 2:0.959684 3:-1.10834 4:-0.107219 5:-1.52546 6:-0.631209 7:0.527567 8:-1.848911 
0.0 0.0 0.07855976493524967 0.9697089823030138 0.0 1:0.293958 2:0.046088 3:1.120666 4:0.955753 5:-1.276084 6:-0.80223 7:-0.82255 8:-0.067236 
0.0 0.0 0.0 1.0 0.0 1:0.501865 2:0.199006 3:1.554217 4:0.321785 5:-1.200974 6:1.617834 7:0.31511 8:-0.597786 
0.0 0.0 0.07907994990204731 0.0 0.0 1:1.770812 2:-0.671743 3:0.540856 4:-1.774685 5:-0.887545 6:-0.278199 7:0.328324 8:-0.499674 
0.9217775456682532 0.0 0.0 0.0 0.0 1:1.072618 2:1.174956 3:0.691699 4:1.625354 5:0.057168 6:-1.589256 7:-1.594444 8:1.715741 
0.0 0.0 0.0 0.01608943191419397 0.0 1:1.753338 2:-0.607631 3:1.034668 4:-1.101042 5:-0.91259 6:0.215357 7:1.512173 8:-0.332999 
0.0 0.0 0.0 0.0958601527111514 0.0 1:-0.614078 2:0.664831 3:0.354799 4:-0.238348 5:-1.950542 6:1.459455 7:1.698348 8:0.097311 
0.0 0.0 0.0 0.07725303272587986 0.0 1:-0.615154 2:0.500082 3:0.135509 4:-0.863122 5:-2.327552 6:1.308972 7:1.453442 8:-0.078504 
1.0 0.0 0.0 0.0 0.0 1:-0.533789 2:1.182276 3:-0.031088 4:0.37124 5:-0.475259 6:0.451178 7:-0.33327 8:0.306447 
0.0 0.0 0.0 1.0 0.0 1:0.348862 2:0.200524 3:0.834098 4:0.980064 5:-0.746132 6:-1.426172 7:-1.915609 8:0.098241 
0.0 0.0 0.4231241300196354 0.0 0.0 1:1.730296 2:-0.375978 3:0.54022 4:-0.409392 5:0.440133 6:0.528105 7:-0.522528 8:-0.14187 
1.0 0.0 0.0 0.0 0.0 1:1.866895 2:-0.021022 3:0.73582 4:-0.248271 5:0.765861 6:-0.571313 7:-0.483761 8:-0.183369 
0.2312453078372802 0.48933050090501695 0.5036480725614321 0.1435590570558035 0.1374555097116573 1:0.705606 2:0.796603 3:1.750676 4:2.027496 5:-2.065123 6:0.745052 7:-1.887787 8:4.217723 
0.0 0.09705430914061187 0.43045264232582153 0.0 0.0 1:0.303099 2:2.541606 3:0.827534 4:-1.020359 5:0.560531 6:-0.219906 7:0.528213 8:-0.938863 
1.0 0.6530111094424076 0.4410799275533017 0.5261982743071753 0.06178171696117949 1:0.906245 2:0.433767 3:-1.740576 4:-0.025903 5:-0.995677 6:1.529998 7:0.490263 8:0.827257 
1.0 0.38611490466184706 0.0 0.4324546437794562 0.0 1:1.823727 2:-0.420138 3:0.159334 4:-1.722332 5:-0.117663 6:-1.035658 7:-1.164869 8:-0.459878 
0.2878394626112885 0.2832591458354378 0.09485073062987423 0.8662684933139579 0.0 1:0.430418 2:0.289549 3:1.15E-4 4:0.841599 5:-2.220536 6:0.999317 7:2.383 8:-2.346994 
0.0 0.0 0.7330401052584269 0.0 0.0 1:-0.562993 2:0.636363 3:-0.399517 4:-1.248111 5:-1.821577 6:0.446175 7:-0.211184 8:-0.161778 
0.021517291732292398 0.7277391746145503 0.4382719051453062 0.1545549982909711 0.11231569244704882 1:1.728549 2:-0.478073 3:1.565329 4:-0.158817 5:-0.713165 6:0.827335 7:2.638374 8:-0.080384 
0.0 0.0 1.0 0.0 0.0 1:1.761799 2:-0.177897 3:0.893886 4:-0.033951 5:0.508273 6:0.137254 7:0.197517 8:0.026626 
0.0 0.0 0.0 0.0 0.7651724744162619 1:0.094123 2:-0.26754 3:1.244517 4:1.402958 5:-2.075318 6:-1.684575 7:-0.166779 8:0.126282 
0.061276580209395574 0.4926460931193976 0.26603413498831746 0.0 0.058791990746669555 1:0.406993 2:0.173506 3:2.037702 4:1.878252 5:-3.271379 6:-0.583328 7:-3.354764 8:-0.568871 
0.985127969150338 0.0 0.0 0.16021848049996212 0.0 1:1.617059 2:-0.631763 3:-0.105968 4:-0.998377 5:0.493131 6:1.095974 7:-1.86763 8:-0.101909 
0.49888717371355895 0.41280783124964954 0.8311629108787285 1.0 0.5494611221730077 1:-0.244905 2:-0.037491 3:1.231659 4:0.758389 5:-2.249938 6:-0.144902 7:0.225081 8:-2.729529 
0.0 0.25079798823604044 0.48448845742876856 0.0 0.014404580394625294 1:0.615025 2:0.702858 3:0.689679 4:0.300089 5:0.367987 6:-0.037539 7:-2.937068 8:-0.550183 
0.0 0.0 0.42490768914631455 0.0 0.0 1:0.291582 2:2.524358 3:0.805486 4:-1.000965 5:0.581897 6:-0.106498 7:0.481007 8:-0.924836 
0.0 0.561686829968256 0.18664987162831223 0.3060761095539919 0.0 1:-0.518609 2:0.894942 3:-0.793534 4:-1.243801 5:-1.106374 6:-0.367808 7:-1.832338 8:-0.277531 
1.0 0.0 0.0 0.0 0.0 1:1.824768 2:-0.058552 3:0.832509 4:-0.193085 5:0.645991 6:-0.331875 7:-0.10998 8:-0.055371 
-1.0 0.0 0.0 0.0 0.0 1:0.488287 2:-0.021348 3:-1.329358 4:-0.972906 5:-0.017548 6:1.560258 7:-0.612612 8:1.105651 
-0.0 0.0 1.0 1.0 0.0 1:-0.047107 2:-0.085142 3:0.039164 4:-0.012507 5:-0.188958 6:0.110336 7:0.058628 8:-0.037402 
-0.760086081028784 0.0 0.0 0.0 0.0 1:1.136828 2:0.783352 3:-0.450076 4:-1.05723 5:-0.165746 6:-1.366771 7:-1.498344 8:0.559665 
-0.0 0.0 0.0 0.7066865200348579 0.0 1:0.885406 2:0.161172 3:0.316642 4:0.330631 5:-0.029457 6:-1.517068 7:-0.391191 8:-2.831718 
-0.9553783981784889 0.0 1.0 1.0 0.0 1:-0.035865 2:-0.255592 3:-0.210511 4:-0.724365 5:-0.658201 6:-0.03814 7:-0.304946 8:-0.100969 
-1.0 0.0 0.0 0.0 0.0 1:1.136828 2:0.783352 3:-0.450076 4:-1.05723 5:-0.165746 6:-1.366771 7:-1.498344 8:0.559665 
-1.0 0.0 0.0 0.0 0.0 1:1.845103 2:0.131258 3:0.709199 4:0.124994 5:1.047493 6:-0.504146 7:-0.620901 8:-0.102067 
-1.0 0.0 0.0 0.0 0.0 1:1.79805 2:0.137881 3:0.562853 4:0.18731 5:0.864414 6:-0.692714 7:-0.412803 8:-0.095459 
-0.0 0.0 0.0 0.4718493888043231 0.0 1:0.321451 2:0.466814 3:0.744721 4:-0.633112 5:-0.87267 6:-3.518717 7:1.569215 8:-0.486256 
-0.0 0.0 0.0 1.0 0.0 1:0.321451 2:0.466814 3:0.744721 4:-0.633112 5:-0.87267 6:-3.518717 7:1.569215 8:-0.486256 
-0.0 0.0 1.0 1.0 0.0 1:-0.047107 2:-0.085142 3:0.039164 4:-0.012507 5:-0.188958 6:0.110336 7:0.058628 8:-0.037402 
-0.0 0.0 1.0 1.0 0.0 1:-0.047107 2:-0.085142 3:0.039164 4:-0.012507 5:-0.188958 6:0.110336 7:0.058628 8:-0.037402 
-0.7937219935189437 0.0 0.0 0.0 0.0 1:-0.44724 2:1.429396 3:-0.255836 4:0.7196 5:0.134753 6:-0.01244 7:-1.113329 8:0.332237 
-0.406263921210866 0.0 1.0 0.0 0.0 1:-0.036727 2:-0.387391 3:-0.385943 4:-1.224184 5:-0.959809 6:-0.158526 7:-0.50087 8:-0.241621 
-1.0 0.0 0.0 0.0 0.0 1:1.845103 2:0.131258 3:0.709199 4:0.124994 5:1.047493 6:-0.504146 7:-0.620901 8:-0.102067 
-0.0 0.0 1.0 1.0 0.0 1:-0.035865 2:-0.255592 3:-0.210511 4:-0.724365 5:-0.658201 6:-0.03814 7:-0.304946 8:-0.100969 
-0.0 0.0 0.0 0.0 0.10364232581974238 1:0.420745 2:-0.199786 3:-1.499095 4:-0.798865 5:0.147707 6:2.482673 7:-1.120827 8:0.961477 
-0.0 0.0 1.0 1.0 0.0 1:-0.047107 2:-0.085142 3:0.039164 4:-0.012507 5:-0.188958 6:0.110336 7:0.058628 8:-0.037402 
-0.0 0.0 1.0 1.0 0.0 1:-0.047107 2:-0.085142 3:0.039164 4:-0.012507 5:-0.188958 6:0.110336 7:0.058628 8:-0.037402 
-1.0 0.0 0.0 0.98046006026667 0.0 1:-0.442501 2:1.4261 3:-0.206828 4:0.701071 5:0.178325 6:-0.003389 7:-1.161936 8:0.373311 
-1.0 0.0 0.9768061990507864 1.0 0.0 1:-0.442501 2:1.4261 3:-0.206828 4:0.701071 5:0.178325 6:-0.003389 7:-1.161936 8:0.373311 
-1.0 0.0 0.0 0.0 0.0 1:1.136828 2:0.783352 3:-0.450076 4:-1.05723 5:-0.165746 6:-1.366771 7:-1.498344 8:0.559665 
-0.0 0.0 1.0 1.0 0.0 1:-0.03468 2:-0.074368 3:0.030709 4:-0.037113 5:-0.243489 6:0.127392 7:-0.035549 8:0.092427 
-0.03127440437823804 0.0 0.0 0.0 0.0 1:1.489776 2:-0.354968 3:0.092514 4:0.674751 5:1.593377 6:2.509861 7:-1.880386 8:0.420512 
-1.0 0.0 0.0 0.0 0.0 1:1.791149 2:0.093141 3:0.653408 4:0.154321 5:1.08955 6:-0.218478 7:-0.69124 8:0.041163 
-1.0 0.0 1.0 1.0 0.0 1:-0.442501 2:1.4261 3:-0.206828 4:0.701071 5:0.178325 6:-0.003389 7:-1.161936 8:0.373311 
-0.0 0.0 1.0 1.0 0.0 1:-0.03468 2:-0.074368 3:0.030709 4:-0.037113 5:-0.243489 6:0.127392 7:-0.035549 8:0.092427 
-1.0 0.0 0.0 0.0 0.0 1:0.488287 2:-0.021348 3:-1.329358 4:-0.972906 5:-0.017548 6:1.560258 7:-0.612612 8:1.105651 
-0.0 0.0 1.0 1.0 0.0 1:-0.047107 2:-0.085142 3:0.039164 4:-0.012507 5:-0.188958 6:0.110336 7:0.058628 8:-0.037402 
-0.3884170433787776 0.0 0.0 0.0 0.0 1:1.629363 2:-0.175897 3:0.081268 4:0.614463 5:1.169498 6:1.199522 7:-1.198367 8:0.109305 
-1.0 0.0 0.0 0.0 0.0 1:1.629363 2:-0.175897 3:0.081268 4:0.614463 5:1.169498 6:1.199522 7:-1.198367 8:0.109305 
-1.0 0.0 0.0 0.0 0.0 1:1.845103 2:0.131258 3:0.709199 4:0.124994 5:1.047493 6:-0.504146 7:-0.620901 8:-0.102067 
-1.0 0.0 0.0 0.0 0.0 1:-0.44724 2:1.429396 3:-0.255836 4:0.7196 5:0.134753 6:-0.01244 7:-1.113329 8:0.332237 
-0.02669366681812113 0.0 0.0 0.0 0.0 1:0.534464 2:0.064121 3:-1.219235 4:-0.988004 5:-0.06531 6:1.121675 7:-0.399299 8:1.067126 
-1.0 0.0 0.0 0.0 0.0 1:-0.447697 2:1.45292 3:-0.223836 4:0.711036 5:0.206039 6:0.036015 7:-1.102646 8:0.528548 
-0.9737584262473573 0.0 0.0 0.0 0.0 1:-0.44724 2:1.429396 3:-0.255836 4:0.7196 5:0.134753 6:-0.01244 7:-1.113329 8:0.332237 
-0.0 0.0 0.38271902471450814 0.43572802046074693 0.0 1:0.782614 2:0.768466 3:-0.035473 4:0.530484 5:0.558896 6:-0.763596 7:0.960375 8:0.569461 
-1.0 0.0 0.0 0.0 0.0 1:1.791149 2:0.093141 3:0.653408 4:0.154321 5:1.08955 6:-0.218478 7:-0.69124 8:0.041163 
-1.0 0.0 0.0 0.0 0.0 1:1.629363 2:-0.175897 3:0.081268 4:0.614463 5:1.169498 6:1.199522 7:-1.198367 8:0.109305 
-0.0 0.0 0.0 0.4810012275953526 0.0 1:0.401451 2:-0.169683 3:-1.466811 4:-0.765243 5:0.163367 6:2.443166 7:-1.025058 8:1.08021 
-0.0 0.0 0.3809308992410386 0.9922367925131276 0.0 1:0.401451 2:-0.169683 3:-1.466811 4:-0.765243 5:0.163367 6:2.443166 7:-1.025058 8:1.08021 
-0.0 0.0 0.0 1.0 0.0 1:0.885406 2:0.161172 3:0.316642 4:0.330631 5:-0.029457 6:-1.517068 7:-0.391191 8:-2.831718 
-0.0 0.0 1.0 1.0 0.0 1:-0.047107 2:-0.085142 3:0.039164 4:-0.012507 5:-0.188958 6:0.110336 7:0.058628 8:-0.037402 
-0.0 0.0 1.0 1.0 0.0 1:-0.03468 2:-0.074368 3:0.030709 4:-0.037113 5:-0.243489 6:0.127392 7:-0.035549 8:0.092427 
-0.8145465928689857 0.0 0.0 1.0 0.0 1:0.321451 2:0.466814 3:0.744721 4:-0.633112 5:-0.87267 6:-3.518717 7:1.569215 8:-0.486256 
-1.0 0.0 0.0 0.0 0.0 1:1.79805 2:0.137881 3:0.562853 4:0.18731 5:0.864414 6:-0.692714 7:-0.412803 8:-0.095459 
-1.0 0.0 0.0 0.0 0.0 1:1.136828 2:0.783352 3:-0.450076 4:-1.05723 5:-0.165746 6:-1.366771 7:-1.498344 8:0.559665 
-1.0 0.0 0.0 0.0 0.0 1:-0.447697 2:1.45292 3:-0.223836 4:0.711036 5:0.206039 6:0.036015 7:-1.102646 8:0.528548 
-0.005292911046209495 0.1933877426833665 0.0 0.0 0.0 1:-0.331943 2:0.821531 3:-1.96008 4:0.823908 5:-0.619461 6:0.969348 7:3.400402 8:3.280112 
-0.0 0.0 0.3839747241886462 0.0 0.0 1:0.589068 2:0.617017 3:-0.434233 4:0.861256 5:0.990243 6:1.095137 7:0.489444 8:1.400808 
-0.0 0.0 1.0 1.0 0.0 1:-0.035865 2:-0.255592 3:-0.210511 4:-0.724365 5:-0.658201 6:-0.03814 7:-0.304946 8:-0.100969 
-0.0 0.0 1.0 1.0 0.0 1:-0.047107 2:-0.085142 3:0.039164 4:-0.012507 5:-0.188958 6:0.110336 7:0.058628 8:-0.037402 
-1.0 0.0 0.0 0.1044152361929095 0.0 1:1.791149 2:0.093141 3:0.653408 4:0.154321 5:1.08955 6:-0.218478 7:-0.69124 8:0.041163 
-1.0 0.20649429164193372 0.9871730862571771 0.9388588191606847 0.0 1:-0.442501 2:1.4261 3:-0.206828 4:0.701071 5:0.178325 6:-0.003389 7:-1.161936 8:0.373311 
-0.5907095880537915 0.0 0.0 0.0 0.0 1:1.051735 2:0.154473 3:-0.994238 4:0.498375 5:-0.32553 6:0.239943 7:1.381036 8:1.099079 
-0.5129818827999264 0.23262126485158938 0.0 0.0 0.0 1:1.060419 2:-1.390501 3:-0.89977 4:-0.093323 5:-0.404585 6:-0.920526 7:-2.979527 8:0.781571 
-0.0 0.0 0.0 0.22623779175020847 0.0 1:1.016232 2:-1.427293 3:-0.334664 4:0.54013 5:-0.655159 6:-0.107894 7:-1.43375 8:0.938344 
-1.0 0.0 1.0 0.660588469599997 0.0 1:-0.036727 2:-0.387391 3:-0.385943 4:-1.224184 5:-0.959809 6:-0.158526 7:-0.50087 8:-0.241621 
-1.0 0.31089201585001836 0.0 0.0 0.0 1:0.911386 2:0.027071 3:0.401679 4:0.280802 5:-0.168029 6:-1.714086 7:-0.687637 8:-3.607901 
-0.9634009708038006 0.0 0.0 0.0 0.0 1:1.629363 2:-0.175897 3:0.081268 4:0.614463 5:1.169498 6:1.199522 7:-1.198367 8:0.109305 
-1.0 0.0 1.0 0.9198997247021575 0.0 1:-0.036727 2:-0.387391 3:-0.385943 4:-1.224184 5:-0.959809 6:-0.158526 7:-0.50087 8:-0.241621 
-1.0 0.3953875456647233 0.48627443309922597 1.0 0.4649010156243959 1:0.321451 2:0.466814 3:0.744721 4:-0.633112 5:-0.87267 6:-3.518717 7:1.569215 8:-0.486256 
-0.9089226299549205 0.0 1.0 1.0 0.0 1:-0.035327 2:-0.173218 3:-0.100865 4:-0.411978 5:-0.469696 6:0.037102 7:-0.182493 8:-0.013062 
-0.0 0.0 0.0 0.15669534173351174 0.0 1:0.473894 2:0.444531 3:-0.654719 4:1.055195 5:1.203903 6:2.229216 7:0.017386 8:1.541074 
-0.24886975606174133 0.0 0.0 0.0 0.0 1:1.676897 2:0.247413 3:-0.787316 4:0.686742 5:-0.376965 6:-1.059563 7:0.995387 8:-1.25957 
-0.0 0.0 0.06086035306498888 0.0 0.0 1:1.472607 2:-0.11484 3:-1.202007 4:1.068758 5:0.167656 6:1.492468 7:-0.106821 8:-1.053767 
-1.0 0.0 0.0 0.0 0.0 1:-0.447697 2:1.45292 3:-0.223836 4:0.711036 5:0.206039 6:0.036015 7:-1.102646 8:0.528548 
-0.0 0.49974762255882643 0.0 0.0 0.0 1:-0.479881 2:1.223445 3:-1.848711 4:1.087831 5:-0.951676 6:0.255204 7:1.689996 8:0.893585 
-0.8690145077918658 0.980344910141102 0.0 0.10421982497503947 0.18564574146978077 1:1.060419 2:-1.390501 3:-0.89977 4:-0.093323 5:-0.404585 6:-0.920526 7:-2.979527 8:0.781571 
-0.22741692442925376 0.0 0.0 0.0 0.0 1:0.534464 2:0.064121 3:-1.219235 4:-0.988004 5:-0.06531 6:1.121675 7:-0.399299 8:1.067126 
-0.0 0.0 0.0 1.0 0.0 1:0.473894 2:0.444531 3:-0.654719 4:1.055195 5:1.203903 6:2.229216 7:0.017386 8:1.541074 
-0.0 0.011594051298231482 0.0 0.0 0.0 1:-0.458296 2:1.173253 3:-1.818571 4:1.040432 5:-0.874146 6:0.347208 7:1.848332 8:1.210595 
-1.0 0.8907255690514828 0.0 0.0 0.0 1:1.845103 2:0.131258 3:0.709199 4:0.124994 5:1.047493 6:-0.504146 7:-0.620901 8:-0.102067 
-0.0 0.0 0.28514901346095967 1.0 0.0 1:1.016232 2:-1.427293 3:-0.334664 4:0.54013 5:-0.655159 6:-0.107894 7:-1.43375 8:0.938344 
-0.0 0.0 1.0 1.0 0.0 1:-0.03468 2:-0.074368 3:0.030709 4:-0.037113 5:-0.243489 6:0.127392 7:-0.035549 8:0.092427 
-1.0 0.0 0.0 0.0 0.0 1:1.79805 2:0.137881 3:0.562853 4:0.18731 5:0.864414 6:-0.692714 7:-0.412803 8:-0.095459 
-0.0 0.0 0.0 0.6164931794012479 0.0 1:0.760215 2:0.628623 3:-0.432438 4:-0.366815 5:0.104238 6:-0.831706 7:0.830173 8:0.926685 
-0.052552478033351405 0.0 0.0 0.0 0.0 1:-0.466719 2:1.196701 3:-1.809137 4:1.054867 5:-0.891125 6:0.305732 7:1.74486 8:1.072627 
-0.0 0.0 0.0 1.0 0.0 1:0.885406 2:0.161172 3:0.316642 4:0.330631 5:-0.029457 6:-1.517068 7:-0.391191 8:-2.831718 
-0.0 0.0 1.0 0.0 0.0 1:0.589068 2:0.617017 3:-0.434233 4:0.861256 5:0.990243 6:1.095137 7:0.489444 8:1.400808 
-1.0 0.9250671413809174 0.09956384718635988 0.0 0.0 1:0.911386 2:0.027071 3:0.401679 4:0.280802 5:-0.168029 6:-1.714086 7:-0.687637 8:-3.607901 
-0.0 0.028517518472628855 0.0 0.0 0.0 1:-0.416178 2:1.056012 3:-1.865741 4:0.968257 5:-0.789251 6:0.554588 7:2.365688 8:1.900434 
-0.26092940160291717 0.0 0.0 0.0 0.0 1:-0.593072 2:1.548423 3:-1.667628 4:1.271391 5:-1.145811 6:-0.316409 7:0.19279 8:-0.99689 
-1.0 0.0 0.0 0.0 0.0 1:1.76476 2:0.136756 3:0.283394 4:0.283163 5:0.719609 6:-0.404297 7:-0.255182 8:-0.301459 
-0.0 0.0 1.0 1.0 0.0 1:0.782614 2:0.768466 3:-0.035473 4:0.530484 5:0.558896 6:-0.763596 7:0.960375 8:0.569461 
-0.0 0.0 0.0 0.5048828115604502 0.0 1:0.566033 2:0.58252 3:-0.47833 4:0.900043 5:1.032975 6:1.321953 7:0.395033 8:1.428861 
-1.0 0.0 1.0 1.0 0.0 1:-0.035327 2:-0.173218 3:-0.100865 4:-0.411978 5:-0.469696 6:0.037102 7:-0.182493 8:-0.013062 
-1.0 0.0 0.0 0.0 0.0 1:-0.593072 2:1.548423 3:-1.667628 4:1.271391 5:-1.145811 6:-0.316409 7:0.19279 8:-0.99689 
-0.0 0.08208841498943262 0.0 0.0 0.0 1:0.74167 2:0.358121 3:-0.844288 4:-1.399572 5:-0.487599 6:-0.934716 7:0.425916 8:0.797064 
-0.0 0.7541721854353366 0.0 0.0 0.12731938151604413 1:-0.603006 2:1.578539 3:-1.733643 4:1.299886 5:-1.161668 6:-0.286057 7:0.300686 8:-0.882728 
-0.0 0.0 1.0 1.0 0.0 1:-0.047107 2:-0.085142 3:0.039164 4:-0.012507 5:-0.188958 6:0.110336 7:0.058628 8:-0.037402 
-0.0 0.20403282336635675 1.0 1.0 0.0 1:-0.047107 2:-0.085142 3:0.039164 4:-0.012507 5:-0.188958 6:0.110336 7:0.058628 8:-0.037402 
-0.973193014265876 0.03819788795727379 0.0 0.0 0.0 1:1.676897 2:0.247413 3:-0.787316 4:0.686742 5:-0.376965 6:-1.059563 7:0.995387 8:-1.25957 
-0.9337124173838106 0.9793916944621378 1.0 1.0 0.9980551067376876 1:0.321451 2:0.466814 3:0.744721 4:-0.633112 5:-0.87267 6:-3.518717 7:1.569215 8:-0.486256 
-0.0 0.32557378303814255 0.0 0.0 0.0 1:0.401343 2:-0.186158 3:-1.48874 4:-0.82772 5:0.125666 6:2.428117 7:-1.049548 8:1.062628 
-1.0 0.0 0.8418657025997115 1.0 0.0 1:1.791149 2:0.093141 3:0.653408 4:0.154321 5:1.08955 6:-0.218478 7:-0.69124 8:0.041163 
-1.0 0.0 0.0 0.0 0.0 1:0.488287 2:-0.021348 3:-1.329358 4:-0.972906 5:-0.017548 6:1.560258 7:-0.612612 8:1.105651 
-0.0 0.0 0.9792907522973014 0.9612795859324674 0.34397291688910764 1:0.782614 2:0.768466 3:-0.035473 4:0.530484 5:0.558896 6:-0.763596 7:0.960375 8:0.569461 
-0.0 0.44505045912903535 0.0 0.33867276463969354 0.12091241897473996 1:1.324594 2:-0.29059 3:-1.421816 4:1.269423 5:0.328953 6:2.465133 7:-0.5166 8:-0.783668 
-1.0 0.0 0.0 0.09301990964536283 0.0 1:1.79805 2:0.137881 3:0.562853 4:0.18731 5:0.864414 6:-0.692714 7:-0.412803 8:-0.095459 
-1.0 0.0 1.0 1.0 0.0 1:-0.035327 2:-0.173218 3:-0.100865 4:-0.411978 5:-0.469696 6:0.037102 7:-0.182493 8:-0.013062 
-0.0 1.0 1.0 1.0 0.0 1:-0.047107 2:-0.085142 3:0.039164 4:-0.012507 5:-0.188958 6:0.110336 7:0.058628 8:-0.037402 
-0.9879964545067299 0.964969890434863 0.8437352343183082 0.8504458092147732 0.3044817284557361 1:-0.331943 2:0.821531 3:-1.96008 4:0.823908 5:-0.619461 6:0.969348 7:3.400402 8:3.280112 
-1.0 0.0 1.0 1.0 0.0 1:-0.035327 2:-0.173218 3:-0.100865 4:-0.411978 5:-0.469696 6:0.037102 7:-0.182493 8:-0.013062 
-0.43601795547697725 0.3096084090518671 0.0 0.0 0.0 1:0.801233 2:-1.828748 3:-1.498576 4:0.422503 5:-3.370703 6:0.503433 7:1.814764 8:-0.517434 
-0.0 0.0 0.07005459625527988 0.0 0.0 1:-0.488305 2:1.246893 3:-1.839277 4:1.102266 5:-0.968655 6:0.213728 7:1.586524 8:0.755617 
-1.0 0.0 0.0 0.0 0.0 1:0.488287 2:-0.021348 3:-1.329358 4:-0.972906 5:-0.017548 6:1.560258 7:-0.612612 8:1.105651 
-1.0 0.0 0.0 0.0 0.0 1:-0.447697 2:1.45292 3:-0.223836 4:0.711036 5:0.206039 6:0.036015 7:-1.102646 8:0.528548 
-1.0 0.0 0.0 0.0 0.09628622120188275 1:-0.593072 2:1.548423 3:-1.667628 4:1.271391 5:-1.145811 6:-0.316409 7:0.19279 8:-0.99689 
-0.0 0.0 0.45831377352742636 1.0 0.0 1:0.885406 2:0.161172 3:0.316642 4:0.330631 5:-0.029457 6:-1.517068 7:-0.391191 8:-2.831718 
-0.0034827589431201383 0.0 0.0 0.0 0.0 1:0.534464 2:0.064121 3:-1.219235 4:-0.988004 5:-0.06531 6:1.121675 7:-0.399299 8:1.067126 
-0.9997893538482915 0.5201444359807842 0.39222225573242614 0.6061284871514929 0.15331037477162565 1:1.489776 2:-0.354968 3:0.092514 4:0.674751 5:1.593377 6:2.509861 7:-1.880386 8:0.420512 
-0.0 1.0 1.0 1.0 0.0 1:-0.047107 2:-0.085142 3:0.039164 4:-0.012507 5:-0.188958 6:0.110336 7:0.058628 8:-0.037402 
-1.0 0.7596068543004785 1.0 0.003418311152267589 0.0 1:-0.036727 2:-0.387391 3:-0.385943 4:-1.224184 5:-0.959809 6:-0.158526 7:-0.50087 8:-0.241621 
-0.0 1.0 1.0 1.0 0.26100212114118515 1:-0.047107 2:-0.085142 3:0.039164 4:-0.012507 5:-0.188958 6:0.110336 7:0.058628 8:-0.037402 
-0.04802763855773251 0.8487488055973399 0.0 0.0 0.08767388278993363 1:0.462376 2:0.427282 3:-0.676768 4:1.074589 5:1.225269 6:2.342624 7:-0.02982 8:1.555101 
-0.0 0.0 0.9967249538895534 0.0 0.0 1:0.589068 2:0.617017 3:-0.434233 4:0.861256 5:0.990243 6:1.095137 7:0.489444 8:1.400808 
-0.0 0.0 0.0 1.0 0.0 1:0.760215 2:0.628623 3:-0.432438 4:-0.366815 5:0.104238 6:-0.831706 7:0.830173 8:0.926685 
-0.47534663899426494 0.0 0.23087535249756547 0.0 0.0 1:-0.483566 2:1.243597 3:-1.790269 4:1.083736 5:-0.925083 6:0.22278 7:1.537918 8:0.796691 
-0.0 0.9920155418486528 0.0 0.0 0.0 1:0.401343 2:-0.186158 3:-1.48874 4:-0.82772 5:0.125666 6:2.428117 7:-1.049548 8:1.062628 
-0.9841919264514449 0.9933283481218728 0.8201063342590884 0.2953669388133623 0.2997941584790686 1:0.801233 2:-1.828748 3:-1.498576 4:0.422503 5:-3.370703 6:0.503433 7:1.814764 8:-0.517434 
-0.0 0.0 0.0 0.10257947289754743 0.0 1:1.286037 2:-0.23771 3:-0.651531 4:0.817484 5:0.785346 6:2.151112 7:-0.722213 8:0.384252 
-0.0 0.355760373461112 0.0 0.0 0.0 1:0.913534 2:-1.28833 3:-2.419011 4:0.481092 5:-1.755314 6:-1.201122 7:-1.472723 8:-0.491738 
-0.0 0.0 1.0 1.0 0.0 1:-0.03468 2:-0.074368 3:0.030709 4:-0.037113 5:-0.243489 6:0.127392 7:-0.035549 8:0.092427 
-0.19742141085409198 0.0 0.0 0.0 0.0 1:1.174933 2:-0.133789 3:-1.296899 4:0.954748 5:0.139539 6:1.967583 7:0.181116 8:0.08398 
-0.13514318831772018 0.0 0.48009901892080237 0.48063359798848315 0.0 1:1.349548 2:-0.256448 3:-1.390091 4:1.214447 5:0.337909 6:2.458584 7:-0.460394 8:-0.826377 
-1.0 0.0 0.0 0.0 0.0 1:-0.466719 2:1.196701 3:-1.809137 4:1.054867 5:-0.891125 6:0.305732 7:1.74486 8:1.072627 
-1.0 0.0 0.0 0.0 0.0 1:1.76476 2:0.136756 3:0.283394 4:0.283163 5:0.719609 6:-0.404297 7:-0.255182 8:-0.301459 
-0.1275946471669723 0.0 0.9660110564791535 1.0 0.0 1:1.016232 2:-1.427293 3:-0.334664 4:0.54013 5:-0.655159 6:-0.107894 7:-1.43375 8:0.938344 
-0.04143218617924313 0.0 0.0 0.0 0.0 1:0.88853 2:-1.540066 3:-2.027654 4:0.438341 5:-2.407285 6:-0.435235 7:-0.207822 8:-0.590023 
-0.6607793851499608 0.0 0.0 0.0 0.0 1:0.799271 2:0.411761 3:-0.791715 4:-1.412298 5:-0.351967 6:-0.671243 7:0.468408 8:0.87821 
-1.0 0.0 0.0 0.0 0.0 1:-0.447697 2:1.45292 3:-0.223836 4:0.711036 5:0.206039 6:0.036015 7:-1.102646 8:0.528548 
-0.9990304546558535 0.0 0.0 0.2417980814627729 0.0 1:1.136828 2:0.783352 3:-0.450076 4:-1.05723 5:-0.165746 6:-1.366771 7:-1.498344 8:0.559665 
-0.0 0.28696344154805936 0.0 0.0 0.11021655220667433 1:0.935349 2:-1.321616 3:-2.39032 4:0.431627 5:-1.742478 6:-1.279269 7:-1.554819 8:-0.318635 
-0.0 0.0929845544275739 1.0 1.0 0.8073196863171836 1:0.885406 2:0.161172 3:0.316642 4:0.330631 5:-0.029457 6:-1.517068 7:-0.391191 8:-2.831718 
-0.7403612138874741 0.0 0.0 0.0 0.0 1:1.732249 2:0.10885 3:0.141281 4:0.35901 5:0.675197 6:-0.195584 7:-0.25238 8:-0.355555 
-0.0 0.0 0.0 1.0 0.0 1:0.760215 2:0.628623 3:-0.432438 4:-0.366815 5:0.104238 6:-0.831706 7:0.830173 8:0.926685 
-0.0 0.0 0.33051001283162257 0.0 0.0 1:-0.589387 2:1.52827 3:-1.72607 4:1.275485 5:-1.172403 6:-0.283984 7:0.344868 8:-0.899997 
-0.0 0.0 0.0 0.8671446338948797 0.0 1:0.760215 2:0.628623 3:-0.432438 4:-0.366815 5:0.104238 6:-0.831706 7:0.830173 8:0.926685 
-0.0 0.5470408197858581 0.0 0.0 0.0 1:0.745117 2:0.885318 3:-0.142559 4:0.599707 5:0.718834 6:-0.453169 7:1.209615 8:1.359671 
-0.0 -0.0 0.0 0.4116284767062409 0.0 1:0.331142 2:-0.400165 3:-0.987898 4:-0.349847 5:2.063275 6:-0.522747 7:-0.276683 8:3.495223 
-0.0 -0.0 1.0 0.0 0.0 1:-1.980944 2:-0.326185 3:-0.665397 4:-0.185643 5:-1.235695 6:0.802407 7:0.845489 8:-0.285799 
-0.0 -0.0 0.5162506664813974 0.0 0.0 1:-1.161658 2:-1.29113 3:-0.127466 4:-1.775674 5:-1.32306 6:0.555698 7:2.579037 8:-1.366655 
-0.0 -0.2929138751488658 1.0 0.0 0.0 1:-1.95454 2:-0.20862 3:-0.867123 4:-0.190705 5:-0.869604 6:0.416154 7:0.086648 8:-0.274691 
-0.0 -0.0 1.0 0.0 0.0 1:-1.980944 2:-0.326185 3:-0.665397 4:-0.185643 5:-1.235695 6:0.802407 7:0.845489 8:-0.285799 
-0.0 -0.0 1.0 0.0 0.0 1:0.34995 2:-1.519287 3:0.479226 4:-0.211674 5:-0.052354 6:0.253599 7:1.689328 8:-0.48463 
-0.0 -0.0 1.0 0.0 0.0 1:0.34995 2:-1.519287 3:0.479226 4:-0.211674 5:-0.052354 6:0.253599 7:1.689328 8:-0.48463 
-0.0 -0.0 1.0 0.28219526672007444 0.0 1:0.34995 2:-1.519287 3:0.479226 4:-0.211674 5:-0.052354 6:0.253599 7:1.689328 8:-0.48463 
-0.0 -0.0 0.6244478956721758 0.0 0.0 1:-1.965425 2:-0.193105 3:-0.692953 4:0.061374 5:-0.875696 6:0.641884 7:0.509828 8:-0.209126 
-0.0 -0.0 1.0 0.47775861878905485 0.0 1:0.360513 2:-1.584227 3:0.239269 4:-0.651185 5:-0.159365 6:-0.017277 7:1.192676 8:-0.60294 
-0.0 -0.0 0.4896692378172945 0.0 0.0 1:-1.774466 2:0.54449 3:0.223091 4:1.43724 5:-0.147325 6:-0.821516 7:1.817962 8:0.042733 
-0.0 -0.0 1.0 0.0 0.0 1:-1.161658 2:-1.29113 3:-0.127466 4:-1.775674 5:-1.32306 6:0.555698 7:2.579037 8:-1.366655 
-0.0 -0.0 1.0 0.0 0.0 1:-1.980944 2:-0.326185 3:-0.665397 4:-0.185643 5:-1.235695 6:0.802407 7:0.845489 8:-0.285799 
-0.0 -0.0 1.0 0.0 0.0 1:-1.965425 2:-0.193105 3:-0.692953 4:0.061374 5:-0.875696 6:0.641884 7:0.509828 8:-0.209126 
-0.0 -0.0 1.0 0.0 0.0 1:-1.965425 2:-0.193105 3:-0.692953 4:0.061374 5:-0.875696 6:0.641884 7:0.509828 8:-0.209126 
-0.0 -0.0 0.0 1.0 0.0 1:0.331142 2:-0.400165 3:-0.987898 4:-0.349847 5:2.063275 6:-0.522747 7:-0.276683 8:3.495223 
-0.0 -0.0 0.6859081770182983 0.0 0.0 1:0.305551 2:-0.999356 3:0.98945 4:1.248717 5:0.727493 6:0.280627 7:1.498887 8:-0.924058 
-0.0 -0.43927352086982446 0.0 0.4870128495533855 0.0 1:-0.017714 2:-0.014234 3:-1.21875 4:-1.159967 5:1.881663 6:1.187006 7:0.089703 8:1.286542 
-0.0 -0.0 1.0 0.2542133545816207 0.0 1:0.305551 2:-0.999356 3:0.98945 4:1.248717 5:0.727493 6:0.280627 7:1.498887 8:-0.924058 
-0.0 -0.0 0.5014504793679352 0.0 0.0 1:0.37657 2:-1.368772 3:0.321358 4:-0.091781 5:0.389139 6:-0.102558 7:0.979467 8:-0.43836 
-0.4460434113464108 -0.23074383432936513 0.0 0.0 0.0 1:0.46602 2:-1.13044 3:-0.589563 4:-0.733912 5:1.267297 6:-1.577339 7:-1.867181 8:-0.576093 
-0.0 -0.0 1.0 0.0 0.0 1:-1.980944 2:-0.326185 3:-0.665397 4:-0.185643 5:-1.235695 6:0.802407 7:0.845489 8:-0.285799 
-0.8676205953195387 -0.0 1.0 0.30448209605554605 0.0 1:-1.980944 2:-0.326185 3:-0.665397 4:-0.185643 5:-1.235695 6:0.802407 7:0.845489 8:-0.285799 
-0.0 -0.0 1.0 0.0 0.0 1:0.37948 2:-1.483776 3:0.117108 4:-0.592324 5:0.139829 6:-0.278124 7:0.675137 8:-0.577425 
-0.6814128853622202 -0.9960823330982095 0.6562789372273587 0.9924388829873332 0.022897335886260556 1:-0.017714 2:-0.014234 3:-1.21875 4:-1.159967 5:1.881663 6:1.187006 7:0.089703 8:1.286542 
-0.0 -0.07803321279165867 0.0 0.0 0.0 1:0.427759 2:-0.820938 3:0.385305 4:1.148367 5:1.823043 6:-0.51892 7:0.060002 8:-0.066103 
-0.0 -0.9991097894404978 1.0 0.10412209143011339 0.0 1:-1.95454 2:-0.20862 3:-0.867123 4:-0.190705 5:-0.869604 6:0.416154 7:0.086648 8:-0.274691 
-0.26740856716206307 -0.0 0.0 0.0 0.0 1:-0.090581 2:-2.225741 3:-0.062226 4:0.367861 5:-1.288917 6:-2.967632 7:1.095489 8:0.274321 
-0.0 -0.0 0.0 0.42347695679466807 0.0 1:-1.681901 2:0.478342 3:-0.925267 4:-0.146092 5:0.77704 6:1.448686 7:-1.150529 8:-0.533982 
-0.0 -0.0 1.0 0.0 0.0 1:0.37948 2:-1.483776 3:0.117108 4:-0.592324 5:0.139829 6:-0.278124 7:0.675137 8:-0.577425 
-0.0 -0.0 1.0 0.0 0.0 1:0.37948 2:-1.483776 3:0.117108 4:-0.592324 5:0.139829 6:-0.278124 7:0.675137 8:-0.577425 
-0.0 -0.0 1.0 0.0 0.0 1:-1.161658 2:-1.29113 3:-0.127466 4:-1.775674 5:-1.32306 6:0.555698 7:2.579037 8:-1.366655 
-0.0 -0.0 1.0 0.0 0.0 1:0.37657 2:-1.368772 3:0.321358 4:-0.091781 5:0.389139 6:-0.102558 7:0.979467 8:-0.43836 
-0.0 -0.0 1.0 1.0 0.0 1:0.360513 2:-1.584227 3:0.239269 4:-0.651185 5:-0.159365 6:-0.017277 7:1.192676 8:-0.60294 
-0.8173319755605947 -0.0 1.0 1.0 0.04811069422107748 1:0.360513 2:-1.584227 3:0.239269 4:-0.651185 5:-0.159365 6:-0.017277 7:1.192676 8:-0.60294 
-0.0 -0.17772189179889403 0.0 0.0 0.0 1:0.302912 2:-0.828241 3:0.844844 4:1.287682 5:0.990348 6:-0.174876 7:0.538037 8:-1.328441 
-0.0 -0.4676155837743575 0.0 0.0 0.0 1:-0.666877 2:-0.540508 3:-1.31561 4:-0.362527 5:0.416351 6:-0.997372 7:0.767929 8:0.545954 
-0.0 -0.0968273751454831 0.015948476683517378 0.37262214203196514 0.0 1:-0.262458 2:-2.355348 3:-0.651193 4:0.481965 5:-0.106222 6:2.014233 7:0.148971 8:1.055735 
-0.0 -0.0 1.0 0.6593025055353978 0.0 1:0.34995 2:-1.519287 3:0.479226 4:-0.211674 5:-0.052354 6:0.253599 7:1.689328 8:-0.48463 
-0.17178972909518014 -0.21897487073395944 0.7949255632003502 0.7098716155326456 0.05788275394908492 1:-1.091851 2:-1.02794 3:-0.851115 4:-1.96035 5:0.332994 6:2.652753 7:0.036647 8:-1.500554 
-0.7574952030243354 -0.8884988251621574 0.2730597756600551 0.0 0.1304657684174236 1:0.46602 2:-1.13044 3:-0.589563 4:-0.733912 5:1.267297 6:-1.577339 7:-1.867181 8:-0.576093 
-0.22454691998161505 -0.0 0.6521876139990525 0.0 0.0 1:-1.816361 2:0.426017 3:0.323084 4:1.479643 5:-0.366087 6:-0.318805 7:2.26558 8:0.062853 
-0.47318342189682266 -0.3235257420590176 0.2537219700705876 0.13895731934985892 0.12431671368955108 1:-1.029626 2:-0.754202 3:-1.226577 4:0.400556 5:2.623308 6:-1.975551 7:2.865751 8:-3.5548 
-0.01623733761539258 -0.0 0.1876304821849176 0.0 0.0 1:-1.771609 2:0.262425 3:-1.366064 4:-0.489825 5:0.418947 6:0.16744 7:-2.009468 8:-0.472409 
-0.0 -0.45741488271583364 1.0 0.6332368162269189 0.0 1:0.37948 2:-1.483776 3:0.117108 4:-0.592324 5:0.139829 6:-0.278124 7:0.675137 8:-0.577425 
-0.48963016303556667 -0.8876981947709224 1.0 0.5729951287380751 0.8696534389060164 1:-1.774466 2:0.54449 3:0.223091 4:1.43724 5:-0.147325 6:-0.821516 7:1.817962 8:0.042733 
-0.9991165246050426 -0.9644697396639965 0.6757512613468211 0.33629398008857986 0.69948246847559 1:-0.090581 2:-2.225741 3:-0.062226 4:0.367861 5:-1.288917 6:-2.967632 7:1.095489 8:0.274321 
-0.0 -0.010832218751083547 0.0 0.0 0.0 1:-0.218054 2:0.084042 3:-1.150029 4:-1.504769 5:1.648152 6:2.146203 7:0.513911 8:-0.363924 
-0.6118642421648008 -0.2134158927626127 1.0 0.7087194219635049 0.15990077785404125 1:-1.161658 2:-1.29113 3:-0.127466 4:-1.775674 5:-1.32306 6:0.555698 7:2.579037 8:-1.366655 
-0.0 -0.5179891910984394 0.0 0.566168819590413 0.0 1:0.432719 2:-1.182746 3:-0.198627 4:-0.352539 5:1.022815 6:-0.990437 7:-0.744584 8:-0.484885 
-0.0 -0.0 0.0 0.20881144814541022 0.0 1:-0.280995 2:-0.067407 3:-1.006153 4:-1.393684 5:1.243393 6:2.156702 7:1.137345 8:-0.2874 
-0.5311320520118835 -0.994761388130971 0.9986329161442091 1.0 0.08043506128843769 1:-0.262458 2:-2.355348 3:-0.651193 4:0.481965 5:-0.106222 6:2.014233 7:0.148971 8:1.055735 
-0.750233536749902 -0.46016092841142997 0.2711753095859255 0.2673893652314164 0.14450557932188984 1:-1.863797 2:0.227411 3:-1.514896 4:-0.083107 5:0.460967 6:-0.878047 7:-2.466113 8:-0.201447 
-0.9039988670212712 -0.6481238805661214 0.8750678027882981 0.0 0.23240282104403973 1:0.343148 2:-0.29804 3:-1.184896 4:-0.497566 5:2.027929 6:-0.328162 7:-0.099278 8:4.428344 
-0.35751137047396825 -0.26722528886014674 0.7977707823047566 0.07193664613387274 0.0 1:-1.977605 2:0.184537 3:0.014403 4:1.751158 5:-0.066963 6:1.268905 7:1.604698 8:0.259226 
-0.0 -0.0 0.0 0.33140210077699006 0.0 1:-1.979867 2:-0.161436 3:-0.446107 4:0.439132 5:-0.858685 6:0.952891 7:1.090395 8:-0.109984 
-0.0 -0.05120097559905929 0.0 0.0 0.0 1:0.431531 2:-0.804143 3:0.356488 4:1.147643 5:1.875341 6:-0.574099 7:-0.048403 8:-0.064516 
-0.0 -0.022304966123790893 0.0 0.0 0.0 1:-1.916497 2:0.008755 3:-1.089515 4:-0.010505 5:-0.233514 6:-0.090492 7:-0.92394 8:-0.20608 
-0.633821793184644 -0.7498112479368059 0.9262624232370315 0.9971800332076377 0.0 1:-1.681901 2:0.478342 3:-0.925267 4:-0.146092 5:0.77704 6:1.448686 7:-1.150529 8:-0.533982 
-0.46492420511607385 -0.25738464334553834 0.3420324875340787 0.0 0.15814027077554793 1:-0.88274 2:-0.856373 3:0.292664 4:-0.173858 5:3.974037 6:-1.694955 7:1.358947 8:-2.281492 
-0.6142222710098335 -0.9791859431795786 0.0 0.8824647466416795 0.6836269368334122 1:0.302912 2:-0.828241 3:0.844844 4:1.287682 5:0.990348 6:-0.174876 7:0.538037 8:-1.328441 
-0.0 -0.08399338406001917 0.0 1.0 0.0 1:0.331142 2:-0.400165 3:-0.987898 4:-0.349847 5:2.063275 6:-0.522747 7:-0.276683 8:3.495223 
-0.24602552679815362 -0.10925890631751978 0.0 0.05805959127687546 0.07225596445894795 1:-0.876291 2:-0.807796 3:-1.259286 4:-2.275764 5:1.339766 6:1.964811 7:0.350332 8:-2.754767 
-0.0 -0.0 0.0 1.0 0.0 1:-1.979867 2:-0.161436 3:-0.446107 4:0.439132 5:-0.858685 6:0.952891 7:1.090395 8:-0.109984 
-0.0 -0.21325502528663015 0.0 0.0 0.0 1:-0.214282 2:0.100837 3:-1.178847 4:-1.505493 5:1.700451 6:2.091024 7:0.405505 8:-0.362338 
-0.9299290522228195 -0.5716026925473139 0.6474785782734991 0.2917199567850821 0.35882452835491685 1:-0.323669 2:-0.38622 3:-0.343127 4:-1.48452 5:0.183788 6:3.691217 7:3.549277 8:-0.408353 
-0.6677846435017621 -0.0 0.5142168375904678 0.0 0.0 1:0.35232 2:-1.15684 3:0.961664 4:1.16283 5:0.777068 6:0.584662 7:2.228121 8:-0.097838 
-0.0 -0.9987569749921472 1.0 0.0 0.0 1:0.37948 2:-1.483776 3:0.117108 4:-0.592324 5:0.139829 6:-0.278124 7:0.675137 8:-0.577425 
-0.0 -0.0 0.0 0.36272340125752517 0.0 1:0.468928 2:-0.685618 3:0.002521 4:0.952979 5:2.285225 6:-1.171034 7:-1.205935 8:-0.101393 
-0.0 -0.0 0.0 0.07758542741467078 0.0 1:-0.927203 2:-0.784188 3:-1.319843 4:-1.230186 5:1.857267 6:0.237073 7:1.362934 8:-3.135501 
-0.0 -0.0 0.0 0.5248489318935357 0.0 1:0.46699 2:-0.982166 3:-0.392202 4:-0.171615 5:1.606607 6:-1.441904 7:-1.646765 8:-0.417859 
-0.0 -0.0 0.8500478450425912 0.0 0.0 1:0.37657 2:-1.368772 3:0.321358 4:-0.091781 5:0.389139 6:-0.102558 7:0.979467 8:-0.43836 
-0.4897342654522437 -0.3937598103180639 0.30400493060112915 0.15716093860510208 0.10887114322874422 1:-1.025275 2:-1.250855 3:-1.96384 4:-1.542322 5:1.356473 6:-2.434044 7:2.060972 8:-4.011071 
-0.628956777191402 -0.4580243001674472 0.42845157272441436 0.31687505776720365 0.1388301639270051 1:-0.716131 2:-0.845841 3:-1.719336 4:-2.298232 5:2.091583 6:0.038749 7:2.292471 8:-4.653166 
-0.4273606514233779 -0.3010497774250856 0.4906793663235426 0.37600744620597387 0.06018930209637929 1:-1.860674 2:0.705183 3:-0.878954 4:1.728739 5:1.554297 6:-0.441646 7:-1.755886 8:0.308415 
-0.0 -0.1948079093446615 0.36739877997056763 0.0 0.0 1:-1.921026 2:0.436463 3:-0.417866 4:1.74031 5:0.717517 6:0.441219 7:-0.021391 8:0.283028 
-0.0 -0.0 0.06844472774410998 0.7738892037972596 0.0 1:-0.263317 2:-0.117499 3:-0.804214 4:-1.496091 5:1.020568 6:2.808352 7:1.814782 8:-0.382965 
-0.0 -0.0 0.0 0.8393046104013602 0.0 1:-0.636702 2:-0.406148 3:-1.546154 4:-0.368313 5:0.83474 6:-1.438804 7:-0.099319 8:0.558648 
-0.36828897953044476 -0.6151141324238842 0.7173378337808245 0.5203760927726439 0.0 1:-0.753633 2:-0.926794 3:-0.652797 4:-0.345894 5:-0.78652 6:0.271747 7:3.261265 8:0.509459 
-0.0 -0.0 0.0 0.5605599344695626 0.0 1:0.440155 2:-1.165631 3:-0.278192 4:-0.416462 5:1.089711 6:-1.115844 7:-0.985886 8:-0.499292 
-0.0 -0.0 0.0 0.9836429085632035 0.0 1:-0.636702 2:-0.406148 3:-1.546154 4:-0.368313 5:0.83474 6:-1.438804 7:-0.099319 8:0.558648 
-0.0 -0.0 0.0 0.0 0.09010141506647704 1:-1.236293 2:-1.301917 3:-1.663246 4:-1.247219 5:0.632958 6:-1.609193 7:0.382526 8:-2.293454 
-0.0390525022434155 -0.2406038029232756 0.0 0.0 0.0 1:-0.424587 2:-2.725951 3:-0.701637 4:0.930285 5:-0.669304 6:0.321197 7:-0.27348 8:0.681095 
-0.5524526623335911 -0.30293144445632814 0.3901804301028352 0.0 0.0 1:0.469251 2:-0.636193 3:0.068308 4:1.140412 5:2.398328 6:-1.125889 7:-1.132463 8:-0.048649 
-0.5159564618905582 -0.0 0.0 0.0 0.04998296493147896 1:-0.206738 2:0.134427 3:-1.236483 4:-1.506939 5:1.805048 6:1.980666 7:0.188693 8:-0.359164 
-0.0 -0.0 -0.032030210676202896 0.0 0.0 1:-0.84447 2:-0.446289 3:1.066392 4:0.2385 5:-0.288968 6:0.536203 7:2.762193 8:-1.092533 
-0.0 -0.0 -0.0 1.0 0.0 1:-0.03468 2:-0.074368 3:0.030709 4:-0.037113 5:-0.243489 6:0.127392 7:-0.035549 8:0.092427 
-0.0 -0.0 -0.0 1.0 0.0 1:-0.047107 2:-0.085142 3:0.039164 4:-0.012507 5:-0.188958 6:0.110336 7:0.058628 8:-0.037402 
-0.0 -0.0 -0.0 1.0 0.0 1:-0.03328 2:0.139805 3:0.315786 4:0.775094 5:0.246624 6:0.32302 7:0.282829 8:0.320986 
-0.0 -0.0 -1.0 0.0 0.0 1:-0.84447 2:-0.446289 3:1.066392 4:0.2385 5:-0.288968 6:0.536203 7:2.762193 8:-1.092533 
-0.0 -0.0 -0.0 1.0 0.0 1:-0.034034 2:0.024481 3:0.162283 4:0.337752 5:-0.017283 6:0.217682 7:0.111395 8:0.197915 
-0.0 -0.9511324944980781 -0.0 1.0 0.0 1:-0.03468 2:-0.074368 3:0.030709 4:-0.037113 5:-0.243489 6:0.127392 7:-0.035549 8:0.092427 
-0.0 -1.0 -0.0 1.0 0.0 1:-0.03468 2:-0.074368 3:0.030709 4:-0.037113 5:-0.243489 6:0.127392 7:-0.035549 8:0.092427 
-0.0 -0.0 -0.0 1.0 0.0 1:-0.047107 2:-0.085142 3:0.039164 4:-0.012507 5:-0.188958 6:0.110336 7:0.058628 8:-0.037402 
-0.0 -0.0 -0.0 1.0 0.0 1:-0.047107 2:-0.085142 3:0.039164 4:-0.012507 5:-0.188958 6:0.110336 7:0.058628 8:-0.037402 
-0.0 -0.0 -1.0 0.0 0.0 1:0.411379 2:-1.697129 3:0.360745 4:-0.848832 5:-0.400129 6:0.143202 7:1.480149 8:-0.615206 
-0.0 -0.0 -0.0 1.0 0.0 1:-0.047107 2:-0.085142 3:0.039164 4:-0.012507 5:-0.188958 6:0.110336 7:0.058628 8:-0.037402 
-0.0 -0.0 -0.0 1.0 0.0 1:-0.033388 2:0.123331 3:0.293857 4:0.712617 5:0.208923 6:0.307972 7:0.258338 8:0.303404 
-0.0 -0.0 -1.0 1.0 0.0 1:0.338322 2:-1.721376 3:0.315713 4:-0.834861 5:-0.416725 6:0.280754 7:1.457015 8:-0.60693 
-0.0 -1.0 -0.0 1.0 0.0 1:-0.03468 2:-0.074368 3:0.030709 4:-0.037113 5:-0.243489 6:0.127392 7:-0.035549 8:0.092427 
-0.0 -1.0 -0.0 1.0 0.0 1:-0.03468 2:-0.074368 3:0.030709 4:-0.037113 5:-0.243489 6:0.127392 7:-0.035549 8:0.092427 
-0.0 -1.0 -0.0 1.0 0.0 1:-0.03468 2:-0.074368 3:0.030709 4:-0.037113 5:-0.243489 6:0.127392 7:-0.035549 8:0.092427 
-0.0 -0.7754215941401862 -0.0 0.0 0.0 1:-0.6948 2:-0.80455 3:0.490512 4:-0.866875 5:-1.346794 6:-0.761058 7:-0.419393 8:-1.461585 
-0.0 -0.0 -0.0 1.0 0.0 1:-0.033927 2:0.040956 3:0.184212 4:0.400229 5:0.020418 6:0.23273 7:0.135885 8:0.215497 
-0.0 -1.0 -0.0 1.0 0.0 1:-0.03468 2:-0.074368 3:0.030709 4:-0.037113 5:-0.243489 6:0.127392 7:-0.035549 8:0.092427 
-0.0 -0.0 -0.0 1.0 0.0 1:-0.047107 2:-0.085142 3:0.039164 4:-0.012507 5:-0.188958 6:0.110336 7:0.058628 8:-0.037402 
-0.0 -0.0 -0.0 1.0 0.0 1:-1.0056 2:-0.197355 3:-0.323351 4:-0.305815 5:-0.209888 6:1.934758 7:0.804893 8:3.533097 
-0.0 -0.0 -0.0 1.0 0.0 1:-0.033711 2:0.073906 3:0.22807 4:0.525184 5:0.09582 6:0.262827 7:0.184866 8:0.25066 
-0.0 -1.0 -0.0 1.0 0.0 1:-0.03468 2:-0.074368 3:0.030709 4:-0.037113 5:-0.243489 6:0.127392 7:-0.035549 8:0.092427 
-0.0 -0.0 -0.0 1.0 0.0 1:-0.047107 2:-0.085142 3:0.039164 4:-0.012507 5:-0.188958 6:0.110336 7:0.058628 8:-0.037402 
-0.0 -0.0 -0.0 0.0 1.0 1:-0.495665 2:-6.01E-4 3:1.545139 4:0.740229 5:-0.541283 6:-2.222494 7:1.142314 8:-1.155014 
-0.0 -0.0 -0.0 1.0 0.0 1:-0.047107 2:-0.085142 3:0.039164 4:-0.012507 5:-0.188958 6:0.110336 7:0.058628 8:-0.037402 
-0.33486091601453083 -0.0 -0.0 1.0 0.0 1:-1.0056 2:-0.197355 3:-0.323351 4:-0.305815 5:-0.209888 6:1.934758 7:0.804893 8:3.533097 
-0.0 -0.0 -0.0 1.0 0.0 1:-0.034034 2:0.024481 3:0.162283 4:0.337752 5:-0.017283 6:0.217682 7:0.111395 8:0.197915 
-0.0 -0.0 -1.0 0.0 0.0 1:0.411379 2:-1.697129 3:0.360745 4:-0.848832 5:-0.400129 6:0.143202 7:1.480149 8:-0.615206 
-0.0 -0.0 -1.0 0.0 0.0 1:0.411379 2:-1.697129 3:0.360745 4:-0.848832 5:-0.400129 6:0.143202 7:1.480149 8:-0.615206 
-0.0 -0.0 -0.0 1.0 0.0 1:-0.72485 2:-0.57274 3:0.376501 4:-0.806543 5:-1.146444 6:-0.559237 7:0.102125 8:-0.233719 
-0.0 -0.0 -0.0 1.0 0.0 1:-0.033711 2:0.073906 3:0.22807 4:0.525184 5:0.09582 6:0.262827 7:0.184866 8:0.25066 
-0.0 -1.0 -0.0 1.0 0.0 1:-0.03468 2:-0.074368 3:0.030709 4:-0.037113 5:-0.243489 6:0.127392 7:-0.035549 8:0.092427 
-0.0 -1.0 -0.0 1.0 0.0 1:-0.03468 2:-0.074368 3:0.030709 4:-0.037113 5:-0.243489 6:0.127392 7:-0.035549 8:0.092427 
-0.0 -0.0 -0.0 1.0 0.0 1:-0.047107 2:-0.085142 3:0.039164 4:-0.012507 5:-0.188958 6:0.110336 7:0.058628 8:-0.037402 
-0.0 -0.0 -0.0 1.0 0.0 1:-0.03425 2:-0.008469 3:0.118425 4:0.212797 5:-0.092685 6:0.187585 7:0.062413 8:0.162752 
-0.0 -0.0 -0.0 1.0 0.0 1:-0.033927 2:0.040956 3:0.184212 4:0.400229 5:0.020418 6:0.23273 7:0.135885 8:0.215497 
-0.0 -1.0 -0.0 1.0 0.0 1:-0.03468 2:-0.074368 3:0.030709 4:-0.037113 5:-0.243489 6:0.127392 7:-0.035549 8:0.092427 
-0.0 -1.0 -0.0 1.0 0.0 1:-0.03468 2:-0.074368 3:0.030709 4:-0.037113 5:-0.243489 6:0.127392 7:-0.035549 8:0.092427 
-0.0 -1.0 -0.0 1.0 0.0 1:-0.03468 2:-0.074368 3:0.030709 4:-0.037113 5:-0.243489 6:0.127392 7:-0.035549 8:0.092427 
-0.0 -0.0 -0.0 0.02033391014524275 1.0 1:-0.495665 2:-6.01E-4 3:1.545139 4:0.740229 5:-0.541283 6:-2.222494 7:1.142314 8:-1.155014 
-0.0 -0.0 -0.5979096806369705 0.0 0.0 1:-1.8657 2:-0.224701 3:0.027344 4:-0.562578 5:-0.985231 6:0.146177 7:0.680991 8:0.065934 
-0.0 -1.0 -0.0 1.0 0.0 1:-0.03468 2:-0.074368 3:0.030709 4:-0.037113 5:-0.243489 6:0.127392 7:-0.035549 8:0.092427 
-0.0 -1.0 -0.0 1.0 0.0 1:-0.03468 2:-0.074368 3:0.030709 4:-0.037113 5:-0.243489 6:0.127392 7:-0.035549 8:0.092427 
-0.0 -0.0 -0.0 1.0 0.0 1:-0.034465 2:-0.041418 3:0.074567 4:0.087842 5:-0.168087 6:0.157489 7:0.013432 8:0.12759 
-0.5474114998895125 -0.5386122828769033 -0.0 0.0 0.0 1:-0.972537 2:2.000483 3:1.245183 4:-0.455848 5:3.004669 6:-0.091355 7:-1.165677 8:0.024729 
-0.0 -1.0 -0.0 1.0 0.0 1:-0.03468 2:-0.074368 3:0.030709 4:-0.037113 5:-0.243489 6:0.127392 7:-0.035549 8:0.092427 
-0.0 -0.0 -0.0 1.0 0.0 1:-0.033927 2:0.040956 3:0.184212 4:0.400229 5:0.020418 6:0.23273 7:0.135885 8:0.215497 
-0.0 -0.0 -0.0 1.0 0.0 1:-0.034034 2:0.024481 3:0.162283 4:0.337752 5:-0.017283 6:0.217682 7:0.111395 8:0.197915 
-0.0 -0.0 -1.0 1.0 0.0 1:0.338322 2:-1.721376 3:0.315713 4:-0.834861 5:-0.416725 6:0.280754 7:1.457015 8:-0.60693 
-0.0 -0.0 -0.0 0.39015787299432586 0.0 1:-0.993405 2:-0.204008 3:-0.361603 4:-0.320973 5:-0.14061 6:1.921055 7:0.799959 8:3.672652 
-0.0 -0.0 -1.0 1.0 0.0 1:0.338322 2:-1.721376 3:0.315713 4:-0.834861 5:-0.416725 6:0.280754 7:1.457015 8:-0.60693 
-0.0 -0.4446778225090463 -0.534704492862779 1.0 0.0 1:-0.993405 2:-0.204008 3:-0.361603 4:-0.320973 5:-0.14061 6:1.921055 7:0.799959 8:3.672652 
-0.0 -0.0 -0.0 1.0 0.0 1:-0.033388 2:0.123331 3:0.293857 4:0.712617 5:0.208923 6:0.307972 7:0.258338 8:0.303404 
-0.0 -1.0 -0.0 1.0 0.0 1:-0.03468 2:-0.074368 3:0.030709 4:-0.037113 5:-0.243489 6:0.127392 7:-0.035549 8:0.092427 
-0.0 -0.0 -0.0 1.0 0.0 1:-0.047107 2:-0.085142 3:0.039164 4:-0.012507 5:-0.188958 6:0.110336 7:0.058628 8:-0.037402 
-0.0 -0.0 -1.0 0.9286511208157219 0.0 1:-0.84447 2:-0.446289 3:1.066392 4:0.2385 5:-0.288968 6:0.536203 7:2.762193 8:-1.092533 
-0.0 -0.0 -1.0 0.0 0.0 1:0.411379 2:-1.697129 3:0.360745 4:-0.848832 5:-0.400129 6:0.143202 7:1.480149 8:-0.615206 
-0.0 -0.0 -0.0 1.0 0.0 1:-0.72485 2:-0.57274 3:0.376501 4:-0.806543 5:-1.146444 6:-0.559237 7:0.102125 8:-0.233719 
-0.0 -0.0 -0.0 1.0 0.0 1:-0.034465 2:-0.041418 3:0.074567 4:0.087842 5:-0.168087 6:0.157489 7:0.013432 8:0.12759 
-0.0 -0.0 -1.0 0.0 0.0 1:-1.8657 2:-0.224701 3:0.027344 4:-0.562578 5:-0.985231 6:0.146177 7:0.680991 8:0.065934 
-0.0 -0.0 -1.0 0.6113241669021721 0.026371186636754806 1:-0.84447 2:-0.446289 3:1.066392 4:0.2385 5:-0.288968 6:0.536203 7:2.762193 8:-1.092533 
-0.0 -1.0 -0.0 1.0 0.0 1:-0.03468 2:-0.074368 3:0.030709 4:-0.037113 5:-0.243489 6:0.127392 7:-0.035549 8:0.092427 
-0.0 -1.0 -0.0 1.0 0.0 1:-0.03468 2:-0.074368 3:0.030709 4:-0.037113 5:-0.243489 6:0.127392 7:-0.035549 8:0.092427 
-0.0 -0.0 -0.0 1.0 1.0 1:-0.495665 2:-6.01E-4 3:1.545139 4:0.740229 5:-0.541283 6:-2.222494 7:1.142314 8:-1.155014 
-0.0 -1.0 -0.0 1.0 0.0 1:-0.03468 2:-0.074368 3:0.030709 4:-0.037113 5:-0.243489 6:0.127392 7:-0.035549 8:0.092427 
-0.0 -0.0 -0.0 1.0 0.0 1:-0.72485 2:-0.57274 3:0.376501 4:-0.806543 5:-1.146444 6:-0.559237 7:0.102125 8:-0.233719 
-0.0 -1.0 -0.0 1.0 0.0 1:-0.03468 2:-0.074368 3:0.030709 4:-0.037113 5:-0.243489 6:0.127392 7:-0.035549 8:0.092427 
-0.0 -0.0 -1.0 0.0 0.0 1:0.411379 2:-1.697129 3:0.360745 4:-0.848832 5:-0.400129 6:0.143202 7:1.480149 8:-0.615206 
-0.0 -0.0 -0.0 0.8653634744717942 0.0 1:-0.870507 2:-0.894681 3:0.118842 4:-0.564925 5:-0.930464 6:0.910263 7:-0.736624 8:-0.503055 
-0.0 -0.0 -0.0 1.0 0.0 1:-0.033927 2:0.040956 3:0.184212 4:0.400229 5:0.020418 6:0.23273 7:0.135885 8:0.215497 
-0.0 -0.0 -0.0 1.0 0.0 1:-0.034465 2:-0.041418 3:0.074567 4:0.087842 5:-0.168087 6:0.157489 7:0.013432 8:0.12759 
-0.20690383035937085 -0.0 -0.0 0.0 0.0 1:0.401903 2:-1.373938 3:2.000789 4:-1.144889 5:0.601405 6:-0.331823 7:-1.840532 8:-1.866393 
-0.0 -0.0 -1.0 1.0 0.0 1:0.338322 2:-1.721376 3:0.315713 4:-0.834861 5:-0.416725 6:0.280754 7:1.457015 8:-0.60693 
-0.0 -0.0 -0.0 1.0 0.0 1:-0.843127 2:-0.814608 3:0.488957 4:0.197453 5:-0.578922 6:0.908873 7:-0.714691 8:-1.050679 
-0.0 -0.0 -0.6608784461256971 1.0 0.5181734888050316 1:-0.495665 2:-6.01E-4 3:1.545139 4:0.740229 5:-0.541283 6:-2.222494 7:1.142314 8:-1.155014 
-0.18160494513616188 -0.0 -0.0 0.0 0.0 1:-1.161467 2:1.344447 3:1.209459 4:-0.077767 5:0.552825 6:0.99215 7:2.899269 8:-0.881625 
-0.0 -1.0 -0.0 1.0 0.0 1:-0.03468 2:-0.074368 3:0.030709 4:-0.037113 5:-0.243489 6:0.127392 7:-0.035549 8:0.092427 
-0.0 -0.0 -0.0 1.0 0.0 1:-0.72485 2:-0.57274 3:0.376501 4:-0.806543 5:-1.146444 6:-0.559237 7:0.102125 8:-0.233719 
-0.0 -0.0 -0.0 1.0 0.0 1:-0.033711 2:0.073906 3:0.22807 4:0.525184 5:0.09582 6:0.262827 7:0.184866 8:0.25066 
-0.0 -0.0 -0.4520488684321653 0.0 0.0 1:-1.07254 2:1.614038 3:-0.129299 4:-0.899305 5:1.367386 6:-0.854926 7:-0.392945 8:-1.246047 
-0.0 -1.0 -0.0 1.0 0.0 1:-0.03468 2:-0.074368 3:0.030709 4:-0.037113 5:-0.243489 6:0.127392 7:-0.035549 8:0.092427 
-0.0 -0.0 -0.0 1.0 0.0 1:-0.870507 2:-0.894681 3:0.118842 4:-0.564925 5:-0.930464 6:0.910263 7:-0.736624 8:-0.503055 
-0.0 -1.0 -0.0 1.0 0.0 1:-0.03468 2:-0.074368 3:0.030709 4:-0.037113 5:-0.243489 6:0.127392 7:-0.035549 8:0.092427 
-0.0 -0.0 -0.0 1.0 0.0 1:-0.843127 2:-0.814608 3:0.488957 4:0.197453 5:-0.578922 6:0.908873 7:-0.714691 8:-1.050679 
-0.0 -0.0 -0.0 1.0 0.0 1:-0.047107 2:-0.085142 3:0.039164 4:-0.012507 5:-0.188958 6:0.110336 7:0.058628 8:-0.037402 
-0.6092050356798902 -0.5385307713793006 -0.9478612680650415 0.0700637833684992 0.17454424801121374 1:-0.928886 2:1.745812 3:1.647941 4:-0.580506 5:3.202357 6:-0.372705 7:-1.508274 8:0.232327 
-0.1574651965407768 -1.0 -0.0 0.0 0.0 1:-0.6948 2:-0.80455 3:0.490512 4:-0.866875 5:-1.346794 6:-0.761058 7:-0.419393 8:-1.461585 
-0.0 -0.0 -1.0 0.0 0.0 1:-1.8657 2:-0.224701 3:0.027344 4:-0.562578 5:-0.985231 6:0.146177 7:0.680991 8:0.065934 
-0.0 -0.0 -0.34461038181328163 0.0 0.0 1:-0.032742 2:0.22218 3:0.425431 4:1.087481 5:0.435129 6:0.398262 7:0.405282 8:0.408893 
-0.0 -0.0 -1.0 0.0 0.0 1:-1.930067 2:-0.331488 3:-0.05594 4:-0.464744 5:-0.813463 6:0.835676 7:0.349149 8:0.191169 
-0.0 -1.0 -0.0 1.0 0.0 1:-0.03468 2:-0.074368 3:0.030709 4:-0.037113 5:-0.243489 6:0.127392 7:-0.035549 8:0.092427 
-0.7393336659745127 -0.6909031664402039 -0.0 0.38755774405890187 0.0 1:-1.068879 2:1.445993 3:-0.299581 4:-1.542609 5:1.033947 6:-0.996357 7:-0.686457 8:-1.380788 
-0.0 -0.0 -0.0 1.0 0.0 1:-0.03328 2:0.139805 3:0.315786 4:0.775094 5:0.246624 6:0.32302 7:0.282829 8:0.320986 
-0.0 -0.0 -0.0 1.0 0.0 1:-0.033388 2:0.123331 3:0.293857 4:0.712617 5:0.208923 6:0.307972 7:0.258338 8:0.303404 
-0.0 -0.0 -0.0 1.0 0.0 1:-0.843127 2:-0.814608 3:0.488957 4:0.197453 5:-0.578922 6:0.908873 7:-0.714691 8:-1.050679 
-0.0 -0.0 -0.0 0.24240020061067094 0.0 1:-1.08778 2:1.189482 3:0.91862 4:-1.357829 5:0.745769 6:0.241901 7:0.985526 8:-0.853628 
-0.0 -0.0 -1.0 0.0 0.0 1:-1.988966 2:-0.315779 3:-0.568066 4:-0.260055 5:-1.227816 6:0.858569 7:0.788009 8:-0.205549 
-0.0 -0.0 -1.0 0.0 0.0 1:-1.930067 2:-0.331488 3:-0.05594 4:-0.464744 5:-0.813463 6:0.835676 7:0.349149 8:0.191169 
-0.0 -0.0 -1.0 0.0 0.0 1:-1.988966 2:-0.315779 3:-0.568066 4:-0.260055 5:-1.227816 6:0.858569 7:0.788009 8:-0.205549 
-0.0 -0.0 -0.0 1.0 0.0 1:-0.047107 2:-0.085142 3:0.039164 4:-0.012507 5:-0.188958 6:0.110336 7:0.058628 8:-0.037402 
-0.0 -0.0 -0.0 1.0 0.0 1:-0.870507 2:-0.894681 3:0.118842 4:-0.564925 5:-0.930464 6:0.910263 7:-0.736624 8:-0.503055 
-0.0 -0.0 -1.0 0.0 0.0 1:0.411379 2:-1.697129 3:0.360745 4:-0.848832 5:-0.400129 6:0.143202 7:1.480149 8:-0.615206 
-0.990694636979756 -0.4375437670256087 -0.3735809530486924 0.09541150705713437 0.10578073654236539 1:-1.161467 2:1.344447 3:1.209459 4:-0.077767 5:0.552825 6:0.99215 7:2.899269 8:-0.881625 
-0.988715945382773 -0.0 -0.0 1.0 0.0 1:-1.0056 2:-0.197355 3:-0.323351 4:-0.305815 5:-0.209888 6:1.934758 7:0.804893 8:3.533097 
-0.9101519802902718 -0.15333484867947778 -0.41351179062516136 0.0 0.579907086457082 1:-0.526286 2:-0.00398 3:1.53385 4:0.744269 5:-0.578571 6:-2.257202 7:1.142313 8:-1.275942 
-0.9989882056262631 -0.7805893537660932 -0.8257783868690384 0.0 0.14250856341443593 1:0.401903 2:-1.373938 3:2.000789 4:-1.144889 5:0.601405 6:-0.331823 7:-1.840532 8:-1.866393 
-0.0 -0.0 -0.9298663523585801 0.0 0.0 1:-0.032742 2:0.22218 3:0.425431 4:1.087481 5:0.435129 6:0.398262 7:0.405282 8:0.408893 
-0.0 -1.0 -0.0 1.0 0.0 1:-0.03468 2:-0.074368 3:0.030709 4:-0.037113 5:-0.243489 6:0.127392 7:-0.035549 8:0.092427 
-0.8735320124788343 -1.0 -0.0 1.0 0.0 1:-0.03468 2:-0.074368 3:0.030709 4:-0.037113 5:-0.243489 6:0.127392 7:-0.035549 8:0.092427 
-0.876869056324923 -0.29315845495396564 -0.9238733441841309 0.0 0.10250783494683895 1:0.584147 2:-1.792626 3:1.842267 4:-1.408756 5:0.944314 6:0.449453 7:0.021953 8:0.737956 
-0.0 -0.0 -0.0 0.5458049110244327 0.0 1:-0.84345 2:-0.864033 3:0.42317 4:0.01002 5:-0.692026 6:0.863728 7:-0.788163 8:-1.103424 
-0.0 -0.8450669636422022 -0.0 0.42971152238819516 0.0 1:-1.520249 2:0.115988 3:1.367596 4:-1.32364 5:-0.735926 6:-2.30833 7:0.940413 8:0.441586 
-0.0 -0.0 -0.0 1.0 0.0 1:-0.034034 2:0.024481 3:0.162283 4:0.337752 5:-0.017283 6:0.217682 7:0.111395 8:0.197915 
-0.45461544135229576 -0.21627739187503242 -0.16260175204855418 0.0 0.0 1:-1.385225 2:0.124659 3:0.498982 4:-1.619223 5:-2.140194 6:0.321899 7:-2.587393 8:4.43866 
-0.06255060239267682 -0.0 -1.0 0.6605262374932814 0.0 1:-1.988966 2:-0.315779 3:-0.568066 4:-0.260055 5:-1.227816 6:0.858569 7:0.788009 8:-0.205549 
-0.0 -0.0 -0.0 1.0 0.0 1:-0.047107 2:-0.085142 3:0.039164 4:-0.012507 5:-0.188958 6:0.110336 7:0.058628 8:-0.037402 
-0.0 -0.0 -0.0 1.0 0.0 1:-0.047107 2:-0.085142 3:0.039164 4:-0.012507 5:-0.188958 6:0.110336 7:0.058628 8:-0.037402 
-0.7928490721769607 -0.0 -0.0 0.0 0.0 1:-0.017798 2:0.469722 3:0.742115 4:1.926584 5:0.993266 6:0.715796 7:0.757151 8:0.626351 
-0.0 -0.0 -0.0 1.0 0.0 1:-0.034034 2:0.024481 3:0.162283 4:0.337752 5:-0.017283 6:0.217682 7:0.111395 8:0.197915 
-0.0 -0.0 -0.0 1.0 0.0 1:-0.047107 2:-0.085142 3:0.039164 4:-0.012507 5:-0.188958 6:0.110336 7:0.058628 8:-0.037402 
-0.0 -0.38906258904528995 -0.917938917574272 0.0 0.0 1:-0.031234 2:0.452829 3:0.732438 4:1.962166 5:0.962944 6:0.608938 7:0.74815 8:0.655033 
-0.0 -0.8783102819903472 -0.7170208446169998 0.9702956604354666 0.19099706863041715 1:-0.993405 2:-0.204008 3:-0.361603 4:-0.320973 5:-0.14061 6:1.921055 7:0.799959 8:3.672652 
-0.0 -0.0 -0.0 1.0 0.0 1:-0.047107 2:-0.085142 3:0.039164 4:-0.012507 5:-0.188958 6:0.110336 7:0.058628 8:-0.037402 
-0.0 -0.29862307325286 -0.3015238728851543 0.0 0.0 1:-0.865697 2:-0.977679 3:-0.024258 4:-0.848982 5:-0.705174 6:0.950305 7:-1.121152 8:-1.327927 
-1.0 -1.0 -0.0 1.0 0.0 1:-0.03468 2:-0.074368 3:0.030709 4:-0.037113 5:-0.243489 6:0.127392 7:-0.035549 8:0.092427 
-0.9589201285077114 -0.9987661291231094 -0.27648657726644654 0.0 1.0 1:-0.526286 2:-0.00398 3:1.53385 4:0.744269 5:-0.578571 6:-2.257202 7:1.142313 8:-1.275942 
-0.0 -0.109105798330522 -0.6804593590365896 0.07981737638083308 0.0 1:-1.692938 2:0.034029 3:0.358074 4:-0.853487 5:-1.305721 6:-1.554942 7:1.389078 8:-0.144466 
-0.0 -0.0 -1.0 0.0 0.0 1:0.411379 2:-1.697129 3:0.360745 4:-0.848832 5:-0.400129 6:0.143202 7:1.480149 8:-0.615206 
-1.0 -1.0 -0.0 1.0 0.0 1:-0.03468 2:-0.074368 3:0.030709 4:-0.037113 5:-0.243489 6:0.127392 7:-0.035549 8:0.092427 
-0.0 -0.0 -0.9011536246134539 0.0 0.0 1:-0.849949 2:-0.527993 3:0.872633 4:1.276069 5:0.10971 6:1.293369 7:-0.16139 8:-0.745855 
-0.32502856433174776 -0.6574992840726902 -1.0 0.1299047417268731 0.05941841852530159 1:0.411379 2:-1.697129 3:0.360745 4:-0.848832 5:-0.400129 6:0.143202 7:1.480149 8:-0.615206 
-0.7816437207062569 -1.0 -0.8557834136528801 0.9495038341736882 0.11049592084796325 1:-1.068879 2:1.445993 3:-0.299581 4:-1.542609 5:1.033947 6:-0.996357 7:-0.686457 8:-1.380788 
-0.0 -0.0 -0.0 0.13695673625646587 0.0 1:0.377159 2:-1.374315 3:1.6483 4:-1.029617 5:0.313381 6:-0.353707 7:-1.396815 8:-2.015947 
-0.0 -0.0 -0.9776681032979659 1.0 0.0 1:-0.047107 2:-0.085142 3:0.039164 4:-0.012507 5:-0.188958 6:0.110336 7:0.058628 8:-0.037402 
-0.0 -0.0 -0.5628871608217533 0.0 0.0 1:-0.913668 2:-0.414211 3:0.981574 4:1.206485 5:-0.236301 6:0.212349 7:0.056574 8:-1.43704 
-0.5479364623812147 -0.15327109099518418 -0.02778262169455885 0.0 0.09225206412278394 1:-1.042045 2:1.24196 3:2.51248 4:-0.55881 5:1.633396 6:1.282667 7:1.743904 8:0.184724 
-0.0 -0.0 -0.0 1.0 0.0 1:-0.03328 2:0.139805 3:0.315786 4:0.775094 5:0.246624 6:0.32302 7:0.282829 8:0.320986 
-0.0 -0.0 -0.02083212427801724 0.0 0.0 1:0.430332 2:-1.710313 3:0.556776 4:-0.92295 5:-0.225842 6:0.179407 7:1.285723 8:-0.450908 
-0.0 -0.0 -0.0 1.0 0.0 1:-0.034465 2:-0.041418 3:0.074567 4:0.087842 5:-0.168087 6:0.157489 7:0.013432 8:0.12759 
-0.6214962037873998 -0.0 -0.0 0.0 0.14339699708898196 1:-1.506034 2:0.106101 3:1.514619 4:-1.379228 5:-0.605211 6:-2.281175 7:0.794593 8:0.56481 
-0.0 -0.0 -0.0 1.0 0.0 1:-0.03328 2:0.139805 3:0.315786 4:0.775094 5:0.246624 6:0.32302 7:0.282829 8:0.320986 
-0.9992412705959278 -0.0 -1.0 1.0 0.08491651776491531 1:-1.988966 2:-0.315779 3:-0.568066 4:-0.260055 5:-1.227816 6:0.858569 7:0.788009 8:-0.205549 
-0.9993835080930535 -0.5114061147998965 -0.0 0.0 0.0 1:-0.017798 2:0.469722 3:0.742115 4:1.926584 5:0.993266 6:0.715796 7:0.757151 8:0.626351 
-0.0 -0.0 -0.0 1.0 0.0 1:-0.03425 2:-0.008469 3:0.118425 4:0.212797 5:-0.092685 6:0.187585 7:0.062413 8:0.162752 
-0.0 -1.0 -1.0 0.0 0.12496841386790572 1:-0.031234 2:0.452829 3:0.732438 4:1.962166 5:0.962944 6:0.608938 7:0.74815 8:0.655033 
-1.0 -1.0 -0.0 1.0 0.0 1:-0.03468 2:-0.074368 3:0.030709 4:-0.037113 5:-0.243489 6:0.127392 7:-0.035549 8:0.092427 
-0.0 -0.0 -0.9894002209756464 0.0 0.0 1:0.430332 2:-1.710313 3:0.556776 4:-0.92295 5:-0.225842 6:0.179407 7:1.285723 8:-0.450908 
-0.0 -0.0 -0.0 0.5790585204181231 0.0 1:0.38295 2:-1.519054 3:0.935728 4:-0.904213 5:-0.117221 6:-0.139568 7:0.062841 8:-1.446172 
-0.0 -0.0 -0.8068564400645611 1.0 0.0 1:-0.047107 2:-0.085142 3:0.039164 4:-0.012507 5:-0.188958 6:0.110336 7:0.058628 8:-0.037402 
-1.0 -1.0 -0.0 1.0 0.0 1:-0.03468 2:-0.074368 3:0.030709 4:-0.037113 5:-0.243489 6:0.127392 7:-0.035549 8:0.092427 
-1.0 -0.9249580570726424 -0.0 1.0 0.0 1:-0.03468 2:-0.074368 3:0.030709 4:-0.037113 5:-0.243489 6:0.127392 7:-0.035549 8:0.092427 
-0.0 -0.0 -1.0 0.0 0.0 1:-1.930067 2:-0.331488 3:-0.05594 4:-0.464744 5:-0.813463 6:0.835676 7:0.349149 8:0.191169 
-0.0 -0.946663761244056 -1.0 0.0 0.0677465235037844 1:-0.865697 2:-0.977679 3:-0.024258 4:-0.848982 5:-0.705174 6:0.950305 7:-1.121152 8:-1.327927 
-0.0 -0.0 -0.0 0.0 0.015658514434585713 1:-0.841189 2:-0.51806 3:0.883679 4:1.322047 5:0.099696 6:1.179742 7:-0.27386 8:-0.734213 
-0.9385155444752351 -0.9203455321592336 -0.965301809873244 0.5547050782115709 0.22240247809509398 1:-1.385225 2:0.124659 3:0.498982 4:-1.619223 5:-2.140194 6:0.321899 7:-2.587393 8:4.43866 
-0.0 -0.0 -0.11606214208020413 0.7837973147476089 0.0 1:0.38295 2:-1.519054 3:0.935728 4:-0.904213 5:-0.117221 6:-0.139568 7:0.062841 8:-1.446172 
-0.25743906404247124 -0.0 -0.0 0.0 0.0 1:-0.844527 2:-1.028782 3:0.20388 4:-0.614754 5:-1.069036 6:0.713245 7:-1.033069 8:-1.279238 
-0.0 -0.40144112687468014 -0.2279228711792052 -0.19324168311905948 0.0 1:-0.329988 2:0.483941 3:0.552726 4:0.426326 5:-1.116718 6:-0.692513 7:-2.178264 8:-4.189131 
-0.0 -0.0 -0.0 -1.0 0.0 1:-0.043335 2:-0.068347 3:0.010346 4:-0.01323 5:-0.13666 6:0.055157 7:-0.049778 8:-0.035815 
-1.0 -0.0 -0.0 -0.0 0.0 1:0.077092 2:0.063652 3:0.28297 4:0.73902 5:-0.470759 6:-1.638813 7:-1.627558 8:0.007725 
-0.0 -1.0 -0.0 -0.0 0.0 1:-0.060856 2:-0.088214 3:-0.011746 4:-0.105186 5:-0.116632 6:0.28241 7:0.175163 8:-0.059099 
-0.0 -0.0 -0.0 -1.0 0.0 1:-0.232366 2:-0.271402 3:0.05935 4:-0.138532 5:-0.359971 6:0.28588 7:-0.128595 8:-0.16258 
-0.0 -1.0 -0.0 -0.0 0.0 1:-0.024475 2:0.015628 3:-0.133744 4:-0.016846 5:0.124834 6:-0.220739 7:-0.591807 8:-0.027882 
-1.0 -0.0 -0.0 -0.0 0.0 1:0.077092 2:0.063652 3:0.28297 4:0.73902 5:-0.470759 6:-1.638813 7:-1.627558 8:0.007725 
-0.0 -1.0 -0.0 -1.0 0.0 1:-0.070142 2:-0.119639 3:-0.004933 4:0.026281 5:-0.146226 6:0.337151 7:-0.035783 8:-0.009349 
-0.0 -0.0 -0.0 -1.0 0.0 1:-0.043335 2:-0.068347 3:0.010346 4:-0.01323 5:-0.13666 6:0.055157 7:-0.049778 8:-0.035815 
-0.0 -0.0 -0.0 -1.0 0.0 1:-0.093177 2:-0.154136 3:-0.049031 4:0.065069 5:-0.103494 6:0.563967 7:-0.130195 8:0.018705 
-0.1510861954582701 -0.0 -0.9131228266635989 -1.0 0.0 1:-0.107459 2:-0.353863 3:0.500251 4:-9.36E-4 5:-1.025738 6:0.993201 7:1.793123 8:-0.06279 
-0.0 -0.0 -0.0 -0.06258371843441023 0.0 1:-0.175035 2:-0.020618 3:0.079243 4:-0.166246 5:-0.299839 6:-0.10359 7:0.439096 8:0.583529 
-0.0 -0.2524655696887442 -0.0 -0.0 0.0 1:-0.001218 2:-0.185588 3:-0.036824 4:-0.085404 5:-0.051764 6:0.262537 7:0.467579 8:0.654024 
-0.0 -0.0 -0.0 -0.6094884420131094 0.0 1:-0.60166 2:-0.207425 3:-0.126891 4:-0.131094 5:-0.260799 6:0.664705 7:0.625569 8:3.047232 
-0.0 -0.0 -0.0 -1.0 0.0 1:-0.043335 2:-0.068347 3:0.010346 4:-0.01323 5:-0.13666 6:0.055157 7:-0.049778 8:-0.035815 
-0.0 -0.0 -0.0 -1.0 0.0 1:-0.174417 2:-0.147747 3:-0.062064 4:0.01729 5:-0.126886 6:0.627116 7:-0.01077 8:0.35021 
-0.0 -0.0 -0.0 -1.0 0.0 1:-0.039563 2:-0.051552 3:-0.018472 4:-0.013953 5:-0.084361 6:-2.2E-5 7:-0.158183 8:-0.034229 
-0.2908170948729508 -0.6523371647032206 -0.6998910920413146 -0.8496141334180204 0.0 1:0.216914 2:-0.738201 3:-0.330308 4:-0.447724 5:0.477308 6:1.189079 7:2.837551 8:4.106393 
-0.0 -0.0 -0.0 -1.0 0.0 1:-0.704293 2:-0.13028 3:-0.174008 4:-0.259449 5:-0.246543 6:1.178271 7:0.682647 8:2.468447 
-0.0 -0.0 -0.0 -1.0 0.0 1:-0.03559 2:-0.067893 3:0.061213 4:-0.031901 5:-0.210324 6:-0.003072 7:0.105834 8:-0.051429 
-0.0 -1.0 -0.0 -0.0 0.0 1:-0.018944 2:-0.081653 3:-0.066158 4:-0.043546 5:0.001896 6:0.027751 7:-0.059647 8:0.243294 
-0.0 -0.0 -0.0 -1.0 0.0 1:-0.093177 2:-0.154136 3:-0.049031 4:0.065069 5:-0.103494 6:0.563967 7:-0.130195 8:0.018705 
-0.0 -0.0 -0.0 -1.0 0.0 1:-0.043335 2:-0.068347 3:0.010346 4:-0.01323 5:-0.13666 6:0.055157 7:-0.049778 8:-0.035815 
-0.0 -0.0 -0.0 -1.0 0.0 1:-0.03559 2:-0.067893 3:0.061213 4:-0.031901 5:-0.210324 6:-0.003072 7:0.105834 8:-0.051429 
-0.0 -1.0 -0.0 -1.0 0.0 1:-0.014293 2:-0.121896 3:-0.046774 4:-0.057258 5:-0.033424 6:0.124406 7:0.152231 8:0.379675 
-0.0 -0.0 -0.0 -1.0 0.0 1:-0.043335 2:-0.068347 3:0.010346 4:-0.01323 5:-0.13666 6:0.055157 7:-0.049778 8:-0.035815 
-0.0 -0.0 -0.0 -1.0 0.0 1:-0.078368 2:-0.038663 3:0.214264 4:0.140081 5:-0.486097 6:-0.062106 7:-0.146574 8:-0.572337 
-0.0 -0.0 -0.0 -0.1003969449508578 0.0 1:-0.116212 2:-0.188634 3:-0.093128 4:0.103857 5:-0.060762 6:0.790783 7:-0.224607 8:0.046758 
-0.0 -0.0 -0.0 -1.0 0.0 1:-0.116212 2:-0.188634 3:-0.093128 4:0.103857 5:-0.060762 6:0.790783 7:-0.224607 8:0.046758 
-0.0 -0.0 -0.0 -1.0 0.0 1:-0.174417 2:-0.147747 3:-0.062064 4:0.01729 5:-0.126886 6:0.627116 7:-0.01077 8:0.35021 
-0.0 -0.0 -0.0 -1.0 0.0 1:-0.03559 2:-0.067893 3:0.061213 4:-0.031901 5:-0.210324 6:-0.003072 7:0.105834 8:-0.051429 
-0.0 -1.0 -1.0 -0.9893833073776297 0.39246102868173904 1:-0.329988 2:0.483941 3:0.552726 4:0.426326 5:-1.116718 6:-0.692513 7:-2.178264 8:-4.189131 
-0.0 -0.0 -0.0 -0.3695604090624225 0.0 1:0.127917 2:-1.174161 3:0.291871 4:-0.75093 5:-0.361702 6:0.787429 7:0.965457 8:-2.507039 
-0.0 -0.0 -0.0 -1.0 0.0 1:-0.232366 2:-0.271402 3:0.05935 4:-0.138532 5:-0.359971 6:0.28588 7:-0.128595 8:-0.16258 
-0.0 -0.0 -0.0 -1.0 0.0 1:-0.074391 2:-0.145669 3:0.192688 4:0.005544 5:-0.467431 6:0.344755 7:0.497187 8:-0.183304 
-0.0 -0.0 -0.0 -1.0 0.0 1:-0.08166 2:-0.136888 3:-0.026982 4:0.045675 5:-0.12486 6:0.450559 7:-0.082989 8:0.004678 
-0.0 -0.0 -0.0 -1.0 0.0 1:-0.232366 2:-0.271402 3:0.05935 4:-0.138532 5:-0.359971 6:0.28588 7:-0.128595 8:-0.16258 
-0.0 -0.0 -0.0 -1.0 0.0 1:-0.175035 2:-0.020618 3:0.079243 4:-0.166246 5:-0.299839 6:-0.10359 7:0.439096 8:0.583529 
-0.0 -0.0 -0.0 -1.0 0.0 1:-0.232366 2:-0.271402 3:0.05935 4:-0.138532 5:-0.359971 6:0.28588 7:-0.128595 8:-0.16258 
-0.0 -0.0 -0.0 -1.0 0.0 1:-0.043335 2:-0.068347 3:0.010346 4:-0.01323 5:-0.13666 6:0.055157 7:-0.049778 8:-0.035815 
-0.0 -1.0 -0.0 -0.0 0.0 1:-0.060856 2:-0.088214 3:-0.011746 4:-0.105186 5:-0.116632 6:0.28241 7:0.175163 8:-0.059099 
-0.0 -0.0 -0.8499825126996325 -0.0 0.0 1:-0.153112 2:-0.147306 3:-0.14159 4:-0.551252 5:0.018828 6:1.322024 7:1.087991 8:-0.311898 
-0.0 -0.0 -0.0 -1.0 0.0 1:-0.059303 2:-0.078489 3:0.077416 4:0.002651 5:-0.258236 6:0.124039 7:0.063563 8:-0.176957 
-0.9030549812293702 -0.013477122112588375 -0.1665430970005817 -1.0 0.0 1:-0.704293 2:-0.13028 3:-0.174008 4:-0.259449 5:-0.246543 6:1.178271 7:0.682647 8:2.468447 
-0.0 -0.0 -0.0 -1.0 0.0 1:-0.024072 2:-0.050645 3:0.083261 4:-0.051295 5:-0.23169 6:-0.11648 7:0.15304 8:-0.065455 
-0.0 -0.8983599043968059 -0.0 -0.0 0.0 1:-0.028247 2:-0.001167 3:-0.104926 4:-0.016123 5:0.072535 6:-0.16556 7:-0.483401 8:-0.029468 
-0.0 -0.8967806600707826 -0.0 -0.0 0.0 1:0.284424 2:-0.106127 3:0.199251 4:0.301568 5:0.014522 6:-0.406794 7:-0.327834 8:1.602122 
-0.0 -1.0 -0.0 -1.0 0.0 1:-0.014293 2:-0.121896 3:-0.046774 4:-0.057258 5:-0.033424 6:0.124406 7:0.152231 8:0.379675 
-0.0 -0.0 -0.0 -1.0 0.0 1:-0.043335 2:-0.068347 3:0.010346 4:-0.01323 5:-0.13666 6:0.055157 7:-0.049778 8:-0.035815 
-0.0 -1.0 -0.0 -0.9369969620658716 0.0 1:-0.014293 2:-0.121896 3:-0.046774 4:-0.057258 5:-0.033424 6:0.124406 7:0.152231 8:0.379675 
-1.0 -0.6660665845335431 -0.0 -0.2550426517379659 0.1328471107653993 1:-0.130386 2:0.495461 3:0.6286 4:-0.209722 5:-0.653716 6:1.218264 7:-0.878702 8:-3.603206 
-0.0 -0.0 -0.0 -1.0 0.0 1:-0.043335 2:-0.068347 3:0.010346 4:-0.01323 5:-0.13666 6:0.055157 7:-0.049778 8:-0.035815 
-0.0 -1.0 -0.0 -0.0 0.0 1:-0.001218 2:-0.185588 3:-0.036824 4:-0.085404 5:-0.051764 6:0.262537 7:0.467579 8:0.654024 
-0.0 -1.0 -0.0 -0.0 0.0 1:-0.016931 2:0.049218 3:-0.19138 4:-0.018292 5:0.229431 6:-0.331097 7:-0.808619 8:-0.024708 
-1.0 -0.0 -0.0 -0.0 0.0 1:0.017659 2:0.037224 3:0.31529 4:0.585425 5:-0.569258 6:-1.156899 7:-1.167807 8:-0.317951 
-0.0 -0.0 -0.0 -1.0 0.0 1:-0.116212 2:-0.188634 3:-0.093128 4:0.103857 5:-0.060762 6:0.790783 7:-0.224607 8:0.046758 
-0.0 -0.0 -0.0 -1.0 0.0 1:-0.039563 2:-0.051552 3:-0.018472 4:-0.013953 5:-0.084361 6:-2.2E-5 7:-0.158183 8:-0.034229 
-0.0 -0.0 -0.0 -0.2363358493278637 0.0 1:-0.024072 2:-0.050645 3:0.083261 4:-0.051295 5:-0.23169 6:-0.11648 7:0.15304 8:-0.065455 
-0.0 -0.0 -0.0 -1.0 0.0 1:-0.043335 2:-0.068347 3:0.010346 4:-0.01323 5:-0.13666 6:0.055157 7:-0.049778 8:-0.035815 
-0.0 -0.0 -0.0 -1.0 0.0 1:-0.043335 2:-0.068347 3:0.010346 4:-0.01323 5:-0.13666 6:0.055157 7:-0.049778 8:-0.035815 
-0.0 -0.0 -0.0 -1.0 0.0 1:-0.03559 2:-0.067893 3:0.061213 4:-0.031901 5:-0.210324 6:-0.003072 7:0.105834 8:-0.051429 
-0.0 -1.0 -0.0 -1.0 0.0 1:-0.070142 2:-0.119639 3:-0.004933 4:0.026281 5:-0.146226 6:0.337151 7:-0.035783 8:-0.009349 
-0.0 -0.0 -0.0 -1.0 0.0 1:-0.08166 2:-0.136888 3:-0.026982 4:0.045675 5:-0.12486 6:0.450559 7:-0.082989 8:0.004678 
-0.0 -0.2201339942785618 -0.0 -0.0 0.0 1:-0.018944 2:-0.081653 3:-0.066158 4:-0.043546 5:0.001896 6:0.027751 7:-0.059647 8:0.243294 
-0.8271705344430725 -0.0 -0.0 -0.0 0.0 1:-0.33376 2:0.467146 3:0.581544 4:0.42705 5:-1.169017 6:-0.637334 7:-2.069858 8:-4.190717 
-0.0 -1.0 -0.0 -0.0 0.0 1:-0.060856 2:-0.088214 3:-0.011746 4:-0.105186 5:-0.116632 6:0.28241 7:0.175163 8:-0.059099 
-0.0 -0.0 -0.0 -1.0 0.0 1:-0.043335 2:-0.068347 3:0.010346 4:-0.01323 5:-0.13666 6:0.055157 7:-0.049778 8:-0.035815 
-0.0 -0.0 -0.8038504724996509 -0.0 0.0 1:0.165121 2:0.006461 3:-0.81336 4:-0.232675 5:1.356216 6:-0.688477 7:-1.202921 8:1.933816 
-0.0 -0.0 -0.0 -0.18690972877629264 0.0 1:0.036265 2:-0.123748 3:0.392826 4:0.530578 5:-0.710537 6:-0.770278 7:-0.320298 8:0.227573 
-0.0 -0.0 -0.0 -1.0 0.0 1:-0.174417 2:-0.147747 3:-0.062064 4:0.01729 5:-0.126886 6:0.627116 7:-0.01077 8:0.35021 
-1.0 -0.0 -0.0 -0.0 0.0 1:0.017659 2:0.037224 3:0.31529 4:0.585425 5:-0.569258 6:-1.156899 7:-1.167807 8:-0.317951 
-0.0 -0.0 -0.8309416260272232 -0.0 0.0 1:0.103426 2:-0.395898 3:-0.217265 4:-0.341084 5:0.296563 6:-0.462666 7:-0.283225 8:0.440838 
-0.0 -0.0 -0.8864133026709187 -1.0 0.0 1:0.127917 2:-1.174161 3:0.291871 4:-0.75093 5:-0.361702 6:0.787429 7:0.965457 8:-2.507039 
-0.0 -0.7538457502009089 -0.0 -1.0 0.0 1:-0.174417 2:-0.147747 3:-0.062064 4:0.01729 5:-0.126886 6:0.627116 7:-0.01077 8:0.35021 
-0.0 -0.0 -1.0 -0.0 0.0 1:-0.153112 2:-0.147306 3:-0.14159 4:-0.551252 5:0.018828 6:1.322024 7:1.087991 8:-0.311898 
-0.0 -0.0 -0.0 -1.0 0.0 1:0.011538 2:-0.143824 3:0.44885 4:0.500481 5:-0.822099 6:-0.587769 7:-0.094487 8:0.07479 
-0.0 -0.4831958961887064 -0.0 -0.0 0.0 1:-0.288974 2:-0.447363 3:-0.423858 4:0.394766 5:0.259727 6:2.491901 7:-0.932694 8:0.257158 
-0.0 -0.0 -0.0 -1.0 0.0 1:-0.043335 2:-0.068347 3:0.010346 4:-0.01323 5:-0.13666 6:0.055157 7:-0.049778 8:-0.035815 
-0.0 -0.0 -0.0 -1.0 0.0 1:-0.08166 2:-0.136888 3:-0.026982 4:0.045675 5:-0.12486 6:0.450559 7:-0.082989 8:0.004678 
-0.0 -0.0 -0.0 -0.8519303251855447 0.0 1:-0.077283 2:-0.219502 3:0.269708 4:-0.006721 5:-0.607348 6:0.551768 7:0.925876 8:-0.050096 
-0.0 -0.0 -0.0 -1.0 0.0 1:-0.059303 2:-0.078489 3:0.077416 4:0.002651 5:-0.258236 6:0.124039 7:0.063563 8:-0.176957 
-0.0 -0.0 -0.0 -1.0 0.0 1:-0.116212 2:-0.188634 3:-0.093128 4:0.103857 5:-0.060762 6:0.790783 7:-0.224607 8:0.046758 
-0.0 -0.0 -0.0 -1.0 0.0 1:-0.043335 2:-0.068347 3:0.010346 4:-0.01323 5:-0.13666 6:0.055157 7:-0.049778 8:-0.035815 
-0.0 -0.0 -0.0 -1.0 0.0 1:-0.60166 2:-0.207425 3:-0.126891 4:-0.131094 5:-0.260799 6:0.664705 7:0.625569 8:3.047232 
-0.0 -0.0 -0.0 -1.0 0.0 1:-0.074391 2:-0.145669 3:0.192688 4:0.005544 5:-0.467431 6:0.344755 7:0.497187 8:-0.183304 
-0.0 -1.0 -0.0 -0.0 0.0 1:-0.024475 2:0.015628 3:-0.133744 4:-0.016846 5:0.124834 6:-0.220739 7:-0.591807 8:-0.027882 
-0.0 -0.7225545721925785 -0.0 -0.0 0.0 1:0.267315 2:-0.06152 3:0.332799 4:0.070702 5:-0.304477 6:-0.941632 7:-0.133308 8:-1.600712 
-0.0 -1.0 -0.0 -0.0 0.0 1:0.183242 2:0.259831 3:0.480137 4:-0.400385 5:-0.616278 6:-2.157822 7:1.002745 8:-0.317936 
-1.0 -0.0 -0.0 -0.0 0.0 1:-0.168437 2:-0.320597 3:0.691511 4:0.074855 5:-1.372126 6:1.061716 7:1.817796 8:-0.760563 
-0.04300861557505322 -0.4272740730612721 -0.8933515005941446 -0.0 0.0 1:-0.153112 2:-0.147306 3:-0.14159 4:-0.551252 5:0.018828 6:1.322024 7:1.087991 8:-0.311898 
-0.0 -0.0 -0.0 -1.0 0.0 1:0.011538 2:-0.143824 3:0.44885 4:0.500481 5:-0.822099 6:-0.587769 7:-0.094487 8:0.07479 
-0.0 -0.0 -0.0 -1.0 0.0 1:0.036265 2:-0.123748 3:0.392826 4:0.530578 5:-0.710537 6:-0.770278 7:-0.320298 8:0.227573 
-0.0 -0.0 -0.0 -1.0 0.0 1:-0.232366 2:-0.271402 3:0.05935 4:-0.138532 5:-0.359971 6:0.28588 7:-0.128595 8:-0.16258 
-0.21714276926585144 -0.0 -0.0 -1.0 0.0 1:0.011538 2:-0.143824 3:0.44885 4:0.500481 5:-0.822099 6:-0.587769 7:-0.094487 8:0.07479 
-0.9953856585110882 -1.0 -0.9796720097593319 -0.9937843666623347 0.422198903690593 1:0.216914 2:-0.738201 3:-0.330308 4:-0.447724 5:0.477308 6:1.189079 7:2.837551 8:4.106393 
-0.0 -0.7196984388715039 -0.0 -0.0 0.0 1:0.019401 2:-0.215689 3:-0.08451 4:-0.114998 5:0.034492 6:0.29031 7:0.566116 8:0.931546 
-0.18679216928399497 -1.0 -0.3570134586180939 -0.0 0.0 1:-0.288974 2:-0.447363 3:-0.423858 4:0.394766 5:0.259727 6:2.491901 7:-0.932694 8:0.257158 
-0.0 -1.0 -0.0 -0.0 0.0 1:0.183242 2:0.259831 3:0.480137 4:-0.400385 5:-0.616278 6:-2.157822 7:1.002745 8:-0.317936 
-0.0 -0.0 -0.0 -1.0 0.0 1:-0.077283 2:-0.219502 3:0.269708 4:-0.006721 5:-0.607348 6:0.551768 7:0.925876 8:-0.050096 
-0.0 -0.0 -0.0 -1.0 0.0 1:-0.60166 2:-0.207425 3:-0.126891 4:-0.131094 5:-0.260799 6:0.664705 7:0.625569 8:3.047232 
-0.0 -1.0 -0.0 -0.0 0.0 1:0.284424 2:-0.106127 3:0.199251 4:0.301568 5:0.014522 6:-0.406794 7:-0.327834 8:1.602122 
-1.0 -0.0 -0.0 -0.0 0.0 1:0.017659 2:0.037224 3:0.31529 4:0.585425 5:-0.569258 6:-1.156899 7:-1.167807 8:-0.317951 
-0.0 -0.0 -1.0 -1.0 0.0 1:0.127917 2:-1.174161 3:0.291871 4:-0.75093 5:-0.361702 6:0.787429 7:0.965457 8:-2.507039 
-0.0 -0.9300442531833228 -0.0 -1.0 0.0 1:-0.08166 2:-0.136888 3:-0.026982 4:0.045675 5:-0.12486 6:0.450559 7:-0.082989 8:0.004678 
-0.0 -1.0 -0.0 -1.0 0.0 1:-0.070142 2:-0.119639 3:-0.004933 4:0.026281 5:-0.146226 6:0.337151 7:-0.035783 8:-0.009349 
-0.0 -0.0 -0.0 -1.0 0.0 1:-0.043335 2:-0.068347 3:0.010346 4:-0.01323 5:-0.13666 6:0.055157 7:-0.049778 8:-0.035815 
-0.0 -0.0 -1.0 -0.0 0.0 1:0.165121 2:0.006461 3:-0.81336 4:-0.232675 5:1.356216 6:-0.688477 7:-1.202921 8:1.933816 
-0.0 -0.12471043482622392 -0.0 -0.0 0.0 1:-0.682675 2:0.139771 3:0.268533 4:-0.791705 5:-0.80514 6:-0.964095 7:1.735893 8:2.615569 
-1.0 -0.0 -0.0 -0.0 0.0 1:-0.168437 2:-0.320597 3:0.691511 4:0.074855 5:-1.372126 6:1.061716 7:1.817796 8:-0.760563 
-0.14527442379037767 -0.8770036092057818 -1.0 -0.9901878974244618 0.13186928110443824 1:0.127917 2:-1.174161 3:0.291871 4:-0.75093 5:-0.361702 6:0.787429 7:0.965457 8:-2.507039 
-0.0 -0.0 -0.0 -1.0 0.0 1:-0.043335 2:-0.068347 3:0.010346 4:-0.01323 5:-0.13666 6:0.055157 7:-0.049778 8:-0.035815 
-0.0 -0.5368903195087935 -0.0 -0.0 0.0 1:-0.219349 2:0.367026 3:0.256661 4:0.276915 5:-0.580837 6:-0.664006 7:-1.902392 8:-2.798345 
-0.0 -1.0 -0.0 -0.0 0.0 1:-0.060856 2:-0.088214 3:-0.011746 4:-0.105186 5:-0.116632 6:0.28241 7:0.175163 8:-0.059099 
-0.0 -0.0 -0.0 -1.0 0.0 1:0.036265 2:-0.123748 3:0.392826 4:0.530578 5:-0.710537 6:-0.770278 7:-0.320298 8:0.227573 
-0.0 -1.0 -0.0 -0.0 0.0 1:0.267315 2:-0.06152 3:0.332799 4:0.070702 5:-0.304477 6:-0.941632 7:-0.133308 8:-1.600712 
-1.0 -1.0 -1.0 -0.7071138136896421 0.0 1:-0.288974 2:-0.447363 3:-0.423858 4:0.394766 5:0.259727 6:2.491901 7:-0.932694 8:0.257158 
-0.0 -0.0 -0.0 -1.0 0.0 1:-0.08166 2:-0.136888 3:-0.026982 4:0.045675 5:-0.12486 6:0.450559 7:-0.082989 8:0.004678 
-1.0 -0.0 -0.0 -0.3219417334893173 0.0 1:-0.168437 2:-0.320597 3:0.691511 4:0.074855 5:-1.372126 6:1.061716 7:1.817796 8:-0.760563 
-0.0 -0.0 -0.0 -1.0 0.0 1:-0.043335 2:-0.068347 3:0.010346 4:-0.01323 5:-0.13666 6:0.055157 7:-0.049778 8:-0.035815 
-0.0 -0.0 -0.0 -1.0 0.0 1:0.036265 2:-0.123748 3:0.392826 4:0.530578 5:-0.710537 6:-0.770278 7:-0.320298 8:0.227573 
-0.0 -0.0 -0.0 -1.0 0.0 1:-0.050879 2:-0.101937 3:0.067982 4:-0.011784 5:-0.241257 6:0.165515 7:0.167034 8:-0.038989 
-0.0 -1.0 -0.0 -0.0 0.0 1:-0.016931 2:0.049218 3:-0.19138 4:-0.018292 5:0.229431 6:-0.331097 7:-0.808619 8:-0.024708 
-0.0 -0.0 -0.0 -1.0 0.0 1:-0.074391 2:-0.145669 3:0.192688 4:0.005544 5:-0.467431 6:0.344755 7:0.497187 8:-0.183304 
-0.0 -0.0 -0.0 -1.0 0.0 1:-0.078368 2:-0.038663 3:0.214264 4:0.140081 5:-0.486097 6:-0.062106 7:-0.146574 8:-0.572337 
-0.0 -0.0 -0.0 -1.0 0.0 1:-0.03559 2:-0.067893 3:0.061213 4:-0.031901 5:-0.210324 6:-0.003072 7:0.105834 8:-0.051429 
-0.0 -1.0 -0.0 -0.0 0.0 1:0.183242 2:0.259831 3:0.480137 4:-0.400385 5:-0.616278 6:-2.157822 7:1.002745 8:-0.317936 
-0.9964932089553673 -0.0 -0.0 -0.0 0.0 1:-0.33376 2:0.467146 3:0.581544 4:0.42705 5:-1.169017 6:-0.637334 7:-2.069858 8:-4.190717 
-0.0 -1.0 -0.0 -0.0 0.0 1:-0.024475 2:0.015628 3:-0.133744 4:-0.016846 5:0.124834 6:-0.220739 7:-0.591807 8:-0.027882 
-0.0 -1.0 -0.0 -0.0 0.0 1:-0.024475 2:0.015628 3:-0.133744 4:-0.016846 5:0.124834 6:-0.220739 7:-0.591807 8:-0.027882 
-0.0 -0.0 -0.0 -1.0 0.0 1:-0.03559 2:-0.067893 3:0.061213 4:-0.031901 5:-0.210324 6:-0.003072 7:0.105834 8:-0.051429 
-0.0 -1.0 -0.0 -0.0 0.0 1:-0.060856 2:-0.088214 3:-0.011746 4:-0.105186 5:-0.116632 6:0.28241 7:0.175163 8:-0.059099 
-0.0 -0.0 -0.0 -1.0 0.0 1:-0.093177 2:-0.154136 3:-0.049031 4:0.065069 5:-0.103494 6:0.563967 7:-0.130195 8:0.018705 
-0.0 -0.0 -0.0 -1.0 0.0 1:-0.078368 2:-0.038663 3:0.214264 4:0.140081 5:-0.486097 6:-0.062106 7:-0.146574 8:-0.572337 
-0.0 -0.0 -0.0 -1.0 0.0 1:-0.03559 2:-0.067893 3:0.061213 4:-0.031901 5:-0.210324 6:-0.003072 7:0.105834 8:-0.051429 
-0.0 -0.0 -0.0 -1.0 0.0 1:-0.093177 2:-0.154136 3:-0.049031 4:0.065069 5:-0.103494 6:0.563967 7:-0.130195 8:0.018705 
-0.0 -1.0 -1.0 -0.0 0.0 1:0.165121 2:0.006461 3:-0.81336 4:-0.232675 5:1.356216 6:-0.688477 7:-1.202921 8:1.933816 
-0.7384874777258577 -0.0 -0.0 -0.0 0.0 1:0.311721 2:-0.066847 3:0.192569 4:0.50415 5:0.048131 6:-0.803073 7:-0.933328 8:1.664303 
-0.0 -0.0 -0.0 -1.0 0.0 1:-0.03559 2:-0.067893 3:0.061213 4:-0.031901 5:-0.210324 6:-0.003072 7:0.105834 8:-0.051429 
-0.0 -1.0 -0.0 -0.0 0.0 1:0.183242 2:0.259831 3:0.480137 4:-0.400385 5:-0.616278 6:-2.157822 7:1.002745 8:-0.317936 
-0.0 -0.0 -0.0 -0.9981642157053677 0.0 1:-0.077283 2:-0.219502 3:0.269708 4:-0.006721 5:-0.607348 6:0.551768 7:0.925876 8:-0.050096 
-0.0 -0.0 -1.0 -0.0 0.0 1:0.103426 2:-0.395898 3:-0.217265 4:-0.341084 5:0.296563 6:-0.462666 7:-0.283225 8:0.440838 
-0.0 -0.21205110365416222 -0.0 -0.0 0.0 1:0.019401 2:-0.215689 3:-0.08451 4:-0.114998 5:0.034492 6:0.29031 7:0.566116 8:0.931546 
-0.0 -0.0 -0.0 -1.0 0.0 1:-0.039563 2:-0.051552 3:-0.018472 4:-0.013953 5:-0.084361 6:-2.2E-5 7:-0.158183 8:-0.034229 
-0.0 -1.0 -0.0 -0.0 0.0 1:-0.024475 2:0.015628 3:-0.133744 4:-0.016846 5:0.124834 6:-0.220739 7:-0.591807 8:-0.027882 
-0.0 -0.0 -0.0 -1.0 0.0 1:-0.043335 2:-0.068347 3:0.010346 4:-0.01323 5:-0.13666 6:0.055157 7:-0.049778 8:-0.035815 
-1.0 -0.0 -1.0 -1.0 0.0 1:-0.107459 2:-0.353863 3:0.500251 4:-9.36E-4 5:-1.025738 6:0.993201 7:1.793123 8:-0.06279 
-0.6119540494514658 -0.3783930881481799 -1.0 -0.7658232843083691 0.1589328948541257 1:0.165121 2:0.006461 3:-0.81336 4:-0.232675 5:1.356216 6:-0.688477 7:-1.202921 8:1.933816 
-0.0 -1.0 -0.0 -1.0 0.0 1:-0.070142 2:-0.119639 3:-0.004933 4:0.026281 5:-0.146226 6:0.337151 7:-0.035783 8:-0.009349 
-0.0 -0.0 -0.18332744096022618 -0.8736052771219459 0.08722243710137893 1:-0.60166 2:-0.207425 3:-0.126891 4:-0.131094 5:-0.260799 6:0.664705 7:0.625569 8:3.047232 
-0.0 -0.0 -0.0 -1.0 0.0 1:-0.043335 2:-0.068347 3:0.010346 4:-0.01323 5:-0.13666 6:0.055157 7:-0.049778 8:-0.035815 
-1.0 -0.0 -0.0 -0.0 0.0 1:0.017659 2:0.037224 3:0.31529 4:0.585425 5:-0.569258 6:-1.156899 7:-1.167807 8:-0.317951 
-0.5782577691776619 -0.0 -0.0 -0.0 0.0 1:-0.169062 2:-0.018611 3:0.421683 4:0.139074 5:-0.881735 6:0.247366 7:0.107974 8:-1.432948 
-0.0 -1.0 -0.0 -1.0 0.0 1:-0.070142 2:-0.119639 3:-0.004933 4:0.026281 5:-0.146226 6:0.337151 7:-0.035783 8:-0.009349 
-0.0 -1.0 -0.0 -0.0 0.0 1:0.267315 2:-0.06152 3:0.332799 4:0.070702 5:-0.304477 6:-0.941632 7:-0.133308 8:-1.600712 
-0.0 -0.0 -0.5728097385550732 -0.0 0.0 1:0.103426 2:-0.395898 3:-0.217265 4:-0.341084 5:0.296563 6:-0.462666 7:-0.283225 8:0.440838 
-0.44184605999678567 -0.0 -0.0 -0.0 0.0 1:0.055616 2:-0.044601 3:0.120761 4:0.663182 5:-0.246174 6:-1.183972 7:-1.388353 8:0.694359 
-0.0 -0.0 -0.0 -1.0 0.0 1:-0.03559 2:-0.067893 3:0.061213 4:-0.031901 5:-0.210324 6:-0.003072 7:0.105834 8:-0.051429 
-0.0 -1.0 -0.0 -0.0 0.0 1:-0.001218 2:-0.185588 3:-0.036824 4:-0.085404 5:-0.051764 6:0.262537 7:0.467579 8:0.654024 
-0.607744999932445 -0.7766268296850038 -0.0 -0.5668129532478876 0.0 1:0.311721 2:-0.066847 3:0.192569 4:0.50415 5:0.048131 6:-0.803073 7:-0.933328 8:1.664303 
-0.9974691482675393 -0.8066316327491448 -1.0 -0.766894827673902 0.30686460158788853 1:-0.288974 2:-0.447363 3:-0.423858 4:0.394766 5:0.259727 6:2.491901 7:-0.932694 8:0.257158 
-0.0 -1.0 -0.0 -0.0 0.0 1:-0.028247 2:-0.001167 3:-0.104926 4:-0.016123 5:0.072535 6:-0.16556 7:-0.483401 8:-0.029468 
-0.5391315607064547 -1.0 -0.0 -0.7442760931043783 0.02720838799874267 1:0.183242 2:0.259831 3:0.480137 4:-0.400385 5:-0.616278 6:-2.157822 7:1.002745 8:-0.317936 
-0.7871718164625049 -0.9632435940517707 -0.8069747142836986 -0.0 0.007897641791323046 1:-0.682675 2:0.139771 3:0.268533 4:-0.791705 5:-0.80514 6:-0.964095 7:1.735893 8:2.615569 
-0.0 -0.0 -0.0 -1.0 0.0 1:-0.043335 2:-0.068347 3:0.010346 4:-0.01323 5:-0.13666 6:0.055157 7:-0.049778 8:-0.035815 
-1.0 -0.022390317175036797 -0.0 -0.0 0.0 1:0.077092 2:0.063652 3:0.28297 4:0.73902 5:-0.470759 6:-1.638813 7:-1.627558 8:0.007725 
-0.0 -0.0 -0.0 -1.0 0.0 1:-0.059303 2:-0.078489 3:0.077416 4:0.002651 5:-0.258236 6:0.124039 7:0.063563 8:-0.176957 
-1.0 -1.0 -0.8324302628187408 -1.0 1.0 1:0.183242 2:0.259831 3:0.480137 4:-0.400385 5:-0.616278 6:-2.157822 7:1.002745 8:-0.317936 
-1.0 -0.9411218582499088 -0.6402702788462616 -0.0 0.21472979434263278 1:0.077092 2:0.063652 3:0.28297 4:0.73902 5:-0.470759 6:-1.638813 7:-1.627558 8:0.007725 
-1.0 -1.0 -0.7578022494388446 -1.0 1.0 1:0.183242 2:0.259831 3:0.480137 4:-0.400385 5:-0.616278 6:-2.157822 7:1.002745 8:-0.317936 
-1.0 -0.9244691633567487 -0.0 -0.7734348688801783 0.36792855061652974 1:-0.168437 2:-0.320597 3:0.691511 4:0.074855 5:-1.372126 6:1.061716 7:1.817796 8:-0.760563 
-0.0 -1.0 -0.4227729140371569 -0.0 0.4383600326407297 1:0.267315 2:-0.06152 3:0.332799 4:0.070702 5:-0.304477 6:-0.941632 7:-0.133308 8:-1.600712 
-1.0 -0.0 -0.0 -0.0 0.0 1:-0.169062 2:-0.018611 3:0.421683 4:0.139074 5:-0.881735 6:0.247366 7:0.107974 8:-1.432948 
-1.0 -0.0 -0.0 -0.0 0.0 1:0.055616 2:-0.044601 3:0.120761 4:0.663182 5:-0.246174 6:-1.183972 7:-1.388353 8:0.694359 
-0.0 -0.539533740576412 -0.21234181532870408 -0.2878222269041694 0.0 1:-0.219349 2:0.367026 3:0.256661 4:0.276915 5:-0.580837 6:-0.664006 7:-1.902392 8:-2.798345 
-0.0 -0.0 -0.0 -1.0 0.0 1:-0.175035 2:-0.020618 3:0.079243 4:-0.166246 5:-0.299839 6:-0.10359 7:0.439096 8:0.583529 
-0.0 -0.0 -0.0 -1.0 -0.0 1:-0.495665 2:-6.01E-4 3:1.545139 4:0.740229 5:-0.541283 6:-2.222494 7:1.142314 8:-1.155014 
-0.0 -0.0 -0.0 -1.0 -0.18443707664577938 1:-0.495665 2:-6.01E-4 3:1.545139 4:0.740229 5:-0.541283 6:-2.222494 7:1.142314 8:-1.155014 
-0.9920991811692111 -0.7968120836376081 -0.5281279472592003 -1.0 -1.0 1:-0.495665 2:-6.01E-4 3:1.545139 4:0.740229 5:-0.541283 6:-2.222494 7:1.142314 8:-1.155014 
-1.0 -1.0 -1.0 -1.0 -1.0 1:-0.495665 2:-6.01E-4 3:1.545139 4:0.740229 5:-0.541283 6:-2.222494 7:1.142314 8:-1.155014 
-0.9729365768197195 -1.0 -0.9837760654885447 -1.0 -0.9855575026428791 1:-0.495665 2:-6.01E-4 3:1.545139 4:0.740229 5:-0.541283 6:-2.222494 7:1.142314 8:-1.155014 
-0.7755782363972618 -0.6696664420194924 -0.7840219019805519 -0.7807112432800724 -0.5185260858868621 1:0.63626 2:0.835644 3:-1.817438 4:0.602154 5:0.682516 6:6.508841 7:2.18706 8:-0.503265 
-1.0 -0.9980551067376876 -0.9949501879980256 -0.9813348184153832 -1.0 1:0.63626 2:0.835644 3:-1.817438 4:0.602154 5:0.682516 6:6.508841 7:2.18706 8:-0.503265 
