svm_type c_svc
kernel_type rbf
gamma 0.09090909090909091
nr_class 6
total_sv 313
rho -0.2072097794157185 -0.5298499002805371 -0.6087449165336081 -0.7488254653629807 -0.8928259229809912 -0.26509802084003425 -0.48057135943138785 -0.5800651061241273 -0.8584282141497889 -0.36944565967158394 -0.56772189291839 -0.8239363908547894 -0.3606250061623866 -0.8026968042542807 -0.7495344707197371
label 3 1 4 2 5 31
nr_sv 87 57 63 55 49 2
SV
0.30820708272932273 0.5982080767433393 0.2564213012288085 0.22087368483591194 0.0649062452479525 1:1.422113 2:-0.925867 3:-0.242894 4:1.769571 5:-0.913361 6:0.747223 7:2.07559 8:-0.270246 9:0.68777 10:-0.17767 11:0.197062 
0.0 0.3280509440869397 0.0 0.0 0.004022811229101145 1:1.640871 2:0.316435 3:0.217631 4:0.658006 5:0.076393 6:1.470317 7:-2.536862 8:-0.762227 9:-0.711596 10:-0.435246 11:0.518289 
0.28925354011967663 0.0 0.07387988006740114 0.11532696668547757 0.012724114023827995 1:1.518432 2:0.474545 3:0.491362 4:0.244281 5:-0.662266 6:-3.485309 7:-0.767626 8:0.896373 9:-1.021278 10:-1.148962 11:0.890038 
0.0 0.0 0.12289500255202011 0.11576215291710819 0.0 1:1.597073 2:0.160286 3:0.694877 4:0.050133 5:-0.953031 6:-2.470827 7:-0.355695 8:-0.255384 9:-0.371588 10:0.567872 11:0.567334 
0.0 0.35042601772072957 0.0 0.09202312625856586 0.0 1:0.613272 2:1.674895 3:0.354913 4:0.769262 5:0.639674 6:1.356472 7:-0.709109 8:0.921728 9:-0.230025 10:0.403352 11:0.013825 
0.0 0.12193221349863183 0.0 0.0 0.0 1:1.690799 2:0.244136 3:0.338729 4:-0.136155 5:-0.461555 6:0.581506 7:-2.426265 8:0.568821 9:-0.145502 10:0.012895 11:0.161845 
0.2507199122442817 0.0 0.22530850605619188 0.1255876193821418 0.0015310370915825545 1:0.742195 2:1.718558 3:0.735724 4:1.607078 5:0.349194 6:0.056632 7:1.829081 8:-1.215299 9:0.82995 10:0.121796 11:0.048666 
0.0 0.0 0.43770230270068206 0.0 0.02369699306811216 1:1.393721 2:-0.969535 3:-0.353381 4:1.443919 5:-0.895656 6:1.123548 7:1.394661 8:0.313278 9:0.396198 10:-0.163208 11:0.189355 
0.41769380073761275 0.24813582269026888 0.20468043970713984 0.1328689269090668 0.055645087389614344 1:2.019764 2:0.232865 3:0.447529 4:0.213717 5:1.192993 6:0.289243 7:3.040377 8:0.296996 9:-4.007432 10:-0.299496 11:-13.110252 
0.0 0.10155729834264397 0.0 0.0 0.0 1:1.665206 2:0.118638 3:0.598334 4:-0.66633 5:-1.008582 6:-1.142102 7:-1.465233 8:-0.491947 9:0.157715 10:-0.434568 11:0.130001 
0.0 0.0 0.0 0.1734096068001316 0.0 1:0.74569 2:-0.397607 3:1.834617 4:0.129944 5:-0.241182 6:0.950028 7:-1.577467 8:0.295426 9:0.139853 10:0.126136 11:0.152864 
0.0 0.0 0.0 0.7243417983508909 0.0 1:0.627303 2:-0.017707 3:1.832051 4:1.19532 5:-0.023777 6:-1.533162 7:-0.072809 8:1.224337 9:1.105901 10:-0.609232 11:0.003926 
0.4287121043774126 0.48558046178976433 0.4173979751321443 0.22850673423783355 0.05665307520677332 1:1.94593 2:0.322676 3:0.398429 4:0.705873 5:-0.122148 6:0.053636 7:0.849325 8:-0.204842 9:-3.367101 10:-0.020691 11:2.107572 
0.0 0.44087339340037107 0.012691744123261814 0.0 0.0 1:0.873821 2:1.016658 3:0.455614 4:-1.648711 5:-1.24598 6:0.66433 7:0.680405 8:1.211194 9:0.360153 10:-0.446948 11:-0.099603 
0.8576040839392894 0.7504341579228904 0.30600635017460337 0.3406146687378422 0.10184244256217526 1:1.022814 2:-0.852079 3:-0.124802 4:1.131417 5:-0.923306 6:-2.892156 7:1.303698 8:0.980391 9:1.642043 10:-1.032903 11:-0.620368 
0.7121306870400834 0.4105128060256728 0.35161339032844663 0.21523015370451726 0.09628829133582076 1:1.198107 2:0.160525 3:0.476395 4:0.48017 5:-0.997746 6:-3.479767 7:1.239877 8:1.737665 9:-6.534053 10:6.835504 11:3.611771 
0.0 1.0 0.0 0.0 0.0 1:0.539529 2:1.563746 3:0.469499 4:0.246554 5:0.475266 6:0.644209 7:-1.050551 8:0.369347 9:0.007033 10:-0.066682 11:-0.22754 
0.6115103427698351 1.0 1.0 0.0 0.0 1:0.444841 2:1.377505 3:0.747646 4:-0.336036 5:0.187034 6:-0.534424 7:-1.133048 8:-0.444993 9:0.471929 10:0.079736 11:-0.590991 
0.0 0.0 0.016061036688407224 0.0 0.0 1:1.315753 2:-0.994585 3:-0.583054 4:1.05521 5:-0.683 6:1.714985 7:-0.057403 8:1.330169 9:-0.147427 10:0.106355 11:0.127032 
0.5390129758108915 0.20989981412478695 0.1616830113084149 0.060490938329890054 0.06413442088113416 1:1.956399 2:0.245429 3:0.253466 4:-0.131621 5:1.326498 6:0.804557 7:1.616933 8:1.202705 9:-1.513447 10:-0.025997 11:-3.364437 
0.0 1.0 0.6441681454741867 0.0 0.0 1:1.138201 2:-1.234532 3:-0.094732 4:0.141074 5:-1.026613 6:-0.089426 7:-0.435964 8:-0.314779 9:0.554904 10:-0.146062 11:-0.455009 
0.0 0.0 0.0 0.07952565498479658 0.0 1:1.847106 2:0.311053 3:0.499268 4:0.508629 5:-0.84823 6:-0.362693 7:0.071443 8:-0.566153 9:-1.50435 10:-0.136878 11:1.419029 
0.0 1.0 0.0 0.0 0.0 1:1.172176 2:-1.261472 3:-0.290865 4:-0.077357 5:-1.078156 6:0.349508 7:-0.774372 8:0.562505 9:0.282864 10:0.022576 11:-0.391454 
0.3912574087460614 0.1646821564113069 0.13036830418050924 0.04007534110803426 0.052405289967031386 1:1.760326 2:0.125217 3:0.802441 4:-0.113489 5:-1.122912 6:-1.965525 7:-0.19249 8:-1.677883 9:-4.737703 10:-0.198291 11:2.890889 
0.10933958789805834 0.0 0.0 0.0 0.012273247868725778 1:1.740679 2:0.098288 3:0.853532 4:-0.22542 5:-1.158975 6:-1.888283 7:-0.237467 8:-1.713616 9:-2.840973 10:-0.420082 11:1.923912 
0.0 1.0 0.0 0.0 0.0 1:1.161132 2:-1.253575 3:-0.198289 4:-0.014024 5:-1.096728 6:0.18974 7:-0.537053 8:0.240675 9:0.402375 10:-0.192808 11:-0.390942 
0.0 0.0 0.0 1.0 0.0 1:0.648384 2:-0.129521 3:1.796559 4:0.823157 5:-0.058962 6:-0.722393 7:-0.716776 8:1.147569 9:0.741548 10:-0.397481 11:0.043915 
0.0 0.4921572796384825 0.022561663273154488 0.0 0.0 1:1.863317 2:0.202188 3:0.369355 4:0.178915 5:1.686375 6:0.873104 7:1.007361 8:0.056783 9:-2.248831 10:-0.141233 11:-2.030963 
0.48502534620497595 0.28717149526001595 0.2386427108086466 0.15347310984631768 0.06588239026939208 1:2.055479 2:0.261124 3:0.514096 4:0.488018 5:0.922727 6:-0.38879 7:3.750531 8:-0.372974 9:-8.579267 10:-0.51179 11:-9.022728 
0.7004029683013733 0.5314803002111381 0.3462785698665053 0.33057882329742727 0.09519273158620145 1:1.095492 2:0.0513 3:0.466476 4:0.526461 5:-0.975981 6:-3.109413 7:1.33213 8:2.122519 9:-2.616929 10:8.851123 11:1.519132 
0.0 0.0 0.0 0.13352066356361156 0.0 1:0.750718 2:-0.395339 3:1.849705 4:0.160717 5:-0.251885 6:0.901912 7:-1.484691 8:0.219039 9:0.178961 10:0.1237 11:0.153579 
0.33229256838615845 0.040021726040339434 0.07374305823820988 0.004651371689981838 0.0 1:0.614509 2:1.68259 3:0.327447 4:0.781086 5:0.664458 6:1.463129 7:-0.773324 8:1.032134 9:-0.287804 10:0.409171 11:0.034602 
0.0 0.16114223449472276 0.0 0.34942590235409327 0.0 1:1.697756 2:0.317469 3:0.6106 4:0.209093 5:-0.613448 6:-2.048428 7:0.227229 8:-0.323093 9:-2.166026 10:-0.448086 11:1.20425 
0.0 0.0 0.37795666221185037 0.0 0.0 1:1.728782 2:0.136432 3:0.810495 4:-0.293686 5:-1.130787 6:-1.720086 7:-0.367087 8:-1.671928 9:-0.728358 10:-0.401023 11:0.820241 
0.0 0.0 0.6951017540214038 0.0 0.0 1:0.678069 2:1.696776 3:0.512114 4:1.218842 5:0.513123 6:0.788785 7:0.558777 8:-0.111868 9:0.263768 10:0.159289 11:0.060159 
0.0 0.0 0.0 1.0 0.0 1:1.229095 2:-1.155614 3:-0.305936 4:0.475764 5:-0.939864 6:0.652816 7:-0.242364 8:0.664483 9:0.260206 10:-0.429102 11:-0.178903 
0.7480706021177601 0.4389863378469785 0.3699546856095056 0.23693429461217724 0.10088224918449537 1:2.02178 2:0.2927 3:0.515884 4:0.66654 5:0.474441 6:-0.36068 7:2.724263 8:-0.510695 9:-8.712383 10:-0.549648 11:-3.832741 
0.0 0.0 0.07895081704702907 0.0 0.0 1:0.84998 2:-0.367908 3:2.133463 4:0.696649 5:-0.461806 6:0.096677 7:0.199313 8:-1.254183 9:0.875548 10:0.107308 11:0.172962 
0.0 0.0 0.0 0.24490556853346152 0.0 1:0.654473 2:1.579088 3:0.909009 4:1.010717 5:0.152065 6:-0.762948 7:1.429222 8:-1.691581 9:1.091346 10:0.074437 11:-0.252204 
0.0 0.0 0.07815403543902162 0.0 0.0 1:0.819852 2:0.907206 3:0.826291 4:-1.53411 5:-0.874376 6:1.445804 7:-0.317641 8:-1.198094 9:0.123947 10:0.69385 11:-0.24536 
0.0 0.0 0.0 1.0 0.0 1:0.607138 2:-0.169504 3:1.658891 4:0.530466 5:0.057575 6:-0.25463 7:-1.714203 8:1.973161 9:0.348547 10:-0.613336 11:0.03972 
0.0 0.0 0.0 0.08596025286910212 0.0 1:1.212557 2:-1.155961 3:-0.279306 4:0.406297 5:-0.988231 6:0.501006 7:-0.137045 8:0.458329 9:0.338578 10:-0.198085 11:-0.224116 
0.6549063188333456 0.5075042721052431 0.25231761549416654 0.33225652675115663 0.07453397006006726 1:1.652552 2:0.025146 3:0.190147 4:0.170822 5:2.041384 6:1.255605 7:0.529022 8:-1.075757 9:-1.941796 10:-2.968378 11:-2.141997 
0.0 1.0 0.0 0.2176676882641941 0.0 1:1.089705 2:-1.141003 3:-0.18199 4:0.49075 5:-0.542999 6:0.813259 7:-1.342021 8:-0.388025 9:0.072406 10:0.131909 11:-0.369622 
0.4398197372825432 1.0 0.753877396559482 0.14760575771113765 0.0 1:1.10123 2:-1.210691 3:-0.213125 4:0.176777 5:-0.740067 6:0.492877 7:-1.337736 8:-0.108934 9:0.173066 10:0.234783 11:-0.458746 
0.0 0.8365741814451451 0.0 0.0 0.0 1:0.545814 2:1.487472 3:0.83845 4:0.262957 5:0.180052 6:-0.605052 7:-0.038593 8:-0.896125 9:0.72825 10:0.294821 11:-0.448973 
0.4281726101955917 0.661058205882999 0.2039092722719267 0.0 0.01752628276851801 1:1.147327 2:-0.970392 3:-0.297504 4:1.428747 5:0.021589 6:1.908511 7:-1.567393 8:-0.597748 9:-0.338899 10:0.419291 11:-0.116416 
0.0 0.0 0.1382734291441193 0.0 0.0 1:0.741156 2:-0.191674 3:1.990301 4:0.961371 5:-0.248143 6:-0.7423 7:0.10964 8:-0.053116 9:1.010279 10:-0.25218 11:0.088801 
0.0 1.0 0.0 0.0 0.0 1:0.5789 2:1.6021 3:0.432788 4:0.582151 5:0.532296 6:0.90826 7:-0.661689 8:0.490242 9:-0.035722 10:0.162412 11:-0.098132 
0.0 0.0 0.7108942117880495 0.0 0.0 1:1.203969 2:-1.238336 3:0.037903 4:0.307013 5:-1.27156 6:-0.720331 7:0.662093 8:-0.83253 9:1.013255 10:-0.264533 11:-0.451945 
0.48837712442358294 0.7935473413217989 0.5299965654225888 1.0 0.0 1:0.556838 2:1.555854 3:0.104835 4:0.744642 5:0.65523 6:1.437808 7:-0.660716 8:0.408218 9:-0.266811 10:-1.531611 11:0.137833 
0.0 0.11847945615979044 0.0 0.08793377175131327 0.0 1:1.183996 2:-1.233043 3:-0.191828 4:0.16576 5:-1.063213 6:0.136369 7:-0.378079 8:0.315935 9:0.448683 10:-0.4586 11:-0.350114 
0.0 0.12805410654478722 0.43907063632677795 0.0 0.0 1:0.524751 2:1.442898 3:0.924035 4:0.088153 5:0.068017 6:-1.110411 7:0.069661 8:-1.473545 9:0.970606 10:-0.162227 11:-0.559251 
0.53767725984925 0.6161792827308255 0.5587100443410362 0.7947885155739636 0.13286530310186098 1:0.703442 2:0.890942 3:0.407666 4:-1.284089 5:-1.133853 6:0.146302 7:0.859479 8:2.889327 9:0.344269 10:1.415105 11:-0.174541 
0.7638707684176673 0.0 0.45264742367543426 0.17413840367618816 0.09003254109352368 1:0.697307 2:0.801778 3:0.755001 4:-1.334696 5:-0.592118 6:1.527797 7:-0.691441 8:-2.557983 9:0.072561 10:-0.583638 11:-0.240193 
0.0 0.0 0.2279051777437376 0.0 0.0 1:0.731112 2:-0.407036 3:1.782828 4:-0.079619 5:-0.192733 6:1.300286 7:-2.153325 8:0.730071 9:-0.106211 10:0.383991 11:0.139549 
0.15033475242916164 0.01284526272944503 0.32406790374283634 0.0 0.1444911246615618 1:0.583514 2:0.049203 3:1.771186 4:1.2853 5:0.062518 6:-1.837339 7:-0.142981 8:1.715665 9:1.142679 10:-0.74656 11:-0.028718 
0.0 1.0 0.0 0.8539175669636628 0.0 1:0.494968 2:1.457203 3:0.648626 4:0.004741 5:0.29968 6:-0.066092 7:-0.904557 8:-0.172832 9:0.32256 10:0.106798 11:-0.419065 
0.26986493119788907 0.0 0.23094513148345375 0.0 0.001986885161607983 1:0.971217 2:0.841317 3:0.582562 4:-1.847069 5:-1.478458 6:1.331663 7:0.942533 8:0.304538 9:0.280274 10:0.03973 11:-0.015782 
0.0 0.6131977413062933 0.0 0.15294680160427826 0.0 1:1.463689 2:0.29565 3:0.334914 4:-0.53711 5:-0.593011 6:-1.762317 7:-2.449568 8:1.463048 9:-0.294856 10:-0.583823 11:0.131261 
0.051457660523418325 0.0 0.0 0.0 0.0 1:1.420833 2:0.40216 3:0.237199 4:-0.370325 5:-0.544279 6:-2.33808 7:-2.243321 8:2.329981 9:0.397372 10:-0.869129 11:-0.168849 
0.04904919986675596 1.0 0.70931121767652 0.6505633877348491 0.25801264701176196 1:0.777962 2:1.124525 3:0.341262 4:-1.450284 5:-1.079437 6:0.065007 7:0.572001 8:2.263398 9:0.424764 10:-0.507932 11:-0.165856 
0.0 0.43904021032282164 0.0 0.0 0.0 1:1.163188 2:-1.166173 3:-0.269192 4:0.327982 5:-0.860451 6:0.619481 7:-0.671354 8:0.339314 9:0.209996 10:-0.106818 11:-0.286654 
0.0 1.0 0.0 0.0 0.0 1:0.528255 2:1.46528 3:0.848117 4:0.146989 5:0.162594 6:-0.674019 7:-0.188492 8:-0.887779 9:0.726485 10:0.290492 11:-0.492669 
0.5627876575814216 0.0 0.013028875823262403 0.11662372488151633 0.03400420919516124 1:1.287414 2:-1.185692 3:0.152405 4:0.754448 5:-1.383639 6:-1.084862 7:1.844121 8:-1.466003 9:1.397406 10:-0.310299 11:-0.366649 
0.7776418199598278 0.0 0.0 0.0 0.04274235734772905 1:0.61822 2:1.535207 3:1.054681 4:0.632726 5:0.022169 6:-1.346237 7:1.199769 8:-2.069104 9:1.303377 10:0.043656 11:-0.459501 
0.0167262827127683 1.0 0.0 0.0 0.005693844768620511 1:1.534844 2:0.077842 3:0.609255 4:-0.774006 5:-0.601069 6:-0.512254 7:-2.955141 8:-0.751505 9:0.23487 10:0.088035 11:-0.262819 
0.0 0.6711098306969686 0.0 0.0 0.0 1:0.710971 2:0.836893 3:0.808132 4:-1.348545 5:-0.589144 6:1.529262 7:-0.757913 8:-2.408799 9:0.064439 10:-0.152096 11:-0.271311 
0.0 1.0 0.0 0.07855931591759767 0.0 1:0.688355 2:-0.245725 3:1.536546 4:0.069911 5:0.060869 6:0.541305 7:-2.722812 8:1.527668 9:-0.015915 10:-0.311281 11:-0.010067 
0.0 0.0 0.9414830597061409 0.0 0.0 1:0.915759 2:0.865621 3:0.642057 4:-1.734733 5:-1.278282 6:1.325278 7:0.549466 8:-0.120787 9:0.237747 10:0.157832 11:-0.087152 
0.0 0.0 0.2039767041353088 0.0 0.0 1:1.620803 2:0.305339 3:0.704036 4:-0.015929 5:-0.929536 6:-2.592695 7:-0.430091 8:-0.362938 9:-1.409454 10:-0.327348 11:1.132422 
0.0 0.0 0.003112294303628176 0.5372224111027321 0.01735568859104058 1:0.851278 2:-0.349991 3:2.151466 4:0.776192 5:-0.465954 6:-0.060389 7:0.370831 8:-1.30869 9:0.96112 10:0.07497 11:0.167862 
0.0 0.0 0.0 1.0 0.0 1:0.648207 2:1.569126 3:0.921386 4:0.96812 5:0.137984 6:-0.82149 7:1.400661 8:-1.725601 9:1.110017 10:0.071055 11:-0.273695 
0.0 0.0 0.0 0.8019861885712827 0.0 1:1.334467 2:-1.093849 3:0.055341 4:1.15669 5:-1.22033 6:-0.547099 7:2.025367 8:-1.26454 9:1.21939 10:-0.250741 11:-0.1862 
0.5461256345472434 0.5645853625410738 0.33804686554450275 0.4428079598952757 0.048232906317585145 1:1.309537 2:0.060627 3:0.406936 4:0.084449 5:-0.604085 6:-2.580724 7:-1.565595 8:3.151771 9:-0.375996 10:2.753668 11:0.157986 
0.6904112541534313 0.25157061800406505 0.12732116642062544 0.79333812224205 0.047050911354653266 1:0.530585 2:-0.152032 3:1.471492 4:0.276717 5:0.216386 6:0.044014 7:-2.684067 8:3.031823 9:-0.020466 10:-0.671367 11:0.012992 
0.0 1.0 0.0 1.0 0.0 1:0.501234 2:1.467165 3:0.636249 4:0.047338 5:0.31376 6:-0.007551 7:-0.875996 8:-0.138812 9:0.303889 10:0.11018 11:-0.397574 
0.7573287484692997 0.8501265922347031 0.6490033054929525 1.0 0.0829986835939294 1:0.407863 2:0.397658 3:1.522014 4:1.01515 5:-0.138234 6:-1.617686 7:1.343114 8:0.404735 9:1.220216 10:4.055389 11:-0.086931 
0.39433399819565984 0.23453165350069163 0.19547697696388555 0.12557473756147083 0.053029799400763 1:2.060813 2:0.232959 3:0.542523 4:0.477243 5:1.102444 6:-0.35319 7:3.803257 8:-0.344336 9:-8.080652 10:-0.803679 11:-11.388818 
0.0 1.0 0.0 0.4559085487509506 0.0 1:1.142094 2:-1.157321 3:-0.172861 4:0.519902 5:-0.700678 6:0.497358 7:-0.835417 8:-0.459504 9:0.283945 10:0.265245 11:-0.38218 
0.5073023030265233 0.2748179554500978 0.2346201023007814 0.10548730171582898 0.07537670159077112 1:1.497079 2:0.49113 3:0.522039 4:0.330721 5:-0.687491 6:-3.801889 7:-0.486446 8:0.975196 9:-4.461804 10:-1.210333 11:2.698642 
0.0 0.0 0.47188475541573915 0.0 0.0 1:0.535373 2:1.455028 3:0.993154 4:0.100179 5:0.034016 6:-1.26445 7:0.193416 8:-1.585746 9:1.063432 10:0.045288 11:-0.594872 
0.0 1.0 0.0 0.0 0.0 1:1.17993 2:-1.223689 3:-0.235422 4:0.113768 5:-1.054487 6:0.365365 7:-0.451369 8:0.342736 9:0.346362 10:-0.18266 11:-0.326469 
0.3270350173424626 0.19337872513937926 0.16293969147108095 0.10312778324166189 0.0449493529894929 1:1.988735 2:0.20433 3:0.346631 4:0.067454 5:1.243388 6:0.515402 7:2.63383 8:0.593389 9:-4.541273 10:-0.525369 11:-13.458134 
0.0 1.0 0.0 0.0 0.0 1:1.528706 2:0.266568 3:0.446708 4:-0.425821 5:-0.742975 6:-1.864926 7:-1.784322 8:0.826723 9:0.195309 10:-0.5464 11:0.030479 
0.5514751379113437 0.4495935405649403 0.26992747802226336 0.11373737279366548 0.021036364079411795 1:1.288909 2:-1.000209 3:-0.580251 4:0.945806 5:-0.684639 6:1.784902 7:-0.208159 8:1.49499 9:-0.213479 10:-0.125959 11:0.136941 
0.0 0.0 0.0 0.23453967411800453 0.0 1:0.68374 2:1.678127 3:0.691095 4:1.183575 5:0.379986 6:0.20812 7:0.939391 8:-0.665696 9:0.58771 10:0.343527 11:-0.058569 
-0.4381564598727385 0.2557266662533042 0.1011508162308011 0.8295226271770217 0.045991937480613795 1:-0.504253 2:-0.783634 3:-1.160341 4:-0.655114 5:0.224193 6:1.329109 7:-1.683586 8:0.242997 9:-1.030139 10:-5.527788 11:0.203618 
-0.16820861235988413 0.09910272504318779 0.09217378338304162 0.059293553753306 0.02058313725952026 1:-2.081736 2:-0.258764 3:-0.502075 4:-0.0931 5:0.012569 6:0.888766 7:-1.71299 8:0.875832 9:7.391168 10:0.135999 11:-2.536814 
-0.0 0.10873748220420938 0.0 0.0 0.0 1:-0.834641 2:-1.71016 3:-0.440879 4:-0.998431 5:-0.45571 6:-0.652582 7:-0.5395 8:0.182036 9:-0.270595 10:-0.096302 11:-0.414642 
-0.0 0.0 1.0 0.0 0.0 1:-0.716674 2:-1.585598 3:-0.398685 4:-0.233948 5:-0.432641 6:-0.596433 7:0.766651 8:-0.318014 9:-0.027119 10:-0.089276 11:-0.191879 
-0.0 0.0 0.0 0.28431250491361276 0.0 1:-1.404402 2:1.155216 3:0.119975 4:-0.384781 5:1.230408 6:0.446743 7:-0.842745 8:0.664557 9:-0.889385 10:0.303841 11:-0.052974 
-0.42062277816434845 1.0 1.0 0.43654797104447646 0.0 1:-1.278855 2:1.268925 3:0.247276 4:0.417602 5:1.182502 6:0.193349 7:0.777387 8:-0.209079 9:-0.452134 10:0.294355 11:0.129664 
-0.0 0.04788232415577844 1.0 1.0 0.0 1:-1.288834 2:1.235878 3:0.34205 4:0.339535 5:1.094069 6:-0.185162 7:0.94147 8:-0.574319 9:-0.260126 10:0.273515 11:0.045844 
-0.9396998449396194 0.5732250371459781 0.3988358150147973 0.32688028024191884 0.10952682069630966 1:-2.197808 2:-0.268523 3:-0.399207 4:-0.188837 5:-1.038183 6:0.369675 7:-3.192384 8:0.308281 9:7.228555 10:-0.119743 11:-5.092445 
-0.0 0.0 0.14069172566391686 0.0 0.0 1:-1.686773 2:-0.424209 3:-0.460107 4:0.062087 5:0.924292 6:2.99369 7:0.86018 8:-0.484845 9:0.522395 10:0.88663 11:0.121944 
-0.46354589785419303 0.0 0.29796864737436696 0.0 0.0 1:-1.307141 2:0.94539 3:0.535925 4:-0.951645 5:0.158908 6:-2.110706 7:1.602708 8:-0.332354 9:0.540095 10:-0.235153 11:-0.349996 
-0.0 1.0 1.0 1.0 0.10163185417496558 1:-0.603889 2:-1.406279 3:-0.62148 4:0.532801 5:-0.179189 6:0.457313 7:1.280755 8:0.294348 9:-0.363199 10:-0.028387 11:0.194954 
-0.19790504130762346 0.1263176733694633 0.09348146477677396 0.11281370494595953 0.021173434795241492 1:-1.797409 2:-0.507886 3:-0.359132 4:-0.40106 5:0.838512 6:2.282276 7:0.363489 8:-0.453424 9:3.979802 10:0.748751 11:-1.806994 
-0.0 0.0 1.0 0.0 0.0 1:-1.327667 2:1.168411 3:0.44378 4:0.072128 5:0.984801 6:-0.643068 7:0.834316 8:-0.888846 9:-0.090321 10:0.247399 11:-0.103877 
-0.7130501334578947 0.29853948423630605 0.0 0.0 0.0 1:-1.437901 2:0.97597 3:0.736594 4:-0.687494 5:0.671078 6:-1.958242 7:0.541418 8:-1.798408 9:0.400425 10:0.172435 11:-0.531549 
-0.06702464791008642 0.6639293081757883 1.0 0.454395679297583 0.28062853384988623 1:-1.313601 2:0.929684 3:0.431817 4:-1.14325 5:0.139259 6:-1.891911 7:1.290441 8:0.259014 9:0.364508 10:-0.281197 11:-0.32763 
-0.452361211026607 0.27210843853865635 0.20209148477669653 0.15653946123966248 0.053269362784967786 1:-1.888269 2:-0.151385 3:-0.736893 4:0.428562 5:1.346934 6:2.048858 7:0.351073 8:1.856391 9:6.831828 10:0.281315 11:-3.180465 
-0.0 0.0 0.3162489547443128 0.2062754096776995 0.0 1:-0.656612 2:-0.081822 3:-1.464571 4:-0.78772 5:-0.072963 6:1.401186 7:1.505353 8:-2.840409 9:-0.480927 10:0.893513 11:0.716838 
-0.0 0.0 1.0 0.0 0.0 1:-1.330296 2:1.210044 3:0.248811 4:0.081521 5:1.154912 6:0.093102 7:0.263476 8:-0.073634 9:-0.515211 10:0.287187 11:0.019354 
-0.7717804515974718 0.4704103282287942 1.0 0.26370529235458906 0.12820143516571036 1:-1.457349 2:-0.312609 3:-0.333414 4:0.721914 5:0.169159 6:1.05049 7:4.492593 8:-0.483491 9:-0.368768 10:0.229277 11:1.39755 
-0.0 0.0 0.8944521980615527 0.6933480058965792 0.0 1:-1.356444 2:1.105478 3:0.575687 4:-0.133731 5:0.854126 6:-1.197203 7:0.912715 8:-1.356146 9:0.157701 10:0.21641 11:-0.25217 
-0.024779824430338115 0.007162512093551545 1.0 1.0 0.0 1:-0.60126 2:-1.447913 3:-0.426511 4:0.523408 5:-0.349301 6:-0.278856 7:1.851596 8:-0.520865 9:0.061692 10:-0.068176 11:0.071723 
-0.9216521504487508 0.7997665416476821 0.6792837660053469 1.0 0.03280524325020662 1:-0.612547 2:-0.297167 3:-1.485196 4:-0.960724 5:0.149302 6:1.783179 7:-0.28151 8:-1.321159 9:-0.932251 10:-1.722097 11:0.741392 
-0.0 0.3222565448386581 0.0 0.05020734871996564 0.0 1:-1.347932 2:1.216364 3:0.133528 4:-0.017927 5:1.247294 6:0.498875 7:-0.236058 8:0.452725 9:-0.787201 10:0.308572 11:0.058051 
-0.601471131194828 0.23108913988146493 0.0 0.20160867786063977 0.048441105337112315 1:-1.412058 2:1.194582 3:-0.090082 4:-0.406162 5:1.411223 6:1.231028 7:-1.506362 8:1.556156 9:-1.353383 10:0.346066 11:0.069543 
-0.0 0.0 0.9966428383390488 0.0 0.0 1:-1.815057 2:-0.118016 3:-0.558423 4:0.751223 5:1.161373 6:1.133733 7:1.558463 8:0.730364 9:-0.805309 10:0.294175 11:0.955333 
-0.802478754818983 1.0 1.0 1.0 0.07394215353240459 1:-0.712816 2:-1.524934 3:-0.020733 4:-0.691464 5:-0.570766 6:-1.223369 7:0.27469 8:-0.063274 9:0.162153 10:1.816396 11:-0.546102 
-0.8114385168970222 0.43005058964525544 0.45452691616428487 0.33391315295504265 0.07565567284428562 1:-1.596459 2:-0.556831 3:-0.326047 4:-0.088592 5:0.748852 6:3.597328 7:1.065339 8:-1.507671 9:1.290769 10:1.155126 11:-0.224919 
-0.0 0.0 0.0 0.25595258696369044 0.0 1:-0.876179 2:-1.707483 3:-0.659068 4:-1.239924 5:-0.285026 6:0.100423 7:-1.567129 8:1.200734 9:-0.795904 10:-0.056916 11:-0.358739 
-0.0 0.35445685412042777 0.0 0.0 0.0 1:-0.972061 2:0.330532 3:-1.959725 4:-0.427263 5:0.554248 6:-0.208745 7:0.406815 8:0.838797 9:-0.519305 10:0.031672 11:0.502916 
-0.0 0.0 0.0 0.09925271536429894 0.0 1:-0.750785 2:-1.536752 3:-0.781667 4:-0.404501 5:-0.113253 6:0.796511 7:-0.646267 8:1.363123 9:-0.899102 10:-0.014975 11:-0.011317 
-0.9201057994073837 0.5061102584311242 0.4412011542302078 0.4177781865748184 0.2244414400825093 1:-0.556052 2:-0.036474 3:-1.16281 4:-0.172245 5:-0.287032 6:0.438885 7:3.360875 8:-4.368139 9:0.301232 10:0.844783 11:0.731121 
-1.0 0.7081510697725744 0.0 0.044496764153014755 0.06725567321499762 1:-0.719533 2:-1.45843 3:-0.968505 4:-0.174995 5:0.06699 6:1.56396 7:-0.853095 8:2.051237 9:-1.262682 10:0.027652 11:0.178529 
-0.0 0.07173901852026247 0.12745097573368158 0.06323774015877363 0.0 1:-1.767887 2:-0.30484 3:-0.572423 4:0.222559 5:1.087475 6:2.489568 7:0.705907 8:0.435762 9:1.391417 10:0.635718 11:-0.349681 
-0.0 0.18963508282440086 0.46500909375514105 0.0 0.0 1:-1.513321 2:0.941959 3:0.510273 4:-1.1491 5:0.831629 6:-1.236516 7:-0.850224 8:-0.652611 9:-0.186194 10:0.208982 11:-0.542262 
-1.0 0.9754439187093332 0.8104052441455855 0.5456346383715218 0.2929238110879189 1:-0.835041 2:-0.939041 3:-0.886606 4:1.502396 5:0.38562 6:-1.616103 7:1.521964 8:2.622115 9:0.101721 10:-0.830936 11:0.036809 
-0.20427360156502958 0.2723587799024763 0.23957765202985087 0.19475319525961596 0.0 1:-1.309352 2:1.11652 3:0.042899 4:-0.341841 5:1.258499 6:1.642334 7:-0.965859 8:0.532525 9:-1.293138 10:0.562809 11:0.167612 
-0.0 0.0 0.6050774594757813 0.6601355703821205 0.0 1:-0.703144 2:-1.564002 3:-0.009902 4:-0.486048 5:-0.639449 6:-1.514257 7:0.931054 8:-0.745369 9:0.408983 10:1.154465 11:-0.495141 
-0.29565503904524165 0.17718267789799452 0.13971687930274734 0.10180100891045896 0.03570011879269088 1:-2.085941 2:-0.454218 3:-0.354448 4:-0.869799 5:0.850491 6:0.239067 7:-0.603077 8:0.787436 9:7.332525 10:0.144404 11:-4.367554 
-0.0 0.06718144145315544 1.0 1.0 0.0 1:-0.699344 2:-1.477872 3:-0.783203 4:-0.06842 5:-0.085664 6:0.896758 7:-0.132356 8:1.227678 9:-0.836026 10:-0.007807 11:0.098993 
-0.34126218890010857 1.0 0.652653889273825 0.6388327820523426 0.0 1:-1.088385 2:-0.90246 3:-0.446588 4:2.013575 5:1.412024 6:-1.178615 7:-0.648355 8:-0.611242 9:-0.202305 10:0.068284 11:-0.326208 
-0.5851289750265618 0.3834822020446032 0.1297009917944091 0.2053236671225875 0.059929588193604666 1:-2.072574 2:-0.455576 3:-0.341236 4:-0.885483 5:0.876406 6:0.046017 7:-0.413156 8:0.644831 9:3.931739 10:0.192581 11:-2.057593 
-0.0 0.0 0.4712215493528106 0.0 0.0 1:-0.739109 2:-1.66708 3:-0.154206 4:-0.413729 5:-0.659075 6:-1.566768 7:1.223246 8:-1.269307 9:0.472456 10:-0.142596 11:-0.401073 
-0.0 0.0 0.8492907821809712 0.0 0.0 1:-0.779333 2:-1.685219 3:-0.274911 4:-0.659919 5:-0.573448 6:-1.181848 7:0.481037 8:-0.658215 9:0.159592 10:-0.123104 11:-0.406786 
-0.0 0.0 1.0 0.0 0.0 1:-1.357759 2:1.126295 3:0.478202 4:-0.129034 5:0.939182 6:-0.829118 7:0.627295 8:-0.94854 9:-0.054744 10:0.236305 11:-0.190554 
-0.6765007277183934 0.40928561755218335 0.2840304104783116 0.21719034061141992 0.08094142352165479 1:-1.693104 2:-0.469134 3:-0.444536 4:-0.027944 5:0.935898 6:3.389534 7:0.645306 8:-0.437739 9:6.681322 10:0.909639 11:-3.051792 
-0.0 0.0 0.12961523633456598 0.11908719503291543 0.0 1:-0.6365 2:-0.072753 3:-1.404219 4:-0.664625 5:-0.115776 6:1.208726 7:1.876457 8:-3.145955 9:-0.324495 10:0.883767 11:0.719695 
-0.2819595735248375 0.2858138474572066 0.0 0.0 0.016447565378043302 1:-0.71192 2:-0.106764 3:-1.630539 4:-1.126231 5:0.044775 6:1.930452 7:0.484816 8:-2.000158 9:-0.911115 10:0.920315 11:0.708982 
-0.0 0.0 0.0 0.0 0.029896398537810166 1:-1.866866 2:-0.141403 3:-0.711143 4:0.442491 5:1.273642 6:1.643815 7:0.61206 8:1.518373 9:-0.661174 10:0.316058 11:0.672948 
-0.5588817625427873 0.12752151588056873 0.7124761384047209 0.0 0.023811044979965716 1:-0.739109 2:-1.66708 3:-0.154206 4:-0.413729 5:-0.659075 6:-1.566768 7:1.223246 8:-1.269307 9:0.472456 10:-0.142596 11:-0.401073 
-0.26342739948621274 0.29749266721799467 0.2726859200241559 0.0 0.048299063612498645 1:-0.894977 2:-1.737369 3:-0.621935 4:-1.367715 5:-0.327268 6:-0.075201 7:-1.652813 8:1.098674 9:-0.739891 10:-0.067064 11:-0.423212 
-0.33044015830205475 0.3283568564287177 0.5457183834355716 0.5230233715826391 0.0 1:-0.836305 2:0.391752 3:-1.552348 4:0.403628 5:0.265255 6:-1.507852 7:2.91177 8:-1.223638 9:0.53661 10:-0.034113 11:0.522198 
-0.4172415186970361 0.23786179947862518 0.0 0.0 0.0 1:-1.105901 2:-0.875696 3:-0.470934 4:2.049567 5:1.446542 6:-1.300286 7:-0.676424 8:-0.414711 9:-0.187593 10:0.013353 11:-0.339266 
-0.0 0.07172878417056308 0.0 0.0 0.0 1:-0.956977 2:0.337334 3:-1.914461 4:-0.334942 5:0.522138 6:-0.35309 7:0.685143 8:0.609637 9:-0.401981 10:0.024363 11:0.505058 
-0.0 0.0 0.0 0.25387711403739505 0.0 1:-0.992173 2:0.321462 3:-2.020077 4:-0.550358 5:0.597062 6:-0.016285 7:0.03571 8:1.144342 9:-0.675736 10:0.041418 11:0.500059 
-0.0 0.0 0.004514962555045882 0.0 0.0 1:-0.784361 2:-1.687486 3:-0.289999 4:-0.690693 5:-0.562744 6:-1.133733 7:0.388261 8:-0.581829 9:0.120484 10:-0.120667 11:-0.4075 
-0.8093202759046154 0.5868560513606275 0.4008719984489646 0.3973090220724585 0.09967030792564824 1:-0.422834 2:-0.660664 3:-1.207723 4:-0.644754 5:0.348853 6:1.502023 7:-1.744495 8:-0.024888 9:-0.972601 10:-6.766701 11:0.803266 
-0.6675587519413286 0.49813182467837197 0.47849632520511803 0.35336315524595074 0.028832873501433594 1:-1.593769 2:0.905681 3:0.268865 4:-1.64148 5:1.002884 6:-0.466675 7:-2.334641 8:0.569573 9:-0.811921 10:0.247966 11:-0.553688 
-1.0 -0.0 0.3104450562520319 0.8396381072837048 0.0 1:0.44825 2:1.297943 3:0.647747 4:-0.654542 5:0.334353 6:-0.260258 7:-1.687173 8:0.108717 9:0.230759 10:0.102388 11:-0.581098 
-0.0 -0.0 0.6616793325796143 0.0411715061789741 0.0 1:0.48987 2:1.084361 3:0.54524 4:-1.081218 5:1.606342 6:-0.352398 7:0.233053 8:0.060347 9:0.321494 10:-0.797527 11:-0.012248 
-1.0 -0.0 1.0 0.0 0.0 1:0.444642 2:1.303933 3:0.646303 4:-0.632576 5:0.273428 6:-0.256045 7:-1.770699 8:0.093261 9:0.227405 10:0.093867 11:-0.604482 
-1.0 -0.0 0.0 0.0 0.0 1:0.466971 2:1.335464 3:0.668378 4:-0.701899 5:0.402812 6:-0.272771 7:-1.668825 8:0.129218 9:0.238996 10:0.113009 11:-0.572309 
-1.0 -1.0 1.0 1.0 0.6615676838378913 1:0.255571 2:-0.096164 3:-0.333483 4:-0.485345 5:-1.11674 6:-0.362702 7:2.586599 8:3.268666 9:0.468152 10:-0.871636 11:0.743214 
-0.024207763439705616 -0.6979707408552083 0.05744347016637356 0.13525971210938 0.01682045539710922 1:0.877799 2:-0.673697 3:-0.477513 4:1.335231 5:2.912552 6:0.250078 7:-0.359949 8:1.911478 9:-0.237676 10:0.204064 11:0.30649 
-1.0 -1.0 0.7047587355743219 0.6386935248425166 0.12115546205971567 1:1.036324 2:-0.587455 3:-0.023606 4:2.353781 5:2.533901 6:-1.178734 7:2.461145 8:-0.43794 9:0.952646 10:0.123395 11:0.326736 
-0.0 -0.0 0.0 0.3209310842517643 0.0 1:0.987492 2:-1.383458 3:0.193958 4:-0.511944 5:1.810653 6:0.258213 7:-0.715218 8:-1.804465 9:0.134873 10:1.064492 11:-0.159675 
-0.2646320334578562 -0.0 0.0 0.0 0.0 1:0.799829 2:-0.533656 3:-0.495634 4:1.871235 5:1.500574 6:0.298866 7:-2.188272 8:1.479589 9:-0.275706 10:0.005648 11:-0.230619 
-1.0 -0.933272459060712 0.15595416799510042 0.12311042647959511 0.1016639177611808 1:0.765932 2:-0.488002 3:-0.522272 4:2.016193 5:1.023877 6:0.380687 7:-2.949256 8:1.432322 9:-0.341645 10:-0.060083 11:-0.418402 
-1.0 -0.0 0.6275857429108618 0.0 0.0 1:1.066921 2:0.712855 3:-1.527851 4:0.387193 5:-0.214523 6:0.343955 7:0.382377 8:0.331877 9:0.343319 10:-0.484999 11:0.43219 
-1.0 -0.0 0.0 0.0 0.0 1:0.462299 2:1.30352 3:0.6772 4:-0.705399 5:0.45769 6:-0.267952 7:-1.553357 8:0.214223 9:0.233406 10:0.3352 11:-0.54989 
-0.9075908289265462 -0.6973019025926054 0.0686465148488509 0.1376333762344691 0.12664709275791258 1:0.572412 2:-0.369033 3:-0.957776 4:-0.303461 5:-0.802229 6:-1.350902 7:0.54668 8:1.73585 9:0.659904 10:6.405424 11:-0.287434 
-1.0 -0.0 0.0 0.0 0.0 1:1.109337 2:-1.319322 3:-0.118702 4:-0.493906 5:-0.017667 6:0.116246 7:-0.702557 8:0.011679 9:0.274031 10:0.328848 11:-0.321217 
-0.0 -0.0 0.0 0.9586145789116474 0.0 1:0.491553 2:1.226061 3:0.665073 4:-0.91814 5:1.065453 6:-0.310816 7:-0.684861 8:0.294197 9:0.271005 10:0.204638 11:-0.300495 
-0.0 -0.0 0.125728489759243 0.0 0.0 1:0.753311 2:0.481143 3:-1.06488 4:-0.724566 5:-0.279497 6:-1.541937 7:-1.157721 8:-1.432139 9:0.856324 10:-0.17002 11:-0.373269 
-0.04998664908513977 -0.0 0.0 0.0 0.0 1:0.837863 2:-0.501269 3:-0.362729 4:2.192131 5:1.282393 6:-0.125743 7:-1.520339 8:0.761197 9:0.069558 10:-0.033323 11:-0.270958 
-0.0 -0.0 0.0 0.7024248243215725 0.0 1:1.182238 2:-1.35569 3:-0.191216 4:-0.741073 5:0.021908 6:0.051177 7:0.309077 8:0.868056 9:0.354128 10:-0.066146 11:-0.080693 
-0.0 -0.0 0.6079753519016879 0.0 0.0 1:0.771991 2:0.476775 3:-1.093547 4:-0.762302 5:-0.352664 6:-1.563718 7:-1.006108 8:-1.222703 9:0.876276 10:-0.228247 11:-0.347332 
-0.15790677671589123 -0.0 0.0 0.0 0.0 1:0.503057 2:1.275562 3:0.682816 4:-0.921564 5:1.012061 6:-0.314903 7:-0.833565 8:0.283784 9:0.272535 10:0.198217 11:-0.338473 
-1.0 -1.0 1.0 1.0 0.0 1:-0.007958 2:-0.001047 3:0.071607 4:0.129633 5:0.044806 6:-0.021509 7:0.193957 8:-0.070138 9:-0.186697 10:0.032111 11:-0.029041 
-0.0 -0.0 0.0 0.3182086203084014 0.0 1:1.032674 2:0.742172 3:-1.584539 4:0.425733 5:-0.214878 6:0.172979 7:0.517688 8:0.739213 9:0.368339 10:-0.142619 11:0.42166 
-0.0 -0.40302231551934925 0.2532977949318036 0.4094172266395643 0.0 1:0.450417 2:0.860864 3:0.291136 4:-1.187708 5:2.07887 6:-0.39343 7:1.23362 8:-0.56192 9:0.388933 10:-2.887067 11:0.33041 
-0.3797671734422112 -0.0 0.0 0.0 0.0 1:1.038939 2:0.752135 3:-1.596916 4:0.46833 5:-0.200797 6:0.23152 7:0.546249 8:0.773233 9:0.349668 10:-0.139236 11:0.443151 
-0.003905716336418542 -0.0 0.0 0.0 0.0 1:0.7494 2:0.819849 3:-1.152577 4:1.053237 5:0.933292 6:0.569118 7:-1.803752 8:-2.473028 9:0.040401 10:0.763279 11:0.041139 
-0.0 -0.0 0.0 0.8693715742415584 0.0 1:0.588972 2:-0.317126 3:-0.972533 4:-0.340393 5:-0.790137 6:-1.368968 7:0.482796 8:1.596755 9:0.677792 10:5.978083 11:-0.285504 
-1.0 -0.47545383258992097 0.3159266792713451 0.28749769744983017 0.041604446431226336 1:0.859372 2:-1.192696 3:0.185577 4:0.160661 5:0.010522 6:0.427727 7:-3.233447 8:-2.326813 9:0.017774 10:0.604174 11:-0.841322 
-0.0 -0.4293346547183001 0.5099402440585354 0.0 0.0 1:1.247248 2:-1.449129 3:-0.174607 4:-1.063502 5:0.76009 6:0.046351 7:1.484756 8:1.075445 9:0.400349 10:0.042977 11:0.24279 
-0.0 -0.029994029908329674 0.0 0.0 0.0 1:0.984806 2:-0.617824 3:-0.14702 4:2.03422 5:2.616151 6:-0.80424 7:1.597599 8:0.215518 9:0.619346 10:0.14194 11:0.298818 
-0.343567912736004 -0.0 0.0 0.0 0.0 1:0.8324 2:0.828328 3:-1.274624 4:0.883827 5:0.64667 6:0.472963 7:-1.229242 8:-1.704831 9:0.129156 10:0.316701 11:0.145849 
-1.0 -0.0 0.0 0.0 0.0 1:0.999711 2:-1.272857 3:0.027739 4:-0.136415 5:-0.068804 6:0.241252 7:-2.11497 8:-1.081972 9:0.148869 10:0.320117 11:-0.611637 
-0.0 -0.4879065147993395 0.23927736825724666 0.5440756945536773 0.0535233242713911 1:0.759922 2:0.810976 3:-1.173178 4:1.058496 5:0.942257 6:0.536889 7:-1.86711 8:-2.519096 9:0.046908 10:0.997084 11:0.008311 
-0.2580127067434775 -0.09049967078224977 0.0 0.034343892330052486 0.0 1:0.354767 2:0.615059 3:-0.080781 4:-1.090769 5:2.058049 6:-0.403687 7:1.698923 8:-1.606206 9:0.445784 10:-5.907857 11:0.548235 
-1.0 -1.0 1.0 1.0 0.0 1:0.029458 2:0.058723 3:-0.002845 4:0.385032 5:0.128308 6:0.328958 7:0.350548 8:0.132858 9:-0.223969 10:0.075933 11:0.597396 
-1.0 -0.3558109980810675 0.9460238008562273 0.9964151414747332 0.03954647407167246 1:1.131717 2:-1.271828 3:-0.21143 4:-0.433542 5:-0.831041 6:0.110161 7:-0.860288 8:0.651664 9:0.307174 10:-0.185439 11:-0.408064 
-0.45072053514186383 -0.020014317383135704 0.0 0.0 0.0 1:0.837371 2:0.461484 3:-1.193882 4:-0.894377 5:-0.608748 6:-1.639949 7:-0.475463 8:-0.489676 9:0.946111 10:-0.432041 11:-0.256555 
-1.0 -1.0 1.0 1.0 0.0765850640544093 1:0.110915 2:0.188231 3:-0.163753 4:0.938795 5:0.311356 6:1.089998 7:0.721846 8:0.575119 9:-0.466694 10:0.119909 11:0.876775 
-1.0 -0.0 0.0 1.0 0.0 1:0.469902 2:1.262002 3:0.65641 4:-0.786341 5:0.699903 6:-0.285537 7:-1.186017 8:0.201457 9:0.250882 10:0.153513 11:-0.440797 
-0.0 -0.0 0.0 0.9126677307762929 0.0 1:0.973207 2:0.66466 3:-1.471186 4:0.103824 5:-0.29094 6:-0.284463 7:0.21339 8:0.362334 9:0.507732 10:-0.140567 11:0.236766 
-1.0 -0.42827715120136467 0.0 0.0 0.007425619186310131 1:0.452921 2:1.329887 3:0.638925 4:-0.651042 5:0.279475 6:-0.265078 7:-1.802641 8:0.023713 9:0.236349 10:-0.119804 11:-0.603517 
-1.0 -0.0 0.0 0.05002194952540141 0.0 1:0.7494 2:0.819849 3:-1.152577 4:1.053237 5:0.933292 6:0.569118 7:-1.803752 8:-2.473028 9:0.040401 10:0.763279 11:0.041139 
-1.0 -0.0 0.0 0.747272945540639 0.0 1:1.458083 2:0.517402 3:-0.64621 4:0.317905 5:-0.247122 6:0.916045 7:-1.255466 8:1.577716 9:0.131072 10:-0.354351 11:0.289074 
-1.0 -0.0 0.0 0.0 0.0 1:1.128376 2:-1.318404 3:-0.131816 4:-0.529832 5:-0.275492 6:0.185066 7:-0.564797 8:0.242722 9:0.28339 10:0.018127 11:-0.289722 
-0.0 -0.0 0.0 0.5107538109151281 0.0 1:0.819291 2:-0.555349 3:-0.47477 4:1.814142 5:1.73357 6:0.233898 7:-1.761391 8:1.465029 9:-0.223183 10:0.037295 11:-0.13637 
-0.6462994128810976 -0.22652296921936757 0.0 0.0 0.07159740978367111 1:0.458697 2:0.886818 3:0.283758 4:-1.206174 5:2.084916 6:-0.402463 7:1.201678 8:-0.631467 9:0.397877 10:-3.100738 11:0.331375 
-1.0 -0.0 0.6032129566430408 0.0 0.0 1:1.139838 2:-1.310792 3:-0.163371 4:-0.523634 5:-0.470509 6:0.171711 7:-0.580236 8:0.421245 9:0.296635 10:-0.057142 11:-0.310553 
-0.0 -0.0 0.11229933047567499 0.0 0.0 1:1.010919 2:0.758688 3:-1.553916 4:0.524934 5:-0.091047 6:0.264191 7:0.31883 8:0.459079 9:0.319739 10:-0.051896 11:0.404247 
-0.3651548911595594 -0.5873828583635239 0.3419238299350757 0.10597301953950777 0.1245467834575249 1:0.595591 2:0.490139 3:-0.828166 4:-0.404212 5:0.299793 6:-1.358661 7:-2.338683 8:-3.038081 9:0.687758 10:0.509465 11:-0.581724 
-0.0 -0.0 0.017245168126163092 0.0 0.0 1:0.929934 2:0.7662 3:-1.42687 4:0.633281 5:0.187541 6:0.292772 7:-0.316184 8:-0.412686 9:0.258599 10:0.177629 11:0.279011 
-0.4672829831781545 -0.8419729862089466 0.319674967573824 0.21248542244413682 0.08858097075158981 1:0.559732 2:1.141785 3:0.716184 4:-1.298496 5:2.102665 6:-0.381708 7:0.701845 8:0.631551 9:0.32396 10:0.565264 11:0.081467 
-0.0 -0.0 0.17625761152666083 0.0 0.0 1:1.06163 2:-1.412131 3:0.105796 4:-0.662016 5:1.53731 6:0.242817 7:-0.170539 8:-1.169703 9:0.197352 10:0.888163 11:-0.062369 
-1.0 -0.0996986246877497 0.21111903880546962 0.7091152574957781 0.0 1:0.763609 2:-0.560414 3:-0.217441 4:1.959506 5:0.754629 6:-0.782109 7:-2.121556 8:0.175484 9:0.314361 10:-0.123148 11:-0.624739 
-0.2676759524517291 -0.41928642742663313 0.5412756911344194 0.8035339323116258 0.0 1:0.87235 2:-1.303745 3:0.440806 4:-0.54479 5:1.776907 6:0.663116 7:-0.219212 8:-1.65149 9:0.042491 10:-1.187863 11:0.149202 
-0.0 -0.3670724810151424 0.09079316810038693 0.0 0.08905867584598931 1:0.967048 2:-1.383599 3:0.255398 4:-0.497463 5:1.857596 6:0.373058 7:-0.789438 8:-2.066099 9:0.101057 10:0.916379 11:-0.146254 
-0.7133411516144101 -0.0 0.0 0.0 0.021482753848412608 1:0.838431 2:0.433346 3:-1.200837 4:-0.894779 5:-0.651378 6:-1.641807 7:-0.367714 8:-0.31541 9:0.947143 10:-0.247484 11:-0.244552 
-1.0 -0.0 0.0 1.0 0.0 1:1.177144 2:-1.333914 3:-0.211325 4:-0.672075 5:-0.258375 6:0.057139 7:0.050779 8:0.910948 9:0.350689 10:-0.129343 11:-0.16126 
-0.07739438762002696 -0.9917083999701763 1.0 0.3610764148958841 0.0 1:0.805311 2:0.329532 3:-1.171324 4:-0.820915 5:-0.675563 6:-1.605676 7:-0.239946 8:-0.03722 9:0.911368 10:0.6072 11:-0.248412 
-1.0 -0.0 0.0 0.0 0.0 1:1.101841 2:-1.327637 3:-0.070151 4:-0.520259 5:0.053617 6:0.215987 7:-0.617445 8:-0.129781 9:0.253546 10:0.160143 11:-0.271444 
-0.0 -0.0 0.0 0.10192357962946837 0.0 1:0.416257 2:0.773077 3:0.158309 4:-1.153087 5:2.071434 6:-0.397093 7:1.399799 8:-0.934879 9:0.409237 10:-3.96592 11:0.408204 
-0.0 -0.0 0.0 0.0 0.1597910259958083 1:1.247524 2:-1.453056 3:-0.173567 4:-1.03046 5:0.786852 6:-0.027873 7:1.401055 8:1.235438 9:0.405783 10:-0.224708 11:0.239208 
-1.0 -0.6725917289761666 0.8244858285203 1.0 0.05125030785865266 1:0.613812 2:-0.239265 3:-0.994668 4:-0.395792 5:-0.771998 6:-1.396066 7:0.38697 8:1.388111 9:0.704624 10:5.33707 11:-0.28261 
-1.0 -1.0 0.5316437755044847 1.0 0.14715253262953223 1:0.347935 2:0.597501 3:-0.107346 4:-1.083844 5:2.056562 6:-0.40442 7:1.732158 8:-1.680798 9:0.449845 10:-6.123627 11:0.563793 
-0.0 -0.0 0.0 0.17749163790591732 0.0 1:1.23849 2:-1.435747 3:-0.18678 4:-1.045506 5:0.777349 6:-0.014485 7:1.470721 8:1.17371 9:0.407704 10:0.015512 11:0.236261 
-0.0 -1.0 -0.0 0.48721436913201904 0.0 1:-1.133531 2:-0.65872 3:1.59332 4:-0.325067 5:0.068858 6:-0.525765 7:0.688504 8:0.116597 9:0.055673 10:1.093465 11:0.291176 
-1.0 -0.48381017534979115 -0.5290513482662241 0.4298239187364453 0.0635373560280991 1:-0.589994 2:-1.232769 3:-0.564119 4:1.641607 5:-2.151003 6:0.440828 7:-0.458136 8:-0.750632 9:-0.191951 10:-0.521748 11:-0.438456 
-0.0 -0.0 -0.0 1.0 0.0 1:-0.045732 2:-0.060822 3:0.145684 4:-0.126134 5:-0.04066 6:-0.373539 7:0.007812 8:-0.275384 9:8.4E-5 10:0.03534 11:0.339507 
-0.0 -0.0 -0.0 1.0 0.0 1:-0.008137 2:-0.00105 3:0.071419 4:0.129449 5:0.043824 6:-0.022291 7:0.17918 8:-0.071263 9:-0.111943 10:0.055637 11:0.468451 
-0.0 -1.0 -0.1130822054439115 1.0 0.0 1:-0.13972 2:-0.210254 3:0.331346 4:-0.765092 5:-0.25187 6:-1.251662 7:-0.420608 8:-0.785685 9:0.28015 10:-0.015401 11:0.017146 
-0.0 -1.0 -0.0 1.0 0.0 1:-0.546522 2:-1.33785 3:-0.522308 4:1.020988 5:-0.243539 6:0.273547 7:2.070653 8:-0.377225 9:-0.099242 10:-0.016192 11:0.250993 
-1.0 -0.9033265847160264 -0.45756506616326276 0.7927663109186975 0.03923231108059552 1:-0.959666 2:0.690352 3:0.011598 4:-1.878063 5:-1.415206 6:2.064594 7:-0.349377 8:1.059549 9:-1.053547 10:0.120262 11:0.027228 
-0.0 -1.0 -0.0 0.0 0.0 1:-0.513962 2:-1.357822 3:-0.551965 4:1.073427 5:-0.559197 6:0.283838 7:1.769172 8:-0.312221 9:-0.095474 10:-0.087452 11:0.160042 
-0.0 -0.0 -0.0 1.0 0.0 1:-0.051998 2:-0.070784 3:0.158062 4:-0.168731 5:-0.054741 6:-0.432081 7:-0.02075 8:-0.309404 9:0.018755 10:0.031958 11:0.318016 
-0.0 -0.0 -0.0 1.0 0.0 1:-0.06453 2:-0.090709 3:0.182817 4:-0.253926 5:-0.082902 6:-0.549164 7:-0.077872 8:-0.377444 9:0.056097 10:0.025192 11:0.275035 
-0.0 -0.0 -0.0 1.0 0.0 1:-0.008137 2:-0.00105 3:0.071419 4:0.129449 5:0.043824 6:-0.022291 7:0.17918 8:-0.071263 9:-0.111943 10:0.055637 11:0.468451 
-0.7576568502357199 -0.6291189614733387 -0.9866535514586147 0.13466982903776228 0.11406938157236336 1:-1.111392 2:0.636763 3:0.174158 4:-2.165556 5:-2.601216 6:1.253882 7:-2.114213 8:0.301942 9:-0.827142 10:-0.066813 11:-0.66927 
-0.0 -1.0 -0.0 0.5901926296908073 0.0 1:-1.051467 2:1.358374 3:0.04357 4:0.507535 5:-0.356524 6:-0.33457 7:2.231935 8:1.352669 9:0.029529 10:-0.453879 11:0.170354 
-1.0 -0.5272486437189061 -1.0 1.0 0.0 1:-0.007958 2:-0.001047 3:0.071607 4:0.129633 5:0.044806 6:-0.021509 7:0.193957 8:-0.070138 9:-0.186697 10:0.032111 11:-0.029041 
-0.0 -1.0 -0.0 0.0 0.04200464256353149 1:-1.268397 2:-0.778378 3:0.717258 4:-0.649437 5:-0.568018 6:-0.493821 7:3.280794 8:-0.803495 9:0.289421 10:-0.021582 11:0.714132 
-0.20291645748402706 -0.0 -0.6516522798176181 0.5429130315531506 0.0 1:-1.038094 2:1.442732 3:-0.095643 4:0.730022 5:-1.684916 6:-0.350068 7:1.418445 8:1.927652 9:0.052325 10:-0.831641 11:-0.123422 
-0.47505936207530547 -1.0 -0.2590696185236009 1.0 0.04245804933299994 1:-1.22447 2:1.352518 3:0.371902 4:0.724932 5:0.996638 6:-0.132904 7:1.315927 8:-0.81202 9:-0.159766 10:0.263304 11:0.095507 
-0.0 -1.0 -0.0 1.0 0.0 1:-1.251216 2:1.410235 3:0.34313 4:0.925729 5:0.350805 6:-0.101662 7:0.556473 8:-0.861868 9:-0.183329 10:0.148982 11:-0.125361 
-0.9266109250045994 -1.0 -0.47075818123130797 0.8110438599371685 0.0770238448266486 1:-0.871756 2:0.546773 3:0.649251 4:-1.844247 5:-1.327566 6:-0.250997 7:2.74797 8:-1.511394 9:0.394189 10:0.084071 11:-0.040587 
-0.0 -0.0 -0.4190091010875865 1.0 0.0 1:-0.008137 2:-0.00105 3:0.071419 4:0.129449 5:0.043824 6:-0.022291 7:0.17918 8:-0.071263 9:-0.111943 10:0.055637 11:0.468451 
-1.0 -1.0 -1.0 0.0 0.14064133069557117 1:-0.484807 2:-0.886041 3:-0.111326 4:1.519921 5:-2.116477 6:0.406568 7:-1.000751 8:0.628561 9:-0.255769 10:3.574878 11:-0.727992 
-0.0 -1.0 -0.0 1.0 0.0 1:-0.120923 2:-0.180368 3:0.294214 4:-0.6373 5:-0.209628 6:-1.076037 7:-0.334924 8:-0.683625 9:0.224137 10:-0.005252 11:0.081618 
-0.0 -0.0 -0.0 1.0 0.0 1:-0.020669 2:-0.020974 3:0.096174 4:0.044255 5:0.015663 6:-0.139373 7:0.122057 8:-0.139303 9:-0.074601 10:0.048871 11:0.42547 
-0.0 -0.9434474232379632 -0.0 0.0 0.0 1:-1.278599 2:1.44237 3:0.350244 4:1.05443 5:0.082764 6:-0.069706 7:0.063037 8:-1.043869 9:-0.210074 10:0.135491 11:-0.255247 
-0.0 -0.0 -1.0 1.0 0.0 1:-0.008137 2:-0.00105 3:0.071419 4:0.129449 5:0.043824 6:-0.022291 7:0.17918 8:-0.071263 9:-0.111943 10:0.055637 11:0.468451 
-0.0 -0.0 -1.0 1.0 0.0 1:-0.008137 2:-0.00105 3:0.071419 4:0.129449 5:0.043824 6:-0.022291 7:0.17918 8:-0.071263 9:-0.111943 10:0.055637 11:0.468451 
-0.0 -0.0 -0.0 0.0 0.07479983174202143 1:-0.839092 2:-0.860232 3:1.404913 4:-0.754912 5:-0.774762 6:-0.528115 7:2.07809 8:2.237703 9:0.228768 10:-0.610798 11:0.623851 
-0.0 -0.34677611307748574 -0.0 0.0 0.0 1:-1.035611 2:0.510969 3:0.204479 4:-2.626853 5:-1.321791 6:1.165405 7:-0.360167 8:0.626531 9:-0.756711 10:0.112125 11:-0.178215 
-1.0 -1.0 -1.0 0.0 0.09318489081693092 1:-0.208645 2:-0.319838 3:0.467499 4:-1.23366 5:-0.406757 6:-1.895618 7:-0.734783 8:-1.159906 9:0.485533 10:-0.052611 11:-0.219252 
-0.0 -0.6291016817348458 -0.0 0.0 0.0 1:-1.125818 2:-0.797135 3:1.780807 4:-0.215863 5:0.275171 6:-0.199642 7:-0.017396 8:-0.935442 9:-0.054565 10:0.257939 11:0.260388 
-0.0 -0.0 -0.0 1.0 0.0 1:-0.0332 2:-0.040898 3:0.120929 4:-0.04094 5:-0.012499 6:-0.256456 7:0.064934 8:-0.207343 9:-0.037258 10:0.042106 11:0.382488 
-0.6690986676147291 -0.0 -1.0 1.0 0.0 1:-0.008137 2:-0.00105 3:0.071419 4:0.129449 5:0.043824 6:-0.022291 7:0.17918 8:-0.071263 9:-0.111943 10:0.055637 11:0.468451 
-0.0 -0.10393447164906824 -0.0 0.0 0.0 1:-0.908371 2:0.522644 3:0.529991 4:-2.112404 5:-1.181014 6:0.12971 7:2.089287 8:-0.884846 9:0.084679 10:0.112084 11:-0.022916 
-0.3568052635369267 -0.14042546995854754 -0.025741665369952482 0.7885989328545144 0.0 1:-0.87431 2:-0.358292 3:1.399992 4:1.02044 5:0.752892 6:1.557324 7:0.605394 8:-0.092238 9:-0.594631 10:-0.729999 11:0.918813 
-0.0 -0.08350120534365069 -0.0 0.0 0.0 1:-0.517571 2:-1.351832 3:-0.553409 4:1.095394 5:-0.620122 6:0.288051 7:1.685646 8:-0.327678 9:-0.098828 10:-0.095972 11:0.136658 
-1.0 -0.8799245599821119 -1.0 0.9789403892782499 1.0 1:-0.829752 2:-0.862416 3:1.39058 4:-0.77378 5:-0.811345 6:-0.539005 7:2.153896 8:2.342421 9:0.238744 10:-0.639912 11:0.636819 
-0.0 -0.0 -0.16892305827729284 0.0 0.0 1:-0.79429 2:-0.516457 3:1.250548 4:0.867488 5:0.247075 6:1.460915 7:1.750588 8:1.616836 9:-0.509658 10:-0.040119 11:1.082574 
-0.6048914489915366 -0.0 -0.0 0.0 0.04521339521423076 1:-0.960552 2:0.704785 3:0.626799 4:-1.242344 5:-2.922319 6:-0.18957 7:0.66907 8:-1.989653 9:0.346097 10:-0.139908 11:-0.647846 
-1.0 -1.0 -1.0 0.47094711331258343 0.0 1:-0.199887 2:-0.33322 3:0.479672 4:-1.251656 5:-0.424016 6:-1.834782 7:-0.720749 8:-1.258172 9:0.478177 10:-0.025145 11:-0.212724 
-0.6158464388539232 -0.0 -0.0 0.0 0.05632228191779188 1:-1.04892 2:1.460702 3:-0.099975 4:0.795922 5:-1.867691 6:-0.337429 7:1.167867 8:1.881282 9:0.042263 10:-0.857204 11:-0.193573 
-0.6019499065706906 -0.34836347150465147 -0.6829236126614933 1.0 0.0686065122637195 1:-0.71871 2:-0.311012 3:1.177188 4:0.70089 5:0.258861 6:1.377763 7:1.570859 8:1.165173 9:-0.42813 10:-1.778599 11:1.103262 
-0.0 -0.0 -0.0 1.0 0.0 1:-1.059825 2:-0.717189 3:1.721565 4:0.133036 5:0.398805 6:0.256034 7:0.108193 8:-0.526962 9:-0.209916 10:0.260552 11:0.419701 
-0.0 -1.0 -0.0 0.417809365810053 0.0 1:-0.499528 2:-1.381782 3:-0.54619 4:0.985561 5:-0.315497 6:0.266985 7:2.103276 8:-0.250395 9:-0.082059 10:-0.053368 11:0.253576 
-0.0 -0.935515043758559 -0.0 0.2620662125846707 0.0 1:-1.278599 2:1.44237 3:0.350244 4:1.05443 5:0.082764 6:-0.069706 7:0.063037 8:-1.043869 9:-0.210074 10:0.135491 11:-0.255247 
-0.0 -0.0 -0.0 0.0 0.05021134303259126 1:-0.931576 2:-0.488309 3:1.397105 4:1.104649 5:0.711671 6:1.615143 7:0.868006 8:0.119182 9:-0.633369 10:0.362804 11:0.926601 
-0.32466145036374383 -1.0 -0.40119867098223627 0.9852855654019532 0.005570302018165867 1:-0.499528 2:-1.381782 3:-0.54619 4:0.985561 5:-0.315497 6:0.266985 7:2.103276 8:-0.250395 9:-0.082059 10:-0.053368 11:0.253576 
-0.2556398325121814 -0.0 -0.0 0.0 0.0 1:-1.002633 2:0.705183 3:0.272411 4:-2.489914 5:-2.136946 6:1.36875 7:-1.631377 8:0.076383 9:-0.798784 10:-0.123621 11:-0.505432 
-0.3114570305019235 -0.0801275800759213 -0.15388497987133704 1.0 0.0 1:-0.466379 2:-0.94553 3:-0.127785 4:1.373079 5:-1.69149 6:0.376343 7:-0.382833 8:0.662166 9:-0.228231 10:3.418754 11:-0.548748 
-1.0 -0.0 -0.9258363790821704 1.0 0.0 1:-0.008137 2:-0.00105 3:0.071419 4:0.129449 5:0.043824 6:-0.022291 7:0.17918 8:-0.071263 9:-0.111943 10:0.055637 11:0.468451 
-0.6378287337332021 -0.33809572234265606 -0.49531179094092387 0.704198977535556 0.03736889760680396 1:-0.930814 2:1.349726 3:-0.339119 4:0.90202 5:-1.677974 6:-0.734622 7:0.192594 8:1.072966 9:0.106906 10:2.240485 11:-0.646279 
-0.8338421248058213 -0.0 -0.44961877095929564 0.3304371401289916 0.047392133654259844 1:-1.32912 2:1.526232 3:0.330031 4:1.361961 5:-0.770186 6:-0.010722 7:-1.106328 8:-1.260262 9:-0.257028 10:0.016199 11:-0.582617 
-0.21070415522351366 -0.7196778584420491 -0.16433383557191636 0.0 0.0023634956336754803 1:-0.91571 2:-0.48806 3:1.436883 4:1.112771 5:0.72266 6:1.602488 7:0.765104 8:0.255501 9:-0.639351 10:0.338355 11:0.913988 
-0.0 -1.0 -0.0 0.0 0.0 1:-1.191567 2:1.391139 3:0.258573 4:0.790555 5:0.192229 6:-0.171217 7:1.094838 8:-0.218103 9:-0.120117 10:-0.017178 11:-0.024168 
-0.0 -0.33486849033083355 -0.0 1.0 0.0 1:-0.474125 2:-1.163863 3:-0.321539 4:1.142908 5:-0.911362 6:0.315711 7:0.968892 8:0.266366 9:-0.152144 10:1.803359 11:-0.12029 
-0.0 -0.0 -0.0 0.352122083097459 0.0 1:-1.066091 2:-0.727151 3:1.733943 4:0.090439 5:0.384725 6:0.197492 7:0.079631 8:-0.560982 9:-0.191245 10:0.25717 11:0.39821 
-0.0 -0.0 -0.0 -1.0 0.0 1:-0.080069 2:-0.029029 3:0.030545 4:0.071412 5:0.042657 6:0.059212 7:0.273819 8:-0.278566 9:0.121764 10:0.111326 11:0.352745 
-0.0 -1.0 -0.0 -1.0 0.0 1:-0.276167 2:-0.477735 3:-0.251958 4:0.018688 5:0.081477 6:0.652011 7:-0.04672 8:0.580899 9:-0.32606 10:-1.047027 11:0.564057 
-0.9051267459237655 -1.0 -1.0 -1.0 0.0 1:-0.083533 2:-0.044404 3:0.004486 4:-0.12776 5:0.13956 6:0.370706 7:-0.581417 8:0.528778 9:-0.163956 10:0.079485 11:0.322521 
-0.0 -0.0 -0.0 -1.0 0.0 1:-0.061989 2:-0.021896 3:0.153857 4:0.156166 5:0.1271 6:0.007566 7:0.009179 8:-0.29175 9:0.128955 10:0.118219 11:0.302298 
-1.0 -0.20436026392885548 -0.30961741579902313 -0.01943360519665553 0.09326380355018933 1:0.243992 2:-0.323482 3:0.701519 4:0.256855 5:0.17165 6:0.160617 7:-1.475979 8:0.956388 9:0.016527 10:-2.796855 11:0.295424 
-1.0 -0.0 -0.9639546514034025 -0.0 0.0 1:0.135644 2:-0.059789 3:0.705773 4:0.312377 5:0.315101 6:-0.141349 7:-1.44709 8:1.47061 9:0.03492 10:-1.100513 11:0.179646 
-1.0 -1.0 -1.0 -1.0 0.8027186649058038 1:0.143491 2:-0.069952 3:-0.16148 4:-0.25893 5:-0.677737 6:-0.232019 7:1.676921 8:2.012049 9:0.348435 10:-0.522275 11:0.587596 
-0.0 -0.0 -0.0 -1.0 0.0 1:-0.168391 2:0.073519 3:0.366133 4:0.079453 5:-0.008103 6:0.351192 7:0.781928 8:0.319713 9:0.06735 10:-2.482746 11:0.676378 
-0.0 -1.0 -1.0 -0.0 0.0 1:-0.141414 2:-0.171842 3:-0.211649 4:-0.140838 5:0.150557 6:0.461808 7:-0.534318 8:0.159408 9:-0.213746 10:-1.426037 11:0.430005 
-0.0 -0.0 -0.0 -1.0 0.0 1:-0.038281 2:-0.023997 3:0.140278 4:0.149204 5:0.043229 6:-0.06233 7:0.253568 8:-0.1587 9:0.188016 10:0.057556 11:0.328948 
-0.0 -0.0 -0.0 -0.3869441507059622 0.0 1:-0.157869 2:0.064647 3:0.345532 4:0.084712 5:8.63E-4 6:0.318963 7:0.71857 8:0.273645 9:0.073858 10:-2.248942 11:0.64355 
-0.8165970726246078 -0.0 -0.0 -1.0 0.0 1:-0.130915 2:0.013459 3:0.272994 4:0.215862 5:0.246538 6:0.147813 7:-0.103972 8:-0.572419 9:0.069528 10:-0.466741 11:0.34891 
-1.0 -1.0 -0.14087696161460003 -0.48544013575296774 0.09690091610905326 1:0.09644 2:0.109139 3:0.574866 4:0.730057 5:-0.163404 6:-1.020968 7:1.94291 8:-1.31347 9:0.949871 10:1.08768 11:0.265436 
-1.0 -0.0 -0.0 -0.0 0.0 1:0.069495 2:0.082511 3:0.487948 4:0.613887 5:-0.122077 6:-0.82924 7:1.605042 8:-1.082516 9:0.7975 10:0.881655 11:0.278139 
-0.0 -0.0 -0.0 -1.0 0.0 1:-0.031449 2:-0.00644 3:0.166843 4:0.142279 5:0.044717 6:-0.061597 7:0.220332 8:-0.084108 9:0.183955 10:0.273327 11:0.313389 
-0.0 -0.0 -0.0 -1.0 0.0 1:0.003391 2:-0.037186 3:0.053522 4:0.02409 5:-0.128985 6:-0.068666 7:0.539824 8:0.441277 9:0.19879 10:-0.085574 11:0.393074 
-1.0 -0.7775723683801072 -1.0 -0.6951831051285678 0.07819865550300094 1:0.227437 2:-2.02E-4 3:0.818388 4:0.303004 5:0.209847 6:-0.312204 7:-1.333322 8:2.020611 9:0.127347 10:-0.120287 11:0.112303 
-1.0 -0.0 -0.8609501721172382 -0.0 0.0 1:0.187692 2:0.038456 3:0.742581 4:0.318215 5:0.147456 6:-0.356346 7:-0.802634 8:1.471745 9:0.22137 10:0.404176 11:0.133063 
-0.0 -0.0 -1.0 -1.0 0.0 1:0.059431 2:-0.050293 3:-0.032479 4:-0.089118 5:-0.348486 6:-0.134007 7:0.994663 8:1.069585 9:0.258648 10:-0.260255 11:0.470883 
-0.0 -0.0 -0.07232288111063152 -0.0 0.0047755703616783815 1:0.098362 2:0.327154 3:0.671588 4:0.010719 5:0.072973 6:-0.047676 7:-0.411151 8:1.333138 9:0.1068 10:4.37297 11:0.017769 
-1.0 -0.0 -0.0 -0.0 0.0 1:0.130209 2:-0.139139 3:0.501616 4:0.364806 5:0.154277 6:-0.328213 7:-0.665953 8:0.938532 9:0.216888 10:-1.775543 11:0.275326 
-0.76717779199983 -0.3556827185787025 -0.460269494632494 -0.4766770201420013 0.07649786593879913 1:0.276821 2:0.261936 3:0.98598 4:0.049155 5:-0.233143 6:0.375294 7:0.620874 8:-0.57874 9:0.272468 10:5.14604 11:-0.400029 
-0.4644128274086565 -1.0 -1.0 -1.0 0.19247928823312113 1:0.201879 2:0.518601 3:1.042859 4:0.156893 5:0.012921 6:-0.377155 7:-0.094077 8:1.544352 9:0.339948 10:6.513621 11:-0.132821 
-0.0 -1.0 -0.0 -1.0 0.0 1:-0.16663 2:0.00233 3:-0.170083 4:-0.021941 5:-0.009603 6:0.184727 7:0.731982 8:-0.87091 9:0.110428 10:0.691996 11:0.396588 
-0.0 -0.0 -0.0 -1.0 0.0 1:-0.048337 2:-0.028532 3:0.110102 4:0.087656 5:0.064636 6:0.033901 7:0.068015 8:-0.005927 9:0.1098 10:0.062429 11:0.32752 
-0.0 -0.0 -0.0 -1.0 0.0 1:-0.048337 2:-0.028532 3:0.110102 4:0.087656 5:0.064636 6:0.033901 7:0.068015 8:-0.005927 9:0.1098 10:0.062429 11:0.32752 
-0.0 -0.0 -0.0 -1.0 0.0 1:-0.048337 2:-0.028532 3:0.110102 4:0.087656 5:0.064636 6:0.033901 7:0.068015 8:-0.005927 9:0.1098 10:0.062429 11:0.32752 
-0.0 -1.0 -1.0 -1.0 0.0 1:0.107295 2:-0.247197 3:-0.157351 4:-0.077247 5:-0.365693 6:-0.483679 7:0.634247 8:1.015913 9:0.32225 10:2.428988 11:0.174383 
-0.0 -0.024754126373231683 -0.39670306498734964 -0.0 0.0 1:-0.082498 2:-0.11632 3:-0.022725 4:0.122277 5:0.0572 6:0.030237 7:0.234195 8:-0.378887 9:0.130104 10:-1.016424 11:0.405314 
-1.0 -0.0 -0.0 -0.0 0.0 1:0.181498 2:-8.61E-4 3:0.713634 4:0.515508 5:0.067784 6:-0.634579 7:-0.043368 8:0.653332 9:0.474183 10:-0.233307 11:0.196637 
-0.0 -0.0 -0.0 -1.0 0.0 1:0.001943 2:-0.005858 3:0.260982 4:0.395394 5:-0.042398 6:-0.44725 7:0.995776 8:-0.769792 9:0.50088 10:0.038064 11:0.334661 
-1.0 -0.0 -0.0 -0.6095091117039003 0.0 1:0.075437 2:0.18719 3:0.538621 4:0.082357 5:0.083055 6:-0.078849 7:-0.351067 8:1.009041 9:0.127322 10:2.597907 11:0.117016 
-0.0 -0.0 -1.0 -0.2221588490163834 0.0 1:-0.073477 2:-0.039869 3:0.034662 4:-0.066213 5:0.118154 6:0.274476 7:-0.395865 8:0.376005 9:-0.08574 10:0.074612 11:0.323949 
-1.0 -1.0 -1.0 -1.0 0.20936364774724162 1:-0.239449 2:0.019606 3:0.426194 4:0.514657 5:0.822187 6:0.21448 7:-1.431145 8:-2.281394 9:-0.060596 10:0.671374 11:0.055903 
-1.0 -1.0 -1.0 -0.930937611534731 0.18021353946325414 1:-0.263358 2:-0.559794 3:-0.717039 4:0.233836 5:0.041427 6:0.108151 7:0.87954 8:-2.090912 9:0.153408 10:-6.405818 11:0.792859 
-0.0 -0.0 -0.0 -1.0 0.0 1:-0.080669 2:-0.017527 3:0.182524 4:0.193902 5:0.200267 6:0.029346 7:-0.142434 8:-0.501186 9:0.109002 10:0.176446 11:0.276361 
-0.0 -0.0 -1.0 -1.0 0.0 1:-0.099349 2:-0.013159 3:0.211191 4:0.231638 5:0.273434 6:0.051127 7:-0.294047 8:-0.710622 9:0.08905 10:0.234673 11:0.250425 
-1.0 -1.0 -1.0 -1.0 0.0 1:0.037139 2:0.010014 3:0.366599 4:0.61081 5:-0.117322 6:-0.784056 7:1.645209 8:-1.304497 9:0.774635 10:0.021009 11:0.33966 
-0.0 -0.0 -0.8364020962074786 -0.0 0.0 1:0.018641 2:-0.072813 3:0.007852 4:0.125855 5:0.062176 6:-0.186248 7:-0.080194 8:-0.207934 9:0.191421 10:1.199903 11:0.17706 
-0.0 -0.6875150685736348 -0.0 -1.0 0.0 1:0.006971 2:-0.003591 3:0.27607 4:0.426167 5:-0.053102 6:-0.495365 7:1.088552 8:-0.846179 9:0.539988 10:0.035628 11:0.335375 
-0.0 -0.0 -1.0 -0.0 0.0 1:-0.087141 2:-0.074984 3:-0.018469 4:-0.052364 5:0.115179 6:0.273011 7:-0.329393 8:0.226821 9:-0.077618 10:-0.35693 11:0.355067 
-0.0 -0.0 -0.0 -1.0 0.0 1:-0.003085 2:-0.008125 3:0.245894 4:0.36462 5:-0.031695 6:-0.399135 7:0.903 8:-0.693406 9:0.461772 10:0.040501 11:0.333947 
-0.0 -0.0 -0.0 -0.6579738656171978 0.0 1:-0.048337 2:-0.028532 3:0.110102 4:0.087656 5:0.064636 6:0.033901 7:0.068015 8:-0.005927 9:0.1098 10:0.062429 11:0.32752 
-0.0 -0.0 -0.0 -1.0 0.0 1:-0.071329 2:-0.019712 3:0.16819 4:0.175034 5:0.163683 6:0.018456 7:-0.066628 8:-0.396468 9:0.118979 10:0.147333 11:0.289329 
-0.40707897396292897 -0.27595265338274894 -0.2797247228499464 -0.0 0.01648394822612066 1:-0.461593 2:0.212621 3:0.86508 4:0.3801 5:0.588365 6:0.912622 7:0.038548 8:-1.163187 9:-0.193782 10:-4.501444 11:0.791096 
-0.5692051425420045 -1.0 -0.9421954431489981 -0.5820433131254208 0.1124721829570373 1:-0.415363 2:0.097936 3:0.92419 4:0.454929 5:0.593247 6:0.843823 7:-0.202033 8:-0.680286 9:-0.202357 10:-5.517983 11:0.817831 
-1.0 -0.17457552475679824 -1.0 -0.0 0.0 1:0.206907 2:0.520868 3:1.057947 4:0.187666 5:0.002218 6:-0.42527 7:-0.001301 8:1.467965 9:0.379055 10:6.511185 11:-0.132107 
-0.0 -0.0 -0.0 -0.01272896108629437 0.0 1:-0.115781 2:0.029156 3:0.263129 4:0.105746 5:0.036724 6:0.190048 7:0.465136 8:0.089374 9:0.099887 10:-1.313723 11:0.512236 
-0.595220366369368 -1.0 -0.7861057847200593 -1.0 0.1366319170047004 1:-0.580445 2:-1.045886 3:-0.458364 4:0.411144 5:-0.291985 6:0.229722 7:2.352592 8:-0.662083 9:0.017601 10:3.282262 11:0.570386 
-1.0 -1.0 -1.0 -1.0 -1.0 1:0.933606 2:-0.077947 3:-0.270735 4:-1.331357 5:1.736806 6:0.190152 7:0.806888 8:-6.843564 9:0.741123 10:1.801033 11:0.261267 
-1.0 -1.0 -1.0 -1.0 -1.0 1:-0.829752 2:-0.862416 3:1.39058 4:-0.77378 5:-0.811345 6:-0.539005 7:2.153896 8:2.342421 9:0.238744 10:-0.639912 11:0.636819 
